weight
-0.0424026423
-0.0061872486
-0.0630072998
-0.2220269388
0.0423388211
0.0174870707
0.0734475484
0.043328049
0.0964683137
0.0667782795
0.0342222795
0.0078736159
0.0040817691
0.1589043563
0.0146943275
0.1774758379
-0.0299927803
0.0687965976
0.0101959352
0.012505113
-0.0380564474
0.0102486526
-0.0867251854
-0.0433445453
-0.0601890103
-0.0987744997
0.0581374764
-0.1697484073
0.0703245849
0.0726060093
0.1406595848
-0.0687091379
-0.0896497102
-0.1451780673
0.0062041531
0.0173886635
-0.031568767
0.1502663386
-0.0210684903
-0.1315931847
-0.088717761
-0.087538857
0.0522295859
0.1306440771
0.2504880455
-0.0399750038
-0.0161112841
0.0179312394
-0.0590940969
0.0245678772
-0.2418554967
-0.2060480393
-0.1387887593
-0.0071158008
0.0325926767
-0.0431383226
0.089372334
0.0864690138
-0.0428507394
0.0686922469
-0.1051060949
-0.2046198483
0.036020255
0.0247589256
-0.0515521514
0.0565584432
0.0589218784
0.030267665
0.1686741616
-0.0668738404
0.031544971
-0.0985715018
0.1112894853
-0.1119576006
-0.0181375006
0.08268359
-0.0033115086
-0.0316325281
0.0761198377
0.0161779106
0.1736642603
-0.0154610304
-0.124823612
0.0455315799
-0.0095433805
-0.1158103765
0.0249095081
0.0817420753
0.0523375633
-0.0352772409
0.0875681044
-0.0210387623
-0.107136082
-0.0751727077
0.1206883276
-0.1622295464
0.0046397862
-0.131164478
-0.0157540639
-0.0297445706
-0.1945569719
-0.0024227742
-0.0934818016
0.1035913902
0.0451605282
0.0138140541
-0.0701898737
0.0098988711
-0.1496102711
0.1561749327
-0.0355612383
0.0985481425
-0.0192800395
0.004786208
0.0585377213
-0.1576424649
-0.0243067546
-0.0411737118
-0.0483288609
0.0425587449
0.0226871146
-0.0309075042
0.014263413
-0.1125057619
-0.1143911641
-0.0136463574
-0.2716185341
-0.0370456492
0.0784788804
0.083892312
0.0290627136
-0.0660583876
-0.0510758277
0.0022586496
0.1531528235
0.0091128774
-0.0443131983
0.2146474558
-0.0795736111
-0.1148778962
0.045309084
0.0447381631
-0.2873617452
0.0229927286
0.0103669744
0.1127413948
0.1790202895
-0.0539718063
0.0400272092
0.2077719475
-0.0686325542
-0.0301495906
0.069398477
0.0676112342
-0.0326377055
0.1085202019
0.0373496653
-0.1318062454
-0.1340814806
-0.0769830877
0.0665167569
-0.0634020603
-0.1453204484
-0.1932935065
-0.0779229347
-0.0087659436
-0.0862104549
-0.0522501963
0.1289419706
0.1300211169
-0.0666000174
0.1173760665
-0.0499603668
-0.0384931549
0.0179387043
-0.0829233403
-0.1669696445
-0.0882132386
0.1542259451
-0.0629968928
0.0335339284
-0.0470629969
-0.0913048271
0.1620108466
0.0711759052
-0.0506514763
-0.0274632573
-0.1178574122
0.0679986708
0.0743592051
-0.1478273101
-0.0354288846
0.0342126502
-0.1025744854
-0.1071005001
-0.0903642969
-0.1262175333
0.0573947361
-0.0961608287
-0.0305862823
-0.2019086676
-0.0550355146
0.0660038769
0.076847386
-0.0995084589
-0.0624512208
0.0540708283
0.0715051135
0.0811670142
-0.0872919197
0.0344580082
-0.1892736369
0.0800056131
0.0994128459
0.1917310433
0.0582617008
0.0777283561
-0.1529310848
0.0824251866
0.1213827043
0.1731450789
0.0831906837
-0.0263378417
0.0555117954
0.0754762286
-0.0729389054
0.0567693736
0.1310346503
0.1198016358
-0.0163366853
0.0316018712
0.0316685264
-0.0739673064
0.1238977586
-0.0259881919
0.0338411734
-0.0050868195
-0.011832984
-0.1899431193
0.0350015774
0.0541241518
-0.0569536686
0.0291634351
0.0840618935
-0.1006261989
0.0157839867
-0.088602868
0.0001472525
-0.0654053973
0.0376934199
-0.060242686
-0.0256947982
0.0046218928
-0.0305393274
-0.0825033713
0.0303836064
0.0915746243
0.1220333116
0.0806603725
0.1228865512
0.0118787265
0.0994983311
-0.0848427115
0.1157071591
-0.0633809864
-0.1583919785
-0.0695325365
-0.002399229
0.0738925549
0.047382285
0.1052959079
0.0638012347
-0.1540878551
-0.112667082
0.1521231733
-0.1447093104
0.0886001376
-0.0900323291
0.2138698833
0.019618603
0.1659327639
-0.0110969093
0.0258009316
0.029713611
-0.0968053236
-0.0910236236
-0.0794232173
-0.0476355511
0.0202912593
0.2310020041
0.066951559
-0.0455295589
0.0390365831
0.0115957026
-0.0027007971
0.0240046564
-0.0489032967
0.0966297329
0.0150676278
-0.035319333
-0.1102280481
0.0092745936
-0.0473529352
0.0070514325
0.1721664816
0.0005975105
0.1105990247
-0.0166108509
-0.1844524667
-0.2266855341
-0.051499726
-0.1232279264
-0.1024566661
0.0875679588
0.1086096218
-0.0415649683
0.0470906366
0.1492430678
0.0708400805
0.0122533336
0.1206517092
0.1475421215
0.1126798884
-0.1103993858
0.079538592
-0.1224049855
-0.0225702212
0.1308603431
-0.0748514486
0.1179910435
0.0370469539
-0.0305558329
-0.0536353612
0.0525563657
-0.0471885197
-0.0433573451
0.0279050052
0.0386514666
-0.2367324082
0.1402875073
-0.1762990176
0.0223410588
-0.141707948
0.1030285256
-0.1360360723
0.0865679126
-0.0473262967
0.041406289
0.0669379692
0.0022146982
0.0909634808
0.1139923647
-0.0397309416
0.1270414937
0.1144568291
-0.165541099
0.0254111321
-0.1902829643
-0.0133558011
0.0600170184
0.0133434422
-0.1722381092
-0.0555212831
0.093590715
-0.021949598
-0.0474837712
-0.0852802534
-0.0634304967
-0.0768126226
0.1139964171
-0.1484404314
-0.0572472925
-0.117995174
0.0682509456
-0.1232057408
-0.1940445231
0.0009274664
-0.0301347282
-0.1364794097
0.0180367249
0.1020974214
0.073107098
-0.2263594204
-0.0460710753
0.0344963521
-0.0132406816
-0.0886206044
0.0350859196
0.024027925
0.1195079209
0.0507364062
-0.1178878276
0.1733088302
0.1191248547
-0.1020980344
0.1389017941
0.0029759202
-0.0811864312
0.0182113489
-0.0228287176
-0.0583578893
-0.0219087658
-0.0310648898
0.0411923437
0.1871965727
-0.1271779898
0.0539383437
0.0736411503
-0.0412291019
-0.0142702106
0.1316882022
0.0186499013
0.0673941749
0.0640537908
0.0248140421
-0.0082673287
0.1810189228
-0.0196392554
0.024479577
-0.0306273743
0.1015217419
0.1318756302
-0.0326560229
0.0237805995
0.0882801802
-0.1842356193
-0.1589978833
0.0604850553
0.103565002
0.1082388066
0.1882066912
-0.1525931617
-0.1213736974
-0.0685250823
0.0899807083
0.1277979316
0.0872515495
0.113967473
0.0430458946
-0.0194850815
-0.0012727329
0.0445163592
-0.0399164762
0.0158074425
-0.2034783872
-0.0244764388
-0.0079588333
-0.03599428
-0.0560897482
-0.1689357245
0.0296667207
-0.0300723489
-0.0938819826
0.1034326478
-0.0965452857
0.1312543178
0.0496170015
0.0420162686
-0.1117490131
0.1819846801
-0.0327972938
-0.0236114059
0.1762141353
0.0994809733
-0.0097456845
-0.0073965987
-0.1083938027
0.1743926693
0.0518419091
-0.1657558671
-0.1917713695
0.0700951458
0.00339294
-0.1580223714
-0.1975456569
0.0439301978
0.0778936888
0.1099458391
0.1138061135
-0.1572191601
-0.0263712145
-0.0136257533
-0.0385589855
0.0468080529
0.0917924319
-0.2100520238
0.0352105067
-0.1043549408
0.0023557906
0.1993459407
0.0836003173
0.1239475533
0.076007301
-0.0890575373
-0.0917736195
-0.0038711172
-0.0263716617
0.0919036978
0.14133483
0.0225543625
0.0428760914
0.0553363
0.0708063894
0.2175794788
0.0892175798
-0.0373786211
-0.0287944568
-0.023500545
-0.1694742252
0.069941767
0.0661213884
-0.0011027656
-0.0595738628
-0.0681227494
0.0514170418
0.1267798366
0.0356470818
-0.1811385081
-0.0162201293
-0.0269332689
0.0965902
0.3588339369
-0.1292950201
-0.0387220858
-0.0322083039
0.0385837553
0.0726158139
-0.0668823221
-0.0207940581
-0.2638187627
-0.0719980517
-0.0600060237
-0.0041005051
-0.0917095679
0.1606037806
0.0767753441
0.072117578
-0.1739749547
0.2219679522
-0.0328878039
0.0639805687
-0.0668914153
-0.0993351236
-0.0617305898
-0.065627855
-0.1312515572
0.0268364187
-0.0541184901
-0.1217900065
-0.0176787202
0.115597779
-0.1432466073
0.1134660901
-0.0026665675
-0.0794542937
0.1645868182
-0.0493537478
0.0039723194
0.0570025554
0.0768931795
-0.0251147321
0.0110690709
0.0572822186
0.0377521763
0.0777150525
-0.0747630549
-0.018848348
-0.0204903449
-0.0845389687
0.1867504994
0.030326235
-0.1898858835
0.1101886064
0.1493504681
0.0628506217
-0.0782693793
-0.1335671867
-0.0387777425
0.1981692359
0.0826249491
-0.0909331635
-0.0911500183
-0.0259409166
0.0824753592
0.0817918448
0.0701700419
0.0841882734
-0.0065420097
0.0744403586
-0.0992068384
-0.0940691838
-0.0159000522
0.102569246
-0.0174326546
-0.0589398812
-0.0337140743
-0.0114078025
0.1188019702
-0.0116687044
0.0998219037
0.0218170736
0.0915168427
0.1024185854
-0.0690564909
-0.1238507553
0.0131539236
-0.1300598173
-0.1229714164
0.0464772216
0.0040943019
0.0636361929
0.0211298141
0.2576468055
0.093080557
-0.0960373446
-0.2193385626
0.0573657589
0.0132246184
0.1200883692
-0.0507199602
0.1060374856
-0.0461348427
-0.0130705726
-0.0199884862
0.1447252847
-0.1300420678
0.0344135738
-0.1967456368
-0.1073746133
0.1293350928
0.0357788357
-0.0131801043
-0.2023743438
-0.082363082
-0.0248220296
0.0667810714
0.0734860557
0.0238652527
-0.1345331889
-0.0858567699
0.0532076043
0.129302495
0.1300347996
0.0435280092
0.116289286
0.0202478091
0.0472395268
0.0040596627
-0.0356519845
-0.1213700545
-0.1552240662
0.2205670055
0.0067740369
0.0925883284
-0.193247679
-0.1096557935
0.1299672169
-0.1506763654
0.0889036136
-0.0631561742
-0.0480356704
-0.2247795798
0.1009449672
-0.0016654786
0.0736418621
-0.0338353405
-0.0748342402
-0.0638363184
0.0395574942
0.0247115722
0.0405309749
-0.1865251842
0.0635129795
0.0611178973
-0.0379671086
-0.134140421
0.02314289
0.102246891
0.1398697623
0.2210477767
-0.1757801047
-0.1906145968
0.1359738248
0.0044939212
-0.0620814268
0.1595644603
0.0345562071
-0.0183943474
0.1237453352
-0.0116800583
-0.1430240653
0.0175114174
0.1298151087
-0.1110592918
0.0575238615
0.0165265346
0.0421154701
-0.0289699934
0.0974127645
-0.0984420066
0.0116620717
0.1362368882
0.0348577336
-0.0282873633
0.0057323321
-0.0157728561
0.1288737271
-0.0772373663
0.0911030586
-0.0905515072
-0.0739584741
-0.0111274828
-0.1716283532
0.0769739611
0.0550611074
0.0056265321
-0.1456939079
0.070903533
0.0281602627
0.1501262752
-0.064286673
0.1359481923
0.03580413
-0.0672947437
0.1908890893
-0.1185730554
-0.0505040018
0.052604905
0.1399801329
0.0504484023
0.0091488932
0.0422721369
0.0902693802
0.046731454
0.0046669845
0.1434614867
-0.0828010143
-0.0129503196
-0.1044805175
-0.0559311899
0.0968351691
-0.1133462773
-0.0074164311
-0.112123206
0.0270486898
0.1998607202
0.2330069934
0.0941540253
0.0037549448
-0.0449979712
0.0657794123
0.1248279412
-0.2196218036
0.0469213552
-0.0260110227
0.1065013197
0.1198712857
0.1385591014
-0.0664190717
-0.0211294952
0.0503872035
-0.0665491651
-0.0729546995
-0.2432882223
0.2290795104
-0.0828644744
0.023212923
-0.0613071297
-0.0210421704
-0.174464468
-0.0494164811
-0.0054488297
0.0159441147
0.0069221314
0.134893933
0.0176284408
0.0086185237
0.023344181
-0.0611464927
-0.1066341514
0.1705011422
-0.0513002693
-0.0195857748
-0.1220930024
0.1110682981
-0.0270535471
-0.1202300692
-0.0760634687
-0.093600625
0.0493125647
-0.14624659
-0.0490449846
0.0074438243
0.2247186532
-0.0042605485
0.1281109628
-0.0461158693
-0.0099365267
0.1015476842
0.0271281605
0.0831831555
0.0610332318
0.09666207
0.0925384715
0.1087474161
-0.0023334049
0.049960601
0.0463901266
-0.0389148047
0.058115838
0.1199988712
-0.1533378452
0.060269334
0.0757123509
0.0250655583
0.0979105163
0.0015460597
-0.0659171386
-0.0075396561
-0.0128618897
-0.1232641486
-0.0167807299
-0.0640024576
-0.2053545786
0.0521822805
0.1508880198
0.1153300145
0.1259444157
0.058602022
-0.0226792564
-0.1352942644
-0.054199775
0.1410477485
-0.1985414862
-0.1186444407
0.2299731367
0.1928612304
0.1399313243
-0.2141744641
-0.0027383671
-0.0539838587
0.0914996662
-0.1147360304
0.0957514052
0.0037281042
0.1712679349
-0.0163505981
-0.0034009498
0.0420228035
-0.0843979886
0.0397786906
0.100129828
0.0139729444
0.019455672
-0.030409012
-0.0443179731
0.0221859926
0.0331302596
-0.0763317394
0.1445860318
-0.3080949355
-0.014584682
0.1863699726
0.0635131626
-0.0418288022
0.0213978684
-0.043462983
-0.1859720964
0.1653030154
-0.0484507423
-0.0513976732
-0.0175303487
0.0442848634
0.0295562852
-0.0891766565
-0.1811781385
0.0777301538
-0.2068986722
0.0277092434
-0.1230849793
-0.0129539296
-0.0575758465
-0.0795076104
0.0078641927
-0.0992015209
0.095444039
-0.1736409884
0.0697915418
-0.0875664373
-0.0561055562
-0.0184002527
0.0112697474
0.0018185656
-0.1504218283
0.033082868
-0.0211770524
-0.0153666767
-0.0254674217
0.2425340844
0.0329775251
-0.158636262
0.0757126696
-0.0886443579
-0.0822252138
0.0905669445
-0.0399477159
-0.0555671366
0.0058329799
-0.0365652107
-0.056600064
0.025667332
0.080055361
0.0779351737
0.0641930355
0.0674521942
-0.0124846424
0.101011245
-0.0225464827
-0.2346985783
0.0234000045
0.1155513639
-0.0937256445
-0.0771468907
-0.113833604
0.028317151
-0.0643997931
0.0029397081
-0.0385166604
0.22794569
0.0720310365
-0.1469005048
0.0339137539
-0.0166103758
0.1020767531
0.1530999566
0.0146774741
0.1204895252
-0.0870335788
-0.0972525584
-0.0828068243
0.1762825591
0.0395659669
-0.002078733
-0.1212191775
-0.0735597386
0.1291725641
0.0279525046
0.0927023827
-0.0682324458
0.0177098553
-0.1261692936
0.0260985432
-0.0610870232
-0.0682322651
0.0018917096
0.002850878
0.0999105506
0.0958649443
-0.2160033251
-0.0293589059
-0.1462249678
-0.0462634623
0.0327097127
0.1687943398
-0.1441581263
-0.1386825074
-0.0966242191
-0.1800386333
0.0322981282
-0.0176805316
-0.1721763802
0.0198465248
-0.1033517648
0.0835540273
0.0572272032
0.0189035217
-0.1043901066
-0.0899466283
-0.1765444995
0.099758825
0.1164871351
-0.0625941987
-0.0172513908
-0.1203951622
-0.0260319575
0.0836031859
-0.1400276768
0.0930171869
-0.093523135
0.131858176
0.0570531293
0.1791993974
0.0253250777
0.1043734161
0.044015392
0.1093209761
0.0617015646
0.068654469
-0.1000247928
-0.0412119644
0.0594614464
-0.1233784143
0.0149336539
0.0965663085
-0.0148048179
0.0344341922
0.0373670969
0.1994312418
0.0252480807
-0.0317788179
0.1014044267
-0.1083453123
0.0516726177
0.0583526275
-0.0753476867
0.1007612365
0.0561444749
-0.0586659958
0.1512598634
-0.0444159227
-0.0415600924
-0.0233312121
-0.042904884
-0.0879802963
-0.1363072441
0.0922005021
0.043585686
0.1442194042
0.0103090146
0.0054874556
-0.1104305532
-0.1619669958
-0.0522985919
0.1035897777
-0.150269112
0.2290372271
-0.0190122944
0.035383405
0.0509501558
-0.082861824
0.096589977
-0.0302618831
-0.0223431197
-0.0601673136
0.2426180114
-0.0648870986
-0.1151467256
-0.119001815
0.0123759404
0.0248866332
0.0260575482
-0.2534827817
0.1145565629
-0.0955457621
-0.2737297519
-0.0132148468
0.0380004882
0.0069952737
0.0134300287
-0.2218308931
-0.1320766565
0.0501679726
0.0254838272
0.0839324457
-0.1329534756
0.0494115502
-0.034632406
-0.0317547583
0.0192890106
-0.2590555878
-0.0269378341
-0.0857925003
-0.0582949693
0.1436003019
-0.0539197411
0.0533548492
0.1315426183
0.0335715893
-0.0518400148
0.0042369015
-0.0008616585
-0.096924812
0.0155142633
-0.1050324222
0.0393172068
-0.0168033631
-0.205693434
0.0430791528
-0.0806598016
0.0436633787
-0.1555116595
0.1310662865
-0.0667431617
0.0586659663
0.1412361121
0.0842381541
0.1112573823
-0.2136746912
0.0262992352
0.0363737792
0.1627992451
0.0957768663
-0.2294548526
0.0093676209
-0.0500885018
-0.0581711237
-0.0285964971
-0.2020036234
0.1632605887
-0.0291317031
0.0647082578
-0.2021953735
-0.1295806433
0.1351460972
0.0041118378
0.0355390472
-0.0510470695
0.0246235946
0.0433043025
0.05390721
-0.0154856523
0.0320603776
0.1016182391
0.0519642409
0.0881869118
0.0031379892
-0.0551127271
-0.0668753065
-0.0161514053
-0.1348955395
-0.038405329
0.0409592381
-0.0489722003
-0.0436385865
0.0553285696
-0.1793670926
0.0478716706
0.1195184557
-0.0856174314
-0.0320886773
-0.0660097266
0.0012039148
0.2184621379
-0.0946314286
-0.010737579
0.0704463823
-0.085656825
-0.0356283753
-0.1349123064
-0.1346324026
0.0262005408
-0.0477634038
-0.0818034477
-0.2015017222
0.1032031505
0.1569034152
0.0124406376
-0.1021182898
-0.0507821882
-0.0417957754
-0.0188039851
-0.0488739435
-0.0538556229
0.0862398617
0.0177229008
0.0747985252
-0.0181337378
-0.1412800118
0.0852737784
-0.0499272715
-0.0466273586
0.2240243897
0.0669399252
-0.0318473236
-0.1726263606
-0.1661491506
-0.103019856
-0.0884991718
0.1016208908
-0.0522528216
-0.0374592456
-0.0630670063
-0.0327733365
0.1806735575
-0.0572094069
-0.0362803773
0.1646782403
-0.1713807926
-0.0217045985
-0.0852690002
0.0815169893
-0.0251502025
-0.0557093562
-0.078800317
0.013610145
-0.1175066197
0.1300887923
-0.1103772392
-0.1171011569
-0.1176179566
0.0126296137
-0.0158002869
-0.078017368
-0.0806052429
-0.015776246
-0.2265367787
0.0445107216
-0.0427508003
-0.0013498393
-0.0208898921
0.0710759367
-0.0961735054
0.0813350702
-0.0290612684
0.1556672851
0.1631974739
-0.0812812043
0.0121295727
0.0143333377
0.0636805395
-0.1044510112
0.1966269355
0.0281555614
0.0863037563
-0.1282544541
-0.1260037468
-0.0597875494
-0.0175174195
-0.0623217749
-0.0132405347
0.0843316279
-0.0279324896
-0.1140995032
-0.129182891
0.0011357606
0.1498013241
0.1474971132
0.2122874804
0.0330490648
0.1292094114
-0.0653886702
0.1009566202
0.122127325
0.2661416523
-0.1026980357
0.0372130504
-0.0679527134
-0.0786353615
0.0063563654
-0.0364259909
-0.0182520632
0.1869816774
0.0777559987
-0.0265763032
0.2366907113
0.1749476704
-0.0245593179
0.0933809631
0.0472894276
0.102309929
0.0059013351
0.127661354
-0.0723015901
0.1435443875
-0.0665743982
-0.1130780669
0.0885499141
0.1588759829
0.0370727535
-0.067590181
0.0129182612
-0.0402052732
-0.0214119726
0.1610552078
0.0224396261
-0.1611930903
-0.1557519808
-0.0324240727
0.1337546552
-0.1706304636
-0.0929620948
0.0919170831
-0.1589025451
-0.0007375278
-0.0215907347
0.0324637345
0.0402071409
0.1895303967
-0.0535465316
0.0523050744
0.1869741574
-0.0058448177
0.0666028021
-0.098143888
-0.0930905297
-0.0872444899
0.0576369906
0.0213988768
-0.0120225119
-0.1095169072
-0.0672115748
-0.2212481941
0.1596246525
0.2129396803
0.0794480222
0.1107215349
-0.0598091228
0.0647986455
-0.1800494437
-0.1698043532
0.0098980568
-0.0855145508
-0.0859973298
-0.0208330412
0.1012377249
-0.0259590387
-0.0352000796
0.1783708138
0.0629935616
0.0195079572
-0.0440392894
-0.0216731061
0.0267934661
-0.117001361
0.0200677064
-0.1559941277
-0.042874845
0.0340235986
0.0913641491
0.1237605976
0.0691673149
-0.0977859192
0.0247338117
0.0459982342
0.0531312049
0.0230516041
0.0047088967
0.0140106489
0.1602531866
0.1589472497
-0.0983456836
-0.1460775921
-0.2758182198
-0.0618746419
0.0879198
-0.1076813475
0.1670997873
-0.0232469965
0.0028998645
0.0869259202
0.0245129696
0.0205999146
0.0804642399
0.0388287145
-0.144455167
0.0968520331
-0.0145804184
-0.0259689039
0.2236369321
0.0157794462
-0.0147578447
0.0147514618
-0.0464977202
0.132946306
-0.1586139391
-0.1900697949
-0.0264419944
0.0287680941
-0.0367029262
-0.0473165649
0.1442116935
-0.0277116191
0.2249405419
-0.1321420479
0.1614106042
-0.0278072304
0.0814014558
-0.1370155352
-0.0128743117
-0.1213348831
-0.0746057299
0.2003948483
0.0367230129
-0.0021051698
-0.1656182926
-0.2601862663
0.1256691161
-0.0080362782
-0.036609676
-0.0300870652
-0.0970024694
0.0691366951
-0.0327426315
0.0494718355
7.07853796131364e-05
0.0403371514
-0.1510893581
-0.3124012054
0.1111834086
0.1088145935
-0.2417447054
0.0259965017
0.0086083325
-0.1452868059
0.1571394215
-0.103843909
0.0747369235
-0.0203588757
-0.1343727477
0.1555863484
-0.0644101255
-0.0283306101
-0.2159579431
-0.0397570765
0.1810909727
0.0341854171
0.0565795761
-0.0110351487
-0.2276329002
0.1201386233
0.0551663937
-0.1167459065
-0.1079351553
-0.0660618454
0.011686291
0.1245365352
0.1082731071
-0.1633852992
-0.0290120313
-0.1353655856
0.1501060179
-0.0183459473
-0.0791791765
0.0468058932
-0.0371082013
-0.0563123022
-0.1803834894
-0.0856431137
0.1766176977
0.0678332168
0.0349075823
-0.010133297
0.1581031885
0.016494324
0.105439909
-0.0238112771
0.0613301973
-0.0010600259
0.1280081119
0.0945453062
0.0333647672
0.2206018815
-0.046826063
0.0214659684
-0.0352540685
0.0329257539
0.1180438091
-0.0069465833
-0.0790636128
0.0324197265
0.0529796438
-0.0811029493
0.1022867357
0.0163142124
-0.0263875274
0.1999756723
-0.159470522
-0.0371353218
-0.1498232225
-0.0849262711
0.042078116
-0.0400095359
-0.0850248001
-0.1982961167
0.0629835879
0.0665574192
0.1099246555
0.0328672733
0.0774635
-0.0501677328
0.0363484558
0.0280814584
-0.0577962955
0.1563953847
0.0214252625
-0.0998186265
-0.0300346698
0.0592081046
-0.0418984501
0.1607279466
-0.0881970179
0.0344728042
-0.1038491666
0.1136621362
0.0376726529
0.0066796755
0.029232511
0.001873821
-0.0004699858
0.1009683184
0.0654016452
0.1060404905
0.1824382016
0.0782280174
0.0369722726
0.0003218824
-0.0089917458
-0.07772967
0.0523705965
0.146139065
-0.043108341
-0.0812300968
-0.2026717086
-0.0857999597
0.0063828874
-0.0964324899
-0.0052090236
-0.151031613
0.1061326866
-0.1454654777
-0.0414136013
-0.2051224714
0.0059806393
0.0150551096
-0.0358487997
-0.0175465977
0.2342306497
-0.0293241357
0.1173489703
-0.058645607
0.0436851251
0.0450144016
0.0766383639
-0.0942611689
0.0511146497
-0.0745496855
0.0464255342
0.1610206469
-0.2204943093
0.0752021928
0.0134477024
-0.0175737834
0.1480519618
0.1131113091
0.0203718063
0.0379305808
-0.0255234909
0.1000553791
-0.0741887654
-0.145951885
0.1204851378
0.1560125373
-0.0599394946
-0.1437615879
0.0657444063
0.0650815563
0.0199311041
-0.0593993612
0.0384751653
-0.092633169
-0.0908519019
-0.2737952151
-0.0408653831
-0.0578485238
-0.2490530819
-0.0614866406
-0.1465920754
0.056670913
0.1270669812
-0.1492944142
0.0180463107
0.0662920533
0.0693687086
0.0095257591
-0.0941871738
-0.2242323035
0.0119781005
-0.1186002926
-0.0898400296
0.0541068242
-0.1051389254
-0.1142264075
-0.0977290701
0.0566802051
-0.0038472198
0.1867562271
0.0409453926
-0.0751730324
0.1821259026
0.075764803
-0.0190045985
-0.0211322851
0.0387935806
0.1074454395
0.0362820336
0.0460660763
-0.0534063162
0.0145616035
-0.0807709556
0.0091219583
-0.0236106243
-0.2584839182
0.0117821529
-0.0042017868
-0.0848672715
0.1808372544
0.0512213335
0.0578816349
0.017869355
0.0248103369
0.1177039038
0.0831722703
0.0652072351
-0.2154360906
0.0999060134
-0.0308637705
0.1489146252
-0.0357941804
-0.0099456231
0.0495878989
0.1957822081
-0.122548816
0.0191448238
0.1390835954
-0.0471550683
-0.0420982969
0.0191311538
-0.0441500255
0.1328759583
0.0404433324
0.2139777432
0.0974898722
0.0276752476
0.1179618337
0.0764167206
-0.0725318313
0.0234503222
0.1211811614
-0.2068564392
-0.0865538504
-0.0663604433
-0.0973789829
-0.0534617815
-0.1695211085
0.1560472984
0.0819616673
0.0458431442
-0.0532725018
0.0864919492
0.0051327597
0.0776570407
0.1449635112
0.0041171343
-0.105570655
0.0913215465
0.0677985338
0.0533600413
0.110663846
-0.1575010673
-0.0652891407
-0.0079805729
-0.0977425245
0.1427794809
0.0800747441
0.1185961035
-0.0025053793
0.0515396182
0.1430728486
0.0414005756
0.0280099938
0.0913551243
0.0493643437
-0.1038190964
0.0088681032
-0.0268869644
-0.157379153
-0.0359819087
-0.1470830045
0.0634043722
0.0545286496
0.1534888177
-0.0797571454
-0.1572088591
-0.0840583849
0.0547695734
-0.0408675223
0.0342527915
0.1229907526
-0.0286999832
-0.0743269007
0.1103917972
0.1474413484
-0.0690995487
-0.1338316785
-0.0880864514
-0.0669483292
-0.0695670604
0.2060267527
-0.1898835734
0.2229018334
-0.1867247545
0.0597470774
0.1449033789
0.0045292516
-0.0964489991
0.1784771461
0.1826864317
0.1140255971
-0.1662357643
0.0050223619
0.0636808938
0.0409907067
0.1201201058
-0.0926486798
-0.04739162
-0.0047997281
0.0009390648
0.0676667676
0.0752431637
-0.105767097
0.0339257798
0.0492488438
-0.0334666311
-0.0580061756
0.0421958251
0.0701633506
0.0485322309
-0.1592971348
0.132529507
0.007839868
-0.0651159707
0.1159461553
-0.1233211427
0.2263747658
-0.0360419308
-0.0484547314
-0.040758735
0.0886282904
-0.0295145267
-0.2237052348
-0.0489094853
0.0955552551
0.0602520197
0.1736084226
-0.0689400802
-0.1876061516
0.0160811845
0.1508905729
-0.013592599
0.0075572399
-0.1881853028
-0.1038033592
0.0375360701
-0.0075864772
-0.1025978775
-0.0669027925
0.0046111111
0.0069424723
0.0449093545
-0.0175121835
-0.0126062712
0.0492588841
0.058630232
-0.0855609472
0.0355466282
0.1200645579
0.1195603201
-0.0174386236
0.1853564286
0.1198701801
-0.241022833
-0.0649607745
-0.122408591
0.0528724725
0.0678294874
-0.1173179983
0.0351691314
-0.0953120298
0.0088682249
-0.0571045247
0.0512189214
-0.0250556668
0.0479543124
-0.107659714
-0.1064535444
-0.0366422108
-0.0561882981
0.081691376
0.030286799
-0.0991486383
-0.1031255102
0.0745631099
-0.0455939654
0.0992756877
-0.0848070456
0.0524683486
-0.0332858038
0.0388628961
0.039823903
0.0237369551
0.0065730672
-0.0670797284
-0.2272956893
0.1273031607
-0.0179435937
0.0050751874
0.045498509
0.1123787822
-0.0787579376
0.109893295
-0.022589976
0.0565466322
-0.052600073
0.0719421908
-0.2246349276
-0.021573305
0.0085401511
-0.188178833
0.0840460142
-0.0635562637
0.0336567144
-0.1447065003
0.0809018133
-0.0334476184
0.0429206701
-0.1113705804
-0.0210954686
-0.0299869116
-0.0558891485
0.0369494103
-0.0323962507
0.0347611479
0.0004241853
-0.1462973574
-0.0030797446
-0.0492035374
-0.0903295302
0.017571234
0.0834141859
0.0487082221
-0.0014373672
0.1807364136
-0.0909483047
-0.0006634734
-0.1141952206
0.0971164184
0.0110070892
-0.0556145995
-0.0949504399
-0.0897037208
-0.1272018966
0.0973205754
-0.074395483
-0.097217281
0.0602331146
0.1318845519
0.0953275621
-0.0424772754
0.1244401915
-0.080574758
-0.132183243
-0.1155527188
-0.0885153594
-0.0969777845
-0.0941793873
0.0130877039
0.0452071589
-0.1210740307
-0.0418112975
-0.0689000124
-0.023471571
-0.0460398117
0.0135956927
-0.0662503276
0.0309583774
-0.0169921546
-0.0045800789
-0.0559410127
-0.1621018436
0.0877881276
0.0647066283
-0.0085027033
0.027716061
-0.0824753199
-0.0203484773
-0.1781765868
-0.0238648816
0.1253377925
-0.075566856
-0.0651535821
-0.1068876075
-0.1232557243
0.0520648361
0.0087895089
0.0543864067
0.0987054841
0.0808396356
-0.1338004494
0.0990860031
-0.0306843279
0.0483597607
-0.1538254144
-0.1237437628
0.0949632041
-0.1171531983
-0.0151696443
-0.1028913678
0.0331273993
0.0659526588
0.0009268749
-0.074315072
-0.1293031635
0.2257824263
-0.1431552489
-0.0551254243
0.0536728677
0.0408308165
-0.054993193
0.0419108276
0.0651131321
-0.1279355435
-0.0916346947
-0.0446767321
-0.1234387762
-0.089117636
-0.0052876409
0.0704906306
0.1349694512
-0.0313318733
-0.1185665341
-0.2686087229
0.1372319984
0.0812023251
-0.0026452237
0.1213827116
-0.0884287702
0.0905221509
-0.0151462417
0.1435740508
0.0514675316
-0.1014998139
-0.1714502911
0.0031979116
0.0730334847
-0.0938564573
0.2116473621
-0.1135956527
0.0026318915
0.0509134485
-0.1106036032
0.0517313154
0.1068157269
0.0588824821
-0.0590940157
0.0985198773
-0.2680783051
-0.2406607054
0.0501066558
0.0280451085
-0.0099186707
0.2878592596
0.0772555267
0.1264256855
-0.121498877
-0.0720448348
-0.0137486594
-0.0225597169
0.0933689507
-0.117252088
-0.0391811779
0.0110448474
0.0332360191
0.0949110441
0.0942952276
0.0231502295
0.0828235055
0.0660112981
0.1903813466
0.12126471
-0.1510379789
0.0821175437
-0.0357485016
0.1062704831
-0.052084069
0.0650415625
0.1571185884
-0.0249933371
-0.1849276729
-0.0981340232
0.0120828285
-0.0035228701
-0.1197145749
0.1835511102
-0.1895076372
0.0297636675
0.0365948207
0.0261278764
-0.0628326261
0.0334126087
-0.1591974834
-0.04768125
-0.0257788803
0.0098736579
-0.0022644418
-0.0356079031
0.0532205001
-0.0856988681
-0.048256693
0.0134736684
-0.0198764334
0.1477710924
-0.0505064063
0.2079606404
-0.0919487951
0.2286821902
0.2192811829
-0.017231381
-0.1342887026
0.12825786
-0.1219461396
-0.051965956
-0.0973295329
-0.1336125317
-0.0182213308
0.1369752627
0.0029239456
-0.0038620061
0.1128477933
0.0262771434
-0.1617001562
0.2285411678
0.019197058
0.1029293896
-0.2376237574
0.0983066325
0.0498454613
-0.053487948
-0.0693012675
0.1437725838
0.0807611718
0.0398450282
0.0196446978
-0.1701553267
0.0225384123
0.2213972535
0.0470192072
0.1321850046
0.2320822979
-0.0150251859
0.0341557787
-0.0338486763
-0.1372408124
0.1127609756
-0.1561540803
0.0954832893
-0.1362545536
0.0159748348
-0.0204824157
0.0914838389
0.2316571072
0.0872279805
-0.1847318277
0.0211216768
-0.1142299791
-0.1898283021
-0.0313114141
0.0818333799
-0.010705883
-0.0990215643
-0.0256410733
0.1561826788
-0.0062658125
-0.1095575784
0.1058424647
-0.1326910748
-0.1451977573
-0.1804065528
0.0243503416
-0.0732937788
-0.014903359
-0.0769227982
-0.0651644433
-0.0955245898
0.0640035153
-0.237901952
0.0200719762
0.1115436306
0.0083938634
-0.0510895568
-0.0516973703
-0.0873308539
0.0034576222
0.0807064321
0.0173641
-0.050900492
0.1336867892
-0.0509699498
0.0369269884
0.0470249671
0.0980441836
0.0610732888
-0.2658709259
-0.045939329
-0.0670383781
0.0101450671
-0.0443632024
0.1104337734
0.1634793158
0.0001282669
-0.1508453533
0.0725447842
-0.2437227542
-0.063395276
0.0723266417
-0.0435362799
-0.0189365123
0.1347578184
0.0939371127
0.117454348
0.1239139921
0.1068004798
0.0946479466
0.0010863982
-0.0410030427
0.0529475223
-0.0380344358
-0.0086762464
-0.0603600683
-0.0326796013
-0.1918469377
-0.0791963368
-0.0183783325
-0.0812550118
0.0099859829
0.1672084135
-0.1071702887
-0.0423104199
-0.1045668763
0.0564468842
-0.0505791515
0.0613240836
0.0632707521
0.1632801052
0.0087716895
0.1474854235
-0.0718805839
-0.0104017128
0.0368542941
-0.0401381086
0.0682687698
0.0964538135
-0.0697462479
-0.0593579101
-0.0394960553
-0.0128109374
0.0968118797
0.0398436376
0.0149882778
0.1421711152
-0.0492042266
0.1312360125
0.032378365
0.1870261848
-0.0502066325
-0.1951488876
0.1059574901
-0.0187874166
-0.0746913535
0.0613434201
-0.0317375113
0.0332716583
0.0809156418
0.0818443886
-0.0019057457
0.0633214756
-0.0904677872
-0.1137567518
-0.0906333495
0.0088349226
-0.0924943667
-0.1938094408
0.0459916631
0.0182511626
0.0491355456
0.0423603111
0.0363593603
-0.0072846397
0.0925921806
0.1680334025
-0.0724243348
-0.0062071222
0.0697441569
0.0704484956
0.0571411353
-0.0277997239
0.045132526
-0.0331630656
0.0103958411
0.138660739
0.0666340696
-0.0127996301
-0.158672163
-0.0855369594
-0.0322094629
0.0545683864
0.0394235132
-0.05840788
0.0379414691
0.032925816
-0.0015992649
-0.187000789
0.0284773291
0.0649728764
-0.0005107296
0.1064741258
-0.1752463309
0.058708537
-0.1559118986
0.1139648206
0.0040014255
-0.0640867573
-0.0671828347
0.0286120449
0.1824307076
-0.1018727241
0.0579840896
-0.0468169586
0.0813088684
-0.0591567874
-0.3439125267
-0.0236834265
0.0201526621
-0.0496066365
0.1949628234
-0.137635579
0.1340062924
-0.080261023
-0.0382370874
0.1805732121
-0.0327032741
-0.0087027998
-0.0436759708
-0.0385782567
-0.0808489611
0.1163912427
-0.0456450988
-0.1334469708
0.0080507362
-0.0639976935
-0.1408652469
-0.030157404
-0.064087719
0.0970732335
0.0231468868
0.1718885713
0.1125141137
-0.1279371809
0.0507943858
0.0872409875
0.0630877095
-0.053093826
0.040267753
-0.1156388695
-0.0134742547
0.2939091347
-0.1262109755
0.1006217949
0.1402504169
-0.1167841051
0.1860041784
0.0591370285
0.1756344569
-0.0357221129
-0.1627276635
0.0304017466
-0.0750043234
-0.0080361774
0.1199979183
-0.1301194428
-0.012116566
-0.0379684723
0.0600917681
0.0150792408
-0.0547731026
0.0063076766
-0.1501131589
-0.0219675302
-0.0609029037
0.1119773016
0.0012002193
-0.14397516
0.1772074277
-0.0401366946
0.0131241819
0.0980512665
0.0489964236
0.0130318021
-0.0442293787
0.118205849
0.092191775
0.037680575
0.03720217
-0.1523460918
0.0393903656
0.1638615063
0.1140356134
-0.2463244301
-0.1406506114
-0.0142730221
-0.0734962593
-0.0889107556
0.0998491143
0.070415653
-0.1018042422
-0.1218535071
-0.1189532597
0.2023176544
0.0047011116
0.1131378698
-0.0329543456
0.0822171086
-0.1282585699
0.0998562574
0.01989082
-0.1187503207
0.0077050124
0.0382786618
-0.0738422815
-0.0135582707
-0.056604729
-0.2135231998
-0.0223833598
-0.0871983858
-0.2012154035
0.0730652
-0.0404223759
-0.041361072
0.1003593415
0.0461572504
-0.0184293792
-0.1059991795
0.0478670917
0.177537414
-0.0190702816
0.1330008898
-0.0740983279
0.0467192525
0.0660950423
-0.0455145009
1.71538598403576e-05
-0.0889835876
0.1864863823
-0.0849469701
0.1546358792
0.0295957841
-0.2090318487
0.0483430039
0.0467431751
-0.0758923376
-0.2149292327
-0.0977216209
-0.0995389144
0.0548924806
-0.0378567334
-0.0095718106
0.1473421246
0.0324843078
0.1404375119
-0.0878994036
-0.0182631298
-0.0678737862
0.2259396257
0.0304278186
-0.1876343773
-0.0103305381
0.0412956919
0.0393933342
0.1190976892
0.1982661195
0.0097717164
0.0404835508
-0.0935598247
-0.0607354653
0.1082663642
-0.062456886
0.0618625933
-0.092930228
0.044964858
0.1050697771
-0.2163415271
-0.248035983
-0.0288281625
-0.1772508564
0.0295859691
-0.0914079009
0.109835509
-0.0799636837
0.011544166
0.0545225389
-0.0271497885
0.0368435935
0.0790768712
0.0275190519
0.0703837981
-0.1198687015
-0.0144580698
-0.1417834393
-0.0138665467
0.0290209441
0.0325291336
-0.054187105
0.0093238925
-0.0885196067
-0.1279802938
-0.0421951486
-0.0944521113
0.1499591352
-0.1337951421
-0.1712389396
-0.0525084032
0.172469035
-0.1049173146
0.0982323811
0.1368878906
0.0166502006
0.0637143617
-0.0666833994
-0.0081746481
0.1095548066
-0.0478852085
0.0203258341
-0.0305575998
-0.1242824555
0.102611529
0.0240911797
-0.1000383972
0.0374943861
0.1353998994
0.025167692
-0.0188430612
0.0775227585
-0.2252868981
-0.0326722834
0.071213558
-0.2175505065
-0.1561027935
-0.0131566157
0.1813340297
-0.0590668859
-0.041346283
-0.0682138884
-0.0131890191
0.0111211316
0.0249263039
-0.034955612
-0.1495221102
-0.1923163994
0.2002481329
-0.033874966
0.1041980247
-0.06591582
-0.2272964974
-0.0268648798
0.0266885384
-0.0990593569
0.1582971704
0.0220893029
0.0907990212
-0.2187874554
0.1987442004
0.1947321817
0.0312869328
-0.0248218361
-0.0693783959
0.0217203828
-0.0413838641
0.0286344175
0.0856943188
0.0242249026
-0.0484003211
0.0519872211
0.0365053012
0.128772769
0.1868523617
-0.1500091614
-0.1116565975
-0.0721748187
0.0361035604
0.0150054249
0.200205999
0.0454138058
0.0363112576
-0.0756090291
-0.0032674713
0.0921337125
-0.0134642707
-0.053199522
-0.0650830959
-0.0381789569
0.0490634403
-0.1962921357
-0.1534125919
-0.0243736616
0.049973045
-0.0180899411
-0.0749118852
0.1082708883
-0.1483296058
0.0060206243
0.0370322928
-0.0742070426
-0.044476775
-0.0836052996
0.1744184472
0.1088970812
-0.0808256123
0.0314108779
-0.1475370858
0.0290782521
0.0804668828
-0.1396580461
-0.0484318303
0.0635934984
0.1372323817
-0.0012292311
0.1698489071
-0.066385132
-0.0852276025
0.1231327221
0.04989336
-0.0100298439
0.0777036061
0.0685353135
-0.019529259
0.0056540479
-0.0637537375
0.0904758349
0.0488509938
-0.0181822729
0.0592886945
0.1417381603
0.0316007824
-0.1878247492
0.1426950071
-0.034443366
-0.1151222183
-0.197658806
0.0686871924
0.1136033626
-0.021141226
0.1060207281
-0.1742522084
-0.0046392436
-0.129245142
-0.2188072176
0.1087375043
-0.0889068013
-0.0435216088
0.0285716252
0.0358962299
0.2989120198
-0.279101427
-0.0980354227
0.0286861147
0.0884048791
-0.1313973312
-0.2121411603
-0.0802235819
-0.0524680145
-0.1373695843
-0.1578901676
-0.0408736565
0.004877285
0.0604852994
-0.0265256315
-0.0484389993
0.137874318
-0.0816422308
0.0131827776
-0.1238965832
0.0810036919
0.0687672915
-0.0476993846
-0.1625150675
-0.1277849978
0.0254933986
-0.1509135996
-0.1044650052
-0.0809205929
0.0622724517
-0.1628104234
0.0269046675
-0.1079620912
-0.0362534295
-0.143285035
0.08290192
0.0909437135
-0.1007403413
-0.2020929273
0.059662703
0.0253971785
0.0161379792
0.1382649497
0.102461297
-0.0199516176
0.0652361192
0.325581417
-0.1626711258
-0.032856144
-0.0966667876
-0.0120839687
-0.0242595695
0.1571998539
0.1728724448
0.0053304917
-0.1213693323
-0.1698617261
-0.0403461961
-0.0044393084
0.2283515714
0.0793752988
-0.0837014834
-0.1367735587
0.018970197
-0.0953437238
-0.0658632914
-0.0427073305
-0.125492336
-0.07514852
-0.1113038623
0.0112093302
0.0600057025
-0.0030574507
-0.0410937554
0.0949071768
-0.0179342372
-0.0681990121
0.1320626752
-0.0828436877
0.0577476103
0.0276914793
0.1196067425
-0.0571672503
0.0574273764
0.1120076073
-0.0259592422
-0.0170784836
0.0914001064
-0.136793066
0.1185499236
0.0385705259
-0.0013512019
-0.0461407036
-0.0854351884
0.0177680006
0.1541989442
0.0263611314
0.0816974093
-0.0377138288
0.0509068574
-0.0645703743
0.0114356702
0.0523922139
0.0316190004
0.0566050933
0.0907042609
0.2177530644
0.1760096757
-0.0028532208
0.0805115729
-0.0739958351
0.0940797962
0.0202278168
0.1772312324
0.030330416
0.0166039262
-0.0119039884
-0.0845100163
-0.0829201507
0.1123832641
0.0045986226
0.0921293399
0.0114469743
-0.0247451451
-0.1326676626
0.0073374009
-0.052506145
-0.0611179314
-0.0055188183
-0.0193610246
0.1220226207
-0.157773248
-0.0596227689
-0.0362521878
-0.0617222687
0.1907270261
-0.0419675736
0.0977755475
-0.0231133124
0.1032542753
-0.0695231882
0.0312255778
0.0644621155
0.036789735
0.1010870254
0.0320005147
0.0475132364
0.14108909
0.0325072367
0.1920144612
-0.0411373766
-0.0256553333
-0.0160548614
0.0665510796
-0.1973780278
-0.0076913967
0.1356542709
0.1015636607
-0.0963228697
0.063678694
0.1147020428
0.0199768023
0.0766747582
-0.1809985244
-0.0403917631
0.0298547281
0.1344048136
-0.0003108982
-0.0462103677
-0.0061018508
-0.0680745744
-0.0512114202
-0.0119777787
-0.0086268702
-0.130130722
0.1172538864
-0.0098472271
0.0179594767
-0.1594719817
-0.0055119728
0.0038920802
-0.0049203639
0.0431227262
-0.0061881252
0.019140465
-0.0422633679
0.0031204367
0.0155000157
0.0370774036
-0.040077387
0.0670658166
-0.1516866066
-0.1053293141
-0.0713789158
0.219221911
0.0156839025
0.0637759082
-0.0263028245
-0.1276357542
-0.0141884836
-0.0933753549
-0.0642583233
0.0192659707
0.1440745519
-0.0995158901
0.0639466164
0.0770766579
0.1195982265
-0.0293420433
-0.1215145071
0.0047690097
0.0945996267
0.0439583459
0.0662087366
0.0536964238
-0.1491126017
-0.0515619323
0.0059198085
0.2185654219
-0.1681700181
0.0313188337
0.0474130279
0.062636253
-0.0825656196
-0.0581152755
-0.0465447653
-0.1153101683
0.173162269
-0.0642397536
-0.0964149083
-0.0139844951
0.0426013434
-0.0548275211
-0.0612488975
-0.019045729
0.0899560313
-0.177988049
0.1823793755
0.0698838542
-0.0052932743
-0.0958121045
-0.1277124908
-0.1102425058
-0.0715788972
-0.0733564318
0.099937014
0.0846484275
-0.0572373015
-0.0372214246
0.0609242331
-0.0093819831
-0.1265651465
-0.0576477689
-0.0148680533
-0.0283629867
-0.0049119682
-0.0825958678
0.0759326228
-0.0140990257
0.0587628689
-0.0447807693
0.1013355326
-0.042487009
-0.0548639687
-0.1058345917
0.0619254954
-0.1879429696
0.0281058614
-0.1590116398
-0.1500859539
-0.0281448447
-0.0053137493
-0.0674001534
-0.0466562758
-0.1009256698
0.0262366398
0.0646255869
-0.0942047724
0.1186012486
0.1156581866
-0.1517816493
-0.0991513442
0.0340227675
0.0695103266
0.0020882678
-0.0228701332
-0.0553916161
0.161144854
0.1007744624
-0.0955915689
0.1185268882
0.0912852939
-0.1046362284
0.0989581418
0.1546799149
0.1314692043
0.1183224649
0.210984992
-0.0006245836
-0.0470561526
0.1256848989
-0.0433115824
0.0370364232
0.0905879
0.1077005685
0.1768118661
0.0685714727
-0.0504126876
0.0018315195
-0.1173877627
-0.1127689322
-0.093720957
0.0318684566
0.1328617579
-0.178516181
0.0907953411
-0.0557226922
0.0057271441
-0.0113598261
0.1127739544
0.1813082236
-0.1576945522
0.0624143112
0.0351011348
-0.0331781255
-0.186235658
0.0900555774
-0.1271297017
-0.0724377782
0.0414030652
0.1204450464
0.0359616066
-0.0750227622
-0.0496721677
-0.0060402096
0.1393399788
0.060901348
-0.0648836908
0.0416820464
-0.1495768111
-0.1787831767
0.1578086668
-0.0955654894
0.1803545264
0.1089742737
-0.0030482746
-0.0098891071
-0.1694359092
0.0687917013
-0.0148347297
-0.0463245922
0.0104996214
-0.0818558044
-0.0292539014
0.1664333475
-0.172521458
-0.0572028599
0.1153747774
0.1270705508
0.0920899589
-0.1118165792
0.0709376114
0.0592593496
0.051402974
-0.1521935673
-0.1128111097
0.1626071786
-0.0979726888
-0.1152213864
-0.0154948154
0.0261396984
-0.0608064356
-0.0875277656
0.110582713
-0.0034797243
-0.1765076429
-0.0126798952
0.0114842427
-0.1964441863
-0.0609565047
-0.12236346
-0.0506308648
0.1715343714
-0.0238364161
0.1473048052
-0.0422640168
-0.0822490597
-0.032056644
0.0887593939
-0.0142770048
0.1901508221
-0.1773846165
-0.0262639602
-0.0811191465
-0.0717274647
0.161698005
-0.0617192035
0.229257919
-0.0545567455
-0.1643274476
-0.0529093045
-0.2266668184
-0.3328938352
-0.0241681448
-0.2020945155
-0.119508003
0.0629578991
0.001115911
0.0796437879
0.0763046334
-0.0331974673
-0.2137543064
-0.0932876405
0.0378209997
-0.0304012493
0.1471313617
-0.0184918122
-0.0464058525
0.0013929164
0.1401558845
-0.1293628768
-0.0568836289
0.0150692071
-0.1052212042
-0.0443294771
0.0714737082
0.2003769885
-0.1544447954
-0.0847388138
0.0107122138
-0.0592884949
-0.0164825148
-0.1808005425
-0.0145862003
0.044731822
-0.1499426186
-0.0008625715
0.079465141
-0.0509772388
0.2599445962
-0.0163040269
0.2869805222
0.0185103365
-0.1937397676
0.0551499371
0.0229340853
0.1429715805
0.0036844038
-0.028892389
0.1024001418
-0.0525164644
-0.1203406569
-0.1447882704
-0.139989646
-0.1706869756
-0.0133484157
0.0342719397
-0.0912725764
-0.0968600826
-0.1303058252
-0.0202420682
0.1427797282
-0.0264829603
-0.0197021207
-0.0007818255
0.061309818
0.0654019056
-0.0008452358
0.0153134344
0.1330021503
-0.2237608109
0.0547507324
-0.0789699686
0.0213306833
-0.0749076493
0.0168237889
0.0321654312
-0.046904339
0.0991474779
0.0738812694
-0.0447945139
-0.152540288
0.0139663098
0.1055401794
0.0473390562
-0.1135713576
0.0661461957
-0.1626233875
0.075443006
0.0223673028
-0.1114914803
-0.0683345564
-0.1294329686
0.0353125932
0.0202909315
0.0160807798
-0.0008252727
0.088982165
0.1130329932
0.0531593098
-0.073513617
0.1164294733
0.1058078569
0.0597223536
0.1232211892
0.0004841718
0.0416950098
0.0494897483
-0.104985684
-0.0915135033
0.2251395932
-0.028775196
0.0109839448
-0.1218445216
0.0528578872
-0.1609231365
0.0897509336
-0.1281562711
-0.0518263526
-0.0640573449
-0.1439945472
-0.0364227624
0.0346495279
-0.0502067026
0.0918052997
0.0302289369
-0.1433989169
-0.0711451189
-0.1130454815
0.0694004288
-0.0609708545
0.0690308646
0.1582855448
-0.0469589805
-0.0674815396
-0.1004403729
0.0073695721
0.0777017353
-0.1080062005
0.1824260762
0.0319247906
0.0526245882
-0.1177094885
0.0181076547
-0.0809657456
0.0483789869
0.0532079797
-0.0120606891
-0.023701695
-0.1168991371
0.0867469797
0.0042976395
0.0637356268
-0.0611842387
0.044681329
-0.0140605733
-0.0073400158
0.3269905184
0.0404373142
-0.0900126387
0.0173131774
-0.0118724851
0.1696086914
0.0052244851
-0.0655315365
-0.2400687751
-0.0868808008
-0.0421382869
0.0548270602
-0.0052527642
0.1007712475
-0.1281884023
0.0809648719
0.0445671943
0.0437174684
0.0594749025
-0.0337900436
0.0375390954
0.0416981509
0.2034845808
-0.1903916012
-0.0408976828
-0.0075293379
-0.0618162053
-0.0443680387
0.0629156082
-0.1496452695
-0.0072571163
-0.0044771978
-0.247425034
0.1670916835
0.054867623
-0.0353138292
0.0250582366
0.0706477427
0.0189243822
-0.143454848
0.1721035841
-0.1023680094
-0.1089229163
0.0495470423
-0.1452804441
-0.0243481327
0.1036574182
0.0434217879
-0.0115679295
-0.0589956242
0.0539869386
0.0745259079
0.0927483683
0.1069986834
-0.012006206
-0.1202279529
-0.0950375352
-0.0451585757
0.0378415357
0.0548601934
-0.0719006471
0.0784614373
0.1172882233
-0.2246842945
0.058604171
-0.0482943201
-0.022629311
-0.1612109665
0.084533518
0.1625575606
-0.0680021382
-0.0300998128
0.1269267368
0.1650648056
-0.1019738799
0.000886358
0.0973937601
0.2454421629
-0.0944357229
0.1160336321
0.094260916
0.2328978043
0.118175554
0.057643679
-0.1941487465
-0.0950457031
0.0172527708
-0.1735352965
-0.1020068136
0.1402627415
-0.1899402458
-0.0084793361
-0.033431216
-0.0064969089
-0.0261621091
0.0917088786
-0.0618576818
-0.0260531394
0.0303258766
-0.1600195094
-0.0195374169
0.0490500908
-0.0724448386
0.0187970547
0.0091612452
-0.1165408156
-0.0086955497
0.0024944411
-0.1425599583
-0.0242445446
-0.016030112
0.0164317469
0.0817149351
0.0772546982
0.0209360994
0.0836934056
-0.0380767128
0.0022956577
-0.1073327574
-0.0969243258
-0.0416227802
-0.0585433044
0.1180430302
0.1083713938
-0.0292060879
-0.1279838199
-0.0650836143
-0.0737551406
-0.2487228446
0.1186655883
-0.0558958837
0.0910009458
0.1033761362
-0.0424990203
-0.0899462446
-0.0835171661
-0.0405773657
0.148368833
-0.0942806519
-0.1864380935
0.0034227313
0.1978584844
-0.0474095143
0.049871909
0.1594614153
-0.1672081121
0.0941684634
0.0815806392
0.0271575617
-0.2657255137
-0.030354355
-0.1058711493
0.0321201687
-0.0811333346
-0.0375024505
-0.0358511652
-0.0257287521
-0.0315797894
-0.2130482478
-0.090160973
-0.0251712043
0.0301861512
-0.1122390954
-0.0531540776
0.0396535542
0.005925285
0.0502013392
-0.2162797125
0.0660217237
0.0001896028
-0.1076671817
-0.0366137056
0.0581527385
0.0265697083
0.0962548486
0.0287212625
0.0958441607
-0.0150980189
0.086098347
-0.0019397241
-0.1481499235
-0.1006261813
0.020654158
-0.157681006
0.0337347729
-0.115427882
0.2589807627
0.1304616457
-0.0183836803
0.0300776711
0.0463687562
0.0061482125
-0.1907947062
-0.0781876842
-0.08630735
-0.1307502065
-0.005228965
-0.0480801031
-0.0340705497
-0.202719723
-0.0253034541
-0.0284551828
-0.0709898475
0.0018996526
-0.0538680646
0.1434487762
-0.0437436759
0.2384280719
-0.0654330461
0.0740310078
-0.0693440428
0.1316382768
0.0895373037
-0.0290879698
-0.2285880463
-0.1350325794
0.0763396641
0.0295273217
0.0276094026
0.0081562541
-0.1050382119
0.0466860042
-0.0082637084
-0.1388737384
-0.019889106
0.1065391685
-0.0328851511
-0.0519458471
0.0879386943
0.0106399751
-0.0876350172
0.0206207933
0.0538348156
0.0558189641
0.1122851217
-0.1648298295
0.1431867345
0.2224343258
0.0641258938
-0.0915318989
0.018710304
0.1979924262
0.0621818903
0.0647206397
-0.0098674388
0.0386179974
-0.2078295604
0.0197118107
-0.0194772421
-0.0871943857
-0.2601852812
-0.0152648239
-0.0103917652
-0.1728055531
-0.1358336667
0.0812449467
-0.0120912106
0.0456826038
0.0321606563
-0.0970766503
-0.1219788509
-0.0394122616
-0.0684499801
-0.0195379629
-0.0121604072
0.013727361
0.042547009
0.0711596008
-0.1103695543
0.0477380282
-0.0886360993
-0.0758926265
-0.2117466068
0.1449264198
-0.0503570928
-0.030356104
-0.1590861886
0.058801049
0.1194885876
-0.0508754385
-0.0159743884
-0.0656959722
0.0166052384
0.117566345
-0.0931304256
0.0564439223
-0.0902880172
0.0566376927
0.104773618
-0.0497961181
0.1011336354
0.0653115864
0.070448524
0.0056947499
-0.141978116
0.0151506209
-0.0057287042
0.0693369874
-0.10932115
-0.1422210069
0.0197135919
-0.0343840226
-0.044902066
-0.1284857664
-0.0329390288
0.1607414852
-0.0295608223
0.0249170702
-0.1151881531
-0.1071317718
0.0703608423
-0.1448131737
0.1127500338
-0.0674242874
0.1773840056
0.1970909189
-0.1121598669
0.0261664911
-0.1010004558
0.0495355239
-0.0836281099
0.1875744143
-0.0022000478
0.0159012128
-0.1633242652
-0.0265769428
-0.0697160046
-0.0164661641
-0.1426751539
-0.068011585
-0.1158179829
0.0603079419
0.0321859979
0.1320288203
0.2788057241
0.212117593
-0.1038541459
-0.0631247286
-0.1415609329
0.0265265985
0.0488594197
-0.0993799359
-0.0272900521
-0.2200966299
-0.0743789656
0.036974274
0.1693968149
0.010077144
0.0623108975
-0.0459758473
0.0779622161
0.1122255028
-0.0323757299
-0.092843191
-0.0956860218
-0.2006290739
0.085783234
0.0148766596
0.1010306571
-0.1706775598
0.1420677911
-0.1024133572
0.0008135556
0.020822285
0.052456415
-0.1311896975
0.0263661122
-0.0270599937
0.1305061944
-0.0199480553
0.0061587496
-0.1797668083
-0.0854787877
-0.0806408387
0.0441465804
0.0324879348
0.0581221657
-0.0569269865
-0.0493602129
0.0857726952
0.2042135844
-0.1719835592
0.2074035258
-0.0595001968
-0.0093686354
0.0680245805
0.0361972959
0.1465638106
-0.0181789175
0.0151945183
-0.0758197341
0.1161308114
-0.0945006025
0.2076510436
-0.1080278326
-0.0501102752
0.0886725432
-0.0186685377
-0.1052908336
-0.0448982841
0.008997334
0.058975196
-0.0741227082
0.1356043835
0.044384962
-0.0552568373
0.0948496262
0.103839738
-0.1532015167
0.0269751806
0.0095059367
0.0228285625
0.0966915852
0.0083869589
0.0293740999
0.0397839064
0.0880799869
-0.0734653129
-0.1755144703
0.0674055233
0.0205046834
0.2958512516
-0.0529430707
-0.042712934
0.0314758245
0.1845382602
-0.0370892129
-0.0282507773
0.0488172866
-0.0984553287
0.2193548608
0.0488677785
-0.1146469215
0.1283985503
-0.0837889597
0.167863893
0.0191603711
-0.0404679728
0.1221838401
-0.0636940324
0.1092465058
-0.0631004127
0.0368717004
-0.0104210025
0.0775489484
0.1483551216
0.1876394532
0.2089065842
0.0510971691
0.1142475883
0.0909212821
0.0707388681
0.0271095291
-0.0542894947
-0.055370859
-0.1428063374
0.0142648858
-0.0894178058
-0.1852434589
0.028301028
-0.1700307379
-0.0263615154
-0.0300543294
0.0749354198
0.0534794683
0.0344453483
0.0601852734
0.062823996
0.0598679365
-0.1751469044
0.0469634785
0.0358474893
0.0480450908
0.0217746201
0.1122151059
0.0572109112
0.035238083
-0.0155581805
0.172385491
-0.0524409362
0.038750711
-0.1843985272
0.0331619023
-0.0570985051
-0.0848893227
0.1439829371
0.1189507052
-0.2244437409
-0.0206663704
-0.1062636373
0.108658847
-0.0303650845
-0.1291275425
0.0211552667
-0.079977949
-0.0587507083
-0.0698308036
0.0239826147
0.1050661681
0.1569736375
-0.01152804
0.0422356216
0.0707622394
0.0710100052
-0.0204378353
0.0047275337
0.0279288777
-0.2148581004
0.0536324666
-0.011353265
-0.0546191057
0.246695403
-0.0521258572
-0.1358008508
0.1208373519
-0.1195928747
-0.0316076017
-0.0038514978
0.0353994351
0.0599483414
-0.0691317421
-0.1840516261
0.0260698616
-0.0143271027
0.0869298334
0.1705988401
0.0145757395
0.124250266
0.0095976859
0.1079716841
0.1585863235
0.0238843016
-0.0429009779
-0.0062551392
-0.0091158214
-0.0222700503
0.0883709787
0.0188522652
0.0038924665
-0.0156499501
0.0910404789
0.0332890601
0.2233960783
-0.0133246488
0.0383565625
-0.0371678968
-0.0065921521
0.1434896473
-0.1889434946
-0.0317869783
-0.0650380631
0.0791673367
-0.2009478778
0.1764720396
-0.0271593037
0.0660499142
0.0921107694
-0.1600078207
0.0035418268
-0.1001850108
0.0226201986
-0.0141896101
0.0609790717
-0.1521374939
0.1062556726
-0.1270629239
-0.1620305689
-0.0767656126
0.0535607366
0.0691965274
-0.1097775116
0.118753745
0.104376578
0.0267015736
0.0544958788
-0.1765917721
-0.0135464263
0.1429023209
-0.0228720714
-0.0680629325
0.0047597748
0.1027820632
0.1766886688
-0.0149508728
-0.0245363687
0.1280096399
-0.0358904249
0.0117701826
-0.0927481227
-0.0039907896
0.0071739685
0.0051179723
-0.0528480621
0.0993540593
-0.0228965319
0.0522949465
-0.0703528423
0.0377347467
0.1404772084
-0.2248392661
-0.1228834567
0.0889644355
-0.0478381849
0.0677413621
-0.0093535735
-0.02638833
0.0807326848
-0.0636801708
0.0202110606
0.1514654095
-0.1069538221
0.0542052975
-0.0136233911
0.0694316547
0.0824277402
0.0185455904
-0.1335449441
0.0188167149
-0.0080501151
-0.0272094774
-0.1985194267
-0.1302107514
0.0314496073
-0.1789833995
-0.1128164615
0.0479325295
-0.1072601098
0.009132499
-0.0189881241
0.0472174481
-0.0745484458
0.1309173654
0.0062851781
-0.0360980925
-0.2046670517
0.1129120434
-0.0065281887
0.0691974848
0.0680552715
-0.1956858023
-0.0712255912
0.0124328656
0.0537267826
0.0315845409
0.0160745483
0.1034278859
-0.0240525999
-0.0416648091
0.0059535605
0.0391992722
0.0202648046
0.0517365173
0.001261926
-0.0709892711
-0.0268884111
0.0060204524
0.1021150957
-0.0626930845
0.0190124599
0.098315042
0.0351162392
-0.1125354228
-0.0033987694
-0.0312925753
-0.1485282173
0.1458610432
-0.028734839
0.0223628553
-0.0123333708
-0.0098580781
0.1125522677
-0.0479535973
-0.1325803861
-0.0582163242
0.1311454876
0.1026213505
0.0566708503
-0.0720624704
-0.0305396306
-0.2240970616
-0.0177876146
0.1060932787
-0.1272938957
-0.0876011305
-0.1041943363
-0.0872156627
0.0761518714
-0.1457995771
-0.0918729822
-0.2823647946
0.1113182106
0.0601637018
-0.0254473997
-0.1309082593
0.0898502512
-0.0072860392
0.0832721878
0.020637872
-0.0955669098
0.1903382587
0.0123421732
-0.0178329452
-0.0305028299
-0.1217511521
-0.0487431835
0.0544341558
-0.1661268232
0.0808512589
0.1269779849
0.1180514033
0.0986585002
-0.0660962315
-0.0800865848
-0.0606357451
0.0124092569
-0.0195497587
-0.0018634875
0.0177229054
-0.1675803842
0.2210210231
0.0274887933
-0.1055600643
0.1066272554
-0.0599587012
0.0273819903
-0.0063080945
-0.078021457
0.1000143281
-0.0621996212
-0.0796785106
-0.0430777526
0.0825534712
0.0463421854
-0.0563307748
-0.0908118713
0.0288949519
-0.0760459331
0.0153161947
-0.2992345225
-0.0197335286
0.0163436466
0.1147339075
0.0139771317
-0.0257428437
-0.13444999
0.1333911653
0.1959290521
0.029806977
-0.064122276
0.0306856874
0.0563172392
-0.1247658753
0.0500030346
0.0475013594
-0.2077720296
0.0576052797
-0.0375250802
0.1128953191
0.0429765901
0.0985213927
-0.0162074666
-0.0451798309
0.0838725586
-0.1271767384
-0.2317766724
0.0087192915
0.0184811296
-0.0990223108
0.0144437765
0.0914742047
-0.0408308063
0.0430606912
0.0159263762
-0.0067696866
0.0560846724
-0.0295765556
-0.0959001746
0.0593988249
0.0034118352
0.0436716581
-0.0585914552
0.0270077475
0.3102613828
-0.0734969407
-0.0367956975
0.1534413711
0.0514713531
0.0460430724
-0.0484328403
-0.0936706052
-0.0412496347
0.2030894245
0.0916820818
-0.0219053373
0.0445320401
-0.0633348677
0.1224857594
0.1041493662
0.0393258867
0.042362014
-0.0288468141
-0.3032806886
0.0028520791
-0.1016753438
0.0281508169
-0.0440951365
-0.0346972224
0.0928001597
-0.0066484479
-0.0652826639
0.1771923489
-0.0132134109
-0.0220388792
-0.0950166306
-0.0425801306
0.0761449877
-0.1108459022
-0.0014931019
-0.1043459107
0.1723218541
0.1394830794
-0.0266142652
-0.0394973496
-0.0555068876
-0.1997641756
0.1040879296
0.0004145993
0.0250009659
0.0554681135
-0.0959418525
0.011512613
0.1280172022
-0.0608985227
0.0519963064
0.0212476568
0.0896631775
-0.1362334126
-0.0738638472
0.0526422576
-0.0507349138
0.0139259763
0.0647600435
-0.0410735306
0.0299871218
-0.0565308481
0.0369256714
0.1791948453
0.0237642403
0.2373188654
0.0192493174
0.0555423407
0.005429264
-0.0270423404
-0.0131932355
0.0754160378
-0.114847899
0.0086159073
-0.043249342
-0.1965149534
0.0499759971
0.1012011442
-0.0154539548
-0.0524803192
-0.0547988478
-0.0136741492
-0.1054954186
-0.0318754519
-0.1192989438
0.0732826413
0.0400511966
-0.0064266346
0.1126772837
0.2377141354
-0.0273431897
0.1089534314
-0.0181486525
-0.0715148171
0.0318825861
0.1801405225
-0.0719103534
0.1857225651
0.0186204998
-0.117167322
0.1704688977
-0.0127117351
-0.0428015861
-0.0235270142
-0.2085816534
-0.2284461894
0.2071940699
0.1414246646
0.1593677807
0.0757538558
0.0528621759
-0.1139357049
0.0597904074
0.0384376545
0.1062996375
0.0037072394
0.0635820227
0.1108537471
-0.1273248263
0.0548059312
0.0174581445
0.234196554
-0.0343276748
-0.067478189
0.0545273363
-0.0071384134
-0.048362414
0.0262781497
-0.0957909918
-0.0712105626
-0.0622012263
-0.26758214
-0.0726398665
0.1327940576
-0.0085715982
0.0171627511
0.0307328507
0.03469027
0.0037399116
-0.1455581392
0.0102025857
-0.0087888768
-0.1318588329
0.0253369711
-0.1532311817
-0.045532189
-0.1634713636
0.0297951943
-0.1308588422
0.1567773557
0.0482973121
0.0238493577
-0.0594331439
0.0429953201
0.1586109965
0.1768004439
0.1169236079
-0.1648490711
-0.0797476505
-0.092240663
-0.0402652149
0.051366068
-0.0192455049
-0.0517477496
0.0174914174
0.0262608464
0.0451916617
0.0002729745
0.0795874274
-0.0585850313
0.0212833462
-0.1060186886
0.0174851854
-0.0545112086
-0.1628161756
-0.040355964
0.1178659592
0.0624281064
-0.0839145249
-0.2810083486
-0.0343878438
-0.2405877563
0.1100856658
-0.1497786284
-0.1352838739
0.1366969925
0.0845075774
0.104564498
-0.0433224821
0.1093800327
0.0471927788
-0.1444515438
-0.2401027927
0.0504988674
-0.0071558316
0.0353124471
-0.0905763757
-0.0338189867
0.0091237704
-0.0455987069
0.0157631708
-0.0885836937
-0.1212263234
-0.2673906202
0.0047955153
0.0682685914
0.0153258794
0.2540495531
0.0997897739
-0.1145506657
0.0134574211
0.1128657647
0.0270566878
-0.0065783302
-0.1052385218
0.0380340307
0.1439930365
0.0150902299
-0.0300554371
-0.020654896
-0.094660792
-0.011662701
-0.0044317276
0.1068165218
-0.0853801374
-0.0162908044
-0.0318908827
-0.0066271032
-0.203219789
-0.1625429786
-0.1469240237
-0.007012483
-0.1285683153
0.1404060596
-0.0564347062
-0.0515492514
0.0117422
-0.1495210853
-0.0217535811
0.1844120432
-0.0408465226
0.095713025
-0.0956280967
-0.1151434446
0.13564849
0.0741222913
-0.1724067951
0.1790118843
-0.1270961157
0.0420329196
0.0977388255
-0.0809154133
-0.1028084811
-0.0968581173
0.1808796364
-0.0409353978
-0.1622194877
0.1406759889
-0.0030784406
-0.0470444015
-0.0924357264
-0.0302581842
0.0305849473
-0.0794615229
0.2110204572
0.0057248485
0.0914316176
-0.0156660647
-0.0475749374
0.0205566026
-0.0115403199
-0.1271079322
-0.0994108113
-0.0077427206
-0.1396179486
-0.0891008388
0.0506672625
0.0516973366
-9.71209077048618e-05
0.0345931668
-0.0976673496
0.0656576439
-0.1553167499
0.0161925521
-0.0167001415
0.1656914487
-0.103436922
-0.0213473552
-0.1237280051
0.0254895794
0.1165647099
0.109827984
0.062122402
0.0743858203
0.026003586
-0.0013647388
-0.0919656098
0.0062586035
-0.0493450971
-0.0528954336
0.2305813359
-0.0430859554
0.0320507141
0.0521777922
-0.0371733904
-0.1618796604
-0.1349536049
-0.0503859964
0.0070124953
0.1194766611
-0.1871140786
-0.0518486435
0.1557282981
-0.0509206817
-0.0454121686
-0.077565244
-0.0400093392
0.0366052383
-0.111966534
0.0465244547
-0.0544569239
-0.0051987126
-0.0665023778
0.0237578815
0.083579598
0.0150107656
0.1910616335
0.0034220331
0.0890021404
0.0148557789
-0.0187504286
-0.1960505405
-0.043866568
0.008889634
0.0479666676
0.0747366715
-0.1332686431
0.0377918857
0.1224158524
0.0504980408
-0.051058765
-0.0048184601
-0.0066279863
-0.0560638879
0.0491073178
-0.0911098888
0.0819662768
-0.0692775816
0.0426118604
0.1833680489
-0.0200953657
0.0746720487
0.2488414504
0.0015902167
0.0375969412
0.0257612226
-0.0235605679
-0.0473622408
-0.1430928955
0.1049755336
-0.0660667294
-0.0221217904
-0.0647401184
0.0139687801
-0.079009017
0.0484536028
0.0282439152
0.1427338712
-0.016754724
-0.1143999839
-0.0741791392
-0.1105378952
0.0701203254
-0.1622951076
0.1488644092
0.1538296472
0.1371361204
0.0854279603
-0.0434431004
0.0313419829
-0.2053085234
0.3504505116
-0.0517474179
-0.118428962
0.0561436266
0.0687116933
-0.0624987899
-0.072153846
-0.0135262304
-0.1237088542
-0.0686113989
0.0394319635
0.0319501288
-0.1889754535
-0.0486273425
-0.0023914708
0.140974369
-0.0603970544
0.1655752799
0.099972985
0.2350765413
-0.1078571419
-0.1118164207
-0.0632570558
-0.0904471235
-0.2614632252
0.0265819696
-0.0056865833
-0.0359441337
0.118291414
0.0455172811
0.0594307718
0.0005948436
-0.129136247
0.1059223042
-0.0099565711
-0.1708809061
0.0087359531
0.0844561545
0.0818254389
0.043174173
-0.1465650815
-0.1230266695
-0.0999542253
0.2714721487
-0.1509906346
-0.1771093919
-0.0763841842
0.1344659973
0.2763821344
-0.0078819602
-0.1160575756
0.0721857949
0.0246797796
-0.0443762434
-0.1641426785
-0.1957457412
-0.0098540749
0.0335259993
0.0925724065
-0.0253897574
0.0036606121
-0.0522517161
-0.0596330616
0.0700574488
0.0955932611
0.0543109887
-0.0563042619
-0.0316316517
-0.0892185326
-0.0430334871
0.1332701968
0.108376722
-0.1304694545
-0.0482761424
0.1391014284
-0.0104163368
0.0851332097
-0.0940528303
-0.0930527966
-0.1019770929
-0.0005705441
0.0448481084
0.1362737295
0.1016678809
0.2255502946
0.1031482159
0.0303012147
-0.0088743328
-0.1528802729
0.0255359274
-0.0144278483
0.1182396942
-0.0563571021
-0.1076008356
-0.0133733895
-0.0192961854
-0.1268975834
-0.1458249501
-0.0371938974
0.0437148166
0.0823801615
-0.0348635722
0.2472898721
0.1026318157
0.1584018615
-0.1516185964
-0.0440705492
-0.1914561473
-0.0235296195
-0.0251949749
-0.075872757
-0.0285752181
-0.1601676559
-0.0239308474
-0.1472716803
-0.032062063
-0.0769465074
-0.1309915688
0.1081147914
-0.0977365615
-0.1419594358
0.0099500104
0.1167770623
-0.1686629309
-0.0682372136
0.0029041542
0.0144765318
-0.1792757736
0.176301696
0.1379623857
-0.0048629759
-0.0352348248
-0.1119871478
-0.0097028552
-0.075641825
-0.1295672316
0.124698957
0.1118939222
-0.0126355682
-0.0751389088
-0.0965953741
-0.0389531056
0.0643783505
0.1405591103
-0.0020296491
-0.0442757643
0.0314804043
0.0557809628
0.0672355894
0.1255986763
-0.0866487259
0.0742457838
-0.0343400113
-0.0360789367
-0.0686546675
0.050587353
0.0097278037
0.1370371015
0.1535869063
-0.1001012892
0.066446861
-0.1798432671
0.1469838362
0.2122986278
0.0266375234
-0.0261851132
0.0123999863
-0.0769678385
-0.0274029303
-0.0036145073
-0.1121171824
-0.0272458025
-0.0310683109
-0.0270405462
-0.1615172763
0.0950574153
0.0870578041
-0.0884786739
-0.0120121385
0.1974418377
-0.0954891077
-0.0633204329
0.0889494661
0.0989440123
-0.0286255284
-0.2298987721
-0.1170778656
0.0798998352
-0.0810151441
-0.1734389065
-0.1508271277
0.0153741721
0.0734646176
0.1458549037
-0.0511121769
0.0346021764
-0.0056912428
0.1711040459
-0.069870489
-0.1071208607
0.0269514701
-0.1071323534
0.0631667012
0.0216150063
0.0128005348
0.261792631
-0.0389346005
0.0773200807
-0.069387247
-0.1277548373
0.0975237103
-0.1880051356
-0.0419577098
0.1189555081
0.0738902107
0.1105055051
0.127525365
0.0808368476
-0.046810846
0.1236151775
0.0380867858
0.1177561728
-0.0074993532
-0.0475837707
-0.0383303621
0.0374605945
0.0551377023
0.071187016
-0.1046304681
0.071198589
-0.044102372
0.0945304377
-0.0178812829
0.0494231379
0.037880243
-0.019241216
-0.0819462127
0.0702721909
-0.0471914243
-0.0819938186
0.0356204404
-0.0958394454
0.0129404217
-0.110256068
-0.0392086899
0.1295773907
-0.0520532662
0.1079975615
-0.0055620504
-0.0006783136
-0.1183609822
-0.0719782608
-0.1099980148
0.1600273723
0.1223091125
-0.0012913349
-0.0836572014
-0.1167530129
-0.1155632415
0.0301726979
-0.0006519611
-0.0092298278
-0.1991362175
-0.1591624429
0.1632218418
0.065436687
0.053432332
-0.1655120079
0.1589582076
0.0380357389
0.0096559834
-0.0548736728
-0.0804064055
-0.0709414521
-0.0396133053
-0.0231272147
0.0817778848
0.1113780075
-0.0127699418
0.1956496468
-0.0392245169
0.0482251163
0.0266272048
0.0873100061
0.1166126377
0.1010902189
-0.0122724031
0.0403055329
-0.0989688899
0.0131264351
0.1740817419
0.1085034976
-0.0703017493
0.1474773608
-0.0875191477
-0.1386449939
-0.0313414159
0.0312449595
0.2334194359
0.1434177156
0.0670380848
-0.070413714
0.0042027015
0.0737408933
0.1011428191
0.0888206695
-0.1593962672
0.0138467682
0.0144735783
0.0382269712
-0.0212967883
0.0193506663
0.0314509791
0.1593888177
0.1381135134
0.0687453724
-0.0365179356
-0.0544234407
0.034565615
0.1895215527
0.1563288325
0.0700939989
-0.0383656421
0.0598017502
-0.0158134308
-0.1241469346
-0.0641766479
-0.0802147651
-0.071277957
0.1174456602
0.1719043042
0.0496722805
-0.0311902472
-0.0775118168
-0.1105613697
0.1271384122
-0.1170812948
-0.0237015454
-0.135929234
0.1078069737
0.0439583799
0.0747758535
-0.0568192914
-0.0356298908
-0.096635393
-0.0426489171
-0.0623144341
0.2152005846
0.018252642
0.129182877
0.0561704235
-0.092275685
0.0854909102
0.022694678
0.1573140853
-0.1470612021
0.0044767255
-0.0418505969
-0.0834283507
0.070741825
0.1286224603
-0.1638564916
-0.022867428
0.0278389481
-0.0533568187
-0.0392903047
-0.1057131834
-0.0224986092
-0.0320266873
0.1331315949
-0.174555596
0.0539282648
0.0371364529
0.1054523352
0.0500876916
-0.1090804264
-0.0152266381
0.0739221167
0.0617186753
0.0525743136
-0.0850098822
0.1727687805
0.020754732
-0.274766185
0.0135421803
0.0734509664
0.0778222476
-0.1573419768
-0.0718276889
-0.0840339967
0.0283164012
-0.0485426112
-0.0021876663
0.0412038957
0.0024039097
-0.0415390923
0.0188467508
0.1199823043
-0.0112932234
0.0690555513
-0.0823437258
-0.0842751859
0.076616924
0.0803430642
-0.0001964434
-0.0833925044
-0.1289777444
-0.0660215963
0.0544238189
-0.0208655346
-0.2450153316
-0.2115266608
0.0495985806
-0.0435069675
-0.1656815504
-0.1434858668
0.0046840396
-0.1052476456
-0.1371419237
0.0132872805
0.0395608666
0.1153808095
0.1610820485
0.0141165535
-0.1549126961
-0.021185096
0.0692401896
-0.1134368194
0.1419160411
-0.0297752873
-0.0022403269
0.0220753951
-0.1077624627
-0.1256975558
0.0715665951
0.0334287475
-0.1364853872
-0.1344217244
0.0484342193
0.247769084
0.1054979371
-0.1084392214
0.0586744504
-0.0631910118
0.0670014125
0.0300520009
0.0205136079
-0.1069620356
-0.0279666078
0.0496967332
-0.0964366777
0.0816183713
0.0024764056
0.1339445746
-0.0729556022
0.1419574079
0.1046165838
-0.195628072
0.0263797175
-0.1300885942
-0.0593473988
0.072388642
-0.021950458
0.2086424343
-0.2086064539
-0.1153737838
-0.0238509489
0.1458877287
-0.1868398474
0.0806484491
0.020666586
-0.0222267917
-0.0310878891
-0.1105812771
-0.0259198142
-0.0133187857
0.1449931386
0.0601299396
0.2519902507
0.0035191438
-0.0020843327
0.0990871232
0.0679036537
0.101284781
-0.0050076802
-0.1437975447
0.0811895547
0.1983538389
-0.0372747851
-0.2235100618
0.0369213565
0.0051990964
-0.0432619927
0.095447606
0.0606581333
-0.0387661616
0.0234619521
0.0577869113
-0.0372915432
-0.0918190349
0.0922055036
0.0125969318
-0.0184029854
0.1351086845
0.0616442925
-0.0571045687
0.0802368881
0.0212103365
0.0164453811
0.1763380677
-0.0109604079
0.1481271221
-0.0593227182
-0.0379643223
0.0957447626
0.0309074224
0.0968657022
0.1614224101
0.1085863255
-0.2194932608
0.1195190738
-0.0495777602
-0.2278956517
0.1131648539
0.1578536245
-0.0618655314
0.0389988613
-0.087430513
0.156204241
-0.0199020223
-0.0023357323
0.1413108041
-0.0195122126
-0.165286987
-0.2380125571
0.0785602345
-0.1255577261
0.0782385301
-0.0859114123
0.0217198003
-0.0926153803
0.0802507951
0.090543091
-0.1102367989
-0.082175594
-0.0643982498
0.0182185703
-0.1384171154
0.0956434429
0.083116612
0.1454814171
-0.031177085
0.0524139512
-0.1826164166
0.2215526398
0.0736656256
0.0653049618
0.168349232
0.1659893407
0.0474025226
-0.0495343442
0.0140053295
-0.0469631794
0.0636441811
-0.1791068802
0.0900742878
-0.0115397912
-0.0250736742
0.0717715165
0.1365503306
0.1416403074
0.0424316126
-0.0557705445
-0.0411585129
-0.0276355923
-0.0320505369
0.1718367254
0.1855718729
0.0596581406
-0.1113772859
0.0351583187
0.1601282611
0.1526473433
-0.0012265355
0.1747222297
0.1163596452
-0.1422601861
-0.0072766452
0.1000276189
0.0776249823
-0.3004775878
-0.0068357897
-0.0879194005
-0.0474895904
-0.1385740821
-0.0213860666
0.1442213656
-0.0173549619
0.0857022079
-0.2107005539
-0.0921785385
-0.013394291
-0.1108923316
-0.0747932604
0.0340745857
0.1212902681
-0.0712142044
-0.0600489681
-0.0597173494
-0.150816714
0.0761436184
0.1534325173
-0.0571897819
-0.0539151305
0.1828052387
0.1085883517
-0.1925219982
-0.0026228007
-0.0236714365
-0.2047574446
-0.0995057975
0.1164446712
0.0470686474
0.0023187825
0.0939482388
0.2418827218
-0.0735529952
-0.0249671458
-0.080687267
0.1217594556
0.0415136884
-0.0910124051
-0.043623878
0.0662835626
0.0255121421
0.0829461071
-0.2022967618
-0.0587506287
-0.1973646514
-0.1786497892
-0.1446323371
-0.0450265941
0.0704670362
-0.0577462674
0.028863806
-0.0479883204
0.1733871401
-0.0836252518
0.1254741756
-0.2290382551
-0.0296303077
-0.1817089609
0.049444928
0.0887601179
0.0093762893
-0.0929017759
-0.0689097493
0.1690912347
0.1395616481
-0.1590531677
-0.0936218658
-0.0246921826
-0.0130346734
-0.0004966558
-0.0621343041
0.0269218551
-0.0351064763
-0.1332126916
-0.0105681079
-0.0197613084
-0.0022976056
0.0448641225
0.0868057398
-0.1046843224
-0.0366047871
0.0128754701
0.1062517376
-0.0830058955
-0.0773117685
0.1464220452
0.1347425898
0.1353381722
-0.1548959485
-0.0269368272
0.159110945
-0.0221874212
0.1388025636
0.0167330841
-0.1634010043
0.2242402396
0.0694709484
0.0224815619
0.1756447847
0.0704556638
-0.0091397118
-0.0667816543
-0.1322997809
-0.0216270565
-0.0106053497
-0.1542674094
0.0434565276
0.1362407335
0.028733049
0.0604660921
-0.002367591
0.1111638756
-0.0402222046
-0.0119346742
-0.115718241
0.0013297356
0.1088181873
0.1366589713
0.1746522563
-0.0199964343
-7.37578048501941e-05
0.063852602
-0.1056264502
-0.18741915
0.0446785635
-0.0270954931
-0.0365971284
-0.2314535607
0.1055222081
-0.1931462604
0.1866761208
0.0014913142
-0.0357328067
0.0713876227
0.0295133822
0.0274218992
0.1422221426
0.1469347435
0.1899159032
0.088055726
-0.0460159338
-0.2077167279
-0.0479581074
-0.1700145767
-0.1024990154
0.0575742357
0.0482036827
-0.0510928057
0.0479489624
-0.1920056592
-0.1500973162
0.0617259332
0.1285679534
0.0759938665
0.1138294246
0.0447793673
0.0795508178
-0.0273537997
-0.0204019701
0.0907282114
0.00504806
0.1666214983
-0.0535242043
0.0427603464
0.0395644772
-0.0402272159
-0.0511517311
0.1246882016
0.0234618557
-0.1851435506
0.022398633
0.1856176854
-0.0536203783
-0.0321134484
-0.0458085886
-0.1157111339
-0.0061665878
-0.0707042775
0.0266750043
-0.0191989974
0.0456856271
0.1022084224
0.0025384465
-0.0520500535
0.0177829977
0.0448773893
0.0460725313
0.0523097585
-0.0854493729
-0.045637812
-0.2355613125
-0.0268387682
0.0534090079
-0.075457776
0.0397231544
-0.0215734317
-0.0946073408
-0.0513829078
0.1134332092
0.0251009813
-0.0726995769
-0.0177386894
-0.0078990676
0.1030223919
-0.0253302256
-0.089341252
-0.0375932997
0.0618916194
0.0474078777
0.0387357471
0.066264508
0.0079536456
-0.0542634441
-0.0820815006
0.0577832781
0.037000025
-0.0117674234
-0.0340279805
-0.0184302682
-0.0789854928
-0.1241653463
0.087198854
0.0227722306
-0.0048456052
-0.0385327939
0.1029130122
0.0585438203
0.0518370692
0.0590773142
-0.1557552517
0.014678521
0.0537946207
0.0054785188
-0.0125725981
-0.1160907736
-0.1348472309
0.1308639023
-0.0812294169
-0.1230072578
-0.0691743149
0.1672248283
0.1621911322
-0.1534909266
0.0091109971
0.0818061202
0.1246011606
0.0549386395
0.0832844467
-0.0243965388
0.0806553401
-0.0683685915
-0.1992509418
0.123228695
0.1531722557
-0.1559305281
-0.0562851872
-0.000558823
0.0994941846
0.0520442936
-0.1788823945
-0.0530985652
0.1781796597
-0.0226801879
-0.0555558279
-0.0383829819
0.1230592038
0.0692559842
-0.0259120399
-0.0222549507
-0.0177083213
-0.28216586
-0.0211881532
0.0595160082
-0.0437450577
-0.0541643613
-0.3079386734
0.0077009585
-0.1330729117
-0.0987507153
-0.1662696925
0.0410966628
-0.225160007
-0.0831538865
0.206669308
0.1305873904
-0.0323609346
-0.0464808954
-0.1003416381
0.2110404708
-0.0337601903
0.0890844957
-0.0803357836
-0.1989489792
-0.1367357988
0.0413494914
0.0555210227
-0.0818192371
0.1297117398
0.0058027557
-0.0088017093
0.1391069166
-0.0186122744
0.2355679306
-0.0784973151
0.0094853704
-0.1432879924
0.0276115541
0.1055028373
-0.067018683
-0.0225769019
0.0675986744
0.1284549692
-0.0665547185
-0.0413392328
0.1040034535
-0.0149276539
0.1458088205
0.0065112907
-0.1581836801
-0.0205248995
0.1490554943
-0.0337871735
-0.2652297205
-0.0132591828
-0.1353839372
0.0598378422
-0.0308034286
-0.0377080974
-0.0440161866
-0.1267094236
-0.0449339124
-0.0107092775
0.036187327
-0.1258784267
0.3890328411
-0.0542380207
0.0739289481
0.0505582825
0.1243838828
-0.0091432888
0.0240984775
0.193852925
0.0193521185
0.1141411576
-0.0341411042
-0.1251783498
-0.0239314553
-0.0980804731
0.0044660551
-0.1003924454
-0.0534962929
0.0046024225
0.0630929957
0.1632568552
0.0292621235
-0.0515198863
0.064942051
-0.0929007355
-0.0738150134
-0.1130810655
-0.0699160278
-0.0793682557
-0.0552067117
-0.1053388406
0.1748892347
-0.0326181737
-0.0454409488
0.1405463703
-0.0119263329
-0.0998492699
0.1673496154
0.0877076405
-0.1459877114
-0.2750752299
0.0029321373
-0.0801663229
0.0411874684
-0.0457329362
0.1124353269
0.0751900841
-0.1917502861
0.097295319
-0.1011370154
-0.0952648508
-0.1686258661
-0.0629312822
-0.1420898778
-0.074854486
0.0118618692
-0.0926967551
-0.1159524102
-0.0921701491
0.1314505241
-0.0158820873
-0.07789064
-0.089709677
-0.0785183092
0.0271133749
-0.0746225331
-0.1665279162
-0.0583029848
0.347596397
0.0109176725
-0.1266303826
0.0341116846
-0.0185082299
0.0051387349
-0.0614662248
-0.0399588109
-0.0203474359
-0.0597659966
-0.0461586822
-0.0721554273
0.1793981179
-0.0851566677
-0.1607636257
-0.0083392364
-0.0378832526
-0.0977118614
0.0968504281
0.0421005391
0.1573914928
-0.1046613664
-0.0560235018
-0.0128546175
-0.2374822916
0.0620539407
0.0837181023
0.0550737785
0.0202699066
-0.0212918456
-0.0293799107
0.0525083117
0.0461710469
0.1967888736
0.0660753647
-0.0291978431
-0.0026107134
0.1075334931
0.0895657276
-0.1269736103
-0.1418395469
0.2520574063
0.1248458528
-0.0468426298
0.1330065014
0.0171361101
0.0968565042
-0.0287399667
0.0291067725
-0.1085426594
0.1058737626
0.1086907903
-0.1540444069
0.0047343281
0.1917433301
-0.0387873498
-0.0465126774
-0.0083656741
-0.0765219973
0.0713096628
0.1088811899
0.0452457724
-0.1749706445
-0.0496003636
-0.0615254525
0.0849377856
-0.0533253485
0.0269739421
0.0771677858
0.1295078052
0.0182803942
-0.0227234288
-0.0818913715
0.1540500911
-0.2384428407
-0.1066876633
0.0835608508
-0.0400518142
-0.0695355085
0.0155361723
-0.0419138175
-0.0273271853
0.1620313581
0.0996176586
0.013897587
0.1152591908
0.2464407276
-0.2549664427
-0.0186750255
0.1343038341
-0.0551271191
0.0310203952
-0.0092480494
0.1125642348
0.1148708825
0.0461361226
-0.0375402909
-0.0285460594
-0.0508010837
0.0452920439
0.073277402
0.0255321741
0.1606679306
-0.0239282056
-0.2281389555
-0.1466413461
0.2034756439
-0.1264027587
-0.080887948
0.0400581283
-0.0117037393
0.007173053
0.0173264842
-0.1689308753
-0.0279281148
0.004438948
0.1588088783
-0.0798266139
-0.0469040538
0.0347800512
0.0364891287
0.0854878636
-0.2131869772
-0.0100860552
0.0760319113
0.1456069573
-0.0835427754
-0.1590806611
0.0209121244
0.0190831482
-0.0249528497
0.0292464717
-0.1512117467
-0.018993057
0.0104469469
-0.033099722
0.0283089013
-0.0746410428
0.0264506677
0.0543700526
0.0102422119
0.1223124106
-0.0088034332
0.0886921715
-0.1110943413
-0.0463489249
0.0150859624
0.0358228427
0.1158766553
-0.0697344409
0.1061483551
-0.0618712111
0.0443055414
0.0015524175
0.0679499002
-0.0669144116
-0.0156964867
-0.1162810928
-0.0388825336
-0.0034671884
0.0581069479
0.0972764884
0.067807435
-0.1070807118
0.043804957
-0.0301459553
-0.0947449975
0.0820617221
0.0144266677
0.0288151757
-0.0996933077
0.1208087148
0.2111094037
0.0790674606
0.0766855278
-0.1264658957
-0.0420863516
-0.0379272994
0.0254387127
0.0512401036
0.0105781924
-0.0196084291
-0.0818971201
-0.0869274395
0.0887603909
-0.0281597893
0.0685843548
-0.0953352097
-0.0606743328
0.0439044598
-0.114416292
-0.085441527
-0.1212531912
-0.1512033598
-0.0517205545
-0.0904630235
0.115216544
-0.1682775808
-0.1268320792
0.1170925187
0.046280219
0.2107157543
0.0456921208
-0.1417915742
-0.2660661648
0.0486186907
-0.0656576689
-0.1055915396
-0.0056222246
0.1037757866
-0.0774686237
-0.0786364061
0.1054037186
0.0753694933
0.1697721569
0.0892798573
-0.146348914
-0.0769063345
-0.2725595865
0.0727371444
-0.1058519289
-0.1307413465
-0.042244772
0.1106454607
-0.129575662
0.0123852924
-0.0365428279
0.1670195586
-0.0293770093
0.1619152081
-0.001679203
-0.0655168304
0.2070723819
0.000630663
-0.0412553846
0.0698326798
-0.1642965621
0.2530515587
-0.0823227755
0.0328576129
0.1393078296
0.0164028381
0.0281256002
-0.1857178883
-0.0097259556
-0.0502347499
0.1842327809
0.0054620363
-0.0215680529
0.1268077574
-0.1608404187
0.0141818966
-0.0714808399
0.0276459352
-0.0174401738
0.1109749349
-0.1735118599
-0.0450745565
0.0979374238
0.0836890314
0.0059230804
0.0203559128
0.0495374637
-0.0254767296
0.0450550777
-0.0233350241
0.038180775
0.1963397374
-0.0144054511
-0.0371216629
-0.1143598191
-0.0123059009
-0.0472198099
-0.0428831306
-0.0121677276
-0.0794074733
0.0008318261
0.1088833311
-0.1064275466
0.0038959578
0.1334403099
-0.0019100564
-0.1103820912
0.0387239552
0.0436611486
-0.0327043705
0.034500596
-0.1726745087
0.0065241577
0.2005044492
0.1358404108
0.0517448127
0.0059279217
-0.0897917651
-0.1758494706
-0.0811077488
0.093832688
0.0213763095
-0.0165884592
0.1289651434
-0.0979688291
0.0800873767
0.073374117
0.0595112394
-0.0143727084
-0.0215695821
-0.0695301341
-0.0846381768
0.1141634226
0.0564188566
0.0382860269
0.051391633
0.0587526088
0.1180945387
-0.1573670424
0.0588020037
-0.0892426326
-0.1261996527
-0.0843064208
-0.0874803206
0.101587098
-0.1641375777
0.1242174394
0.0426694789
-0.0354351797
0.0310410376
0.1326921253
-0.0807504265
0.0382866913
0.1407946507
0.1329383341
-0.0975705483
0.1105320241
-0.0657792612
-0.1595783804
0.0707345022
0.1495882943
0.0541729234
-0.0948340303
0.00262832
-0.0676682357
-0.0015218712
0.0678558014
-0.0147408695
0.2138653196
0.0378869875
-0.0244143784
-0.0663697563
-0.0347259451
-0.1771111498
-0.0705397907
0.0591760167
0.0304270235
0.083699309
-0.0106866169
-0.0038821172
-0.0608631423
-0.0237986734
-0.1069806136
-0.0256899644
-0.0319719296
0.1425725834
-0.0160500228
-0.0736960679
-0.1152457099
-0.0086706361
-0.0523535699
-0.2131416466
0.0346911426
-0.0533829169
-0.1285969234
-0.0482420665
-0.1619918275
-0.1540955096
-0.0407048219
0.0168021073
-0.0407700272
0.0781881141
-0.0253981
-0.1475948093
0.0414928744
0.1130806967
0.1491310041
0.0957801861
0.0173552944
0.0426220237
0.1007867373
0.0993412442
-0.2432285636
-0.1034955199
0.0176339747
-0.0646348019
-0.0344708398
-0.0277920659
0.0973783491
0.0825436104
-0.0862478245
-0.1782537161
-0.0879028094
-0.1215532732
0.07298537
-0.0156071721
0.0053609125
-0.1052750644
-0.1438864485
0.0777655199
0.12224999
-0.1278480728
-0.155788297
0.2413291508
-0.0854136956
0.0882855954
-0.1778946082
-0.0905080093
-0.0751451518
0.1945593863
-0.1277546753
0.1053320911
-0.1065088748
-0.0076268314
0.0573128685
-0.0141180961
0.0267392906
-0.1448170245
-0.0582135777
0.0258220028
0.0850694407
-0.1472729007
0.0575600964
-0.0112143484
0.0637331357
0.0549132051
0.1072296395
0.0344014915
-0.0147863176
0.067092277
0.06678914
0.1420429698
-0.0706387917
-0.0813432306
-0.0510602084
-0.0237455719
0.1057531723
-0.0264995711
-0.1005302288
-0.1230454827
0.0903075287
-0.1512165037
0.0610402034
0.1505579773
0.0408586093
-0.0546714427
-0.0490656571
0.0163250228
0.0245354706
0.121822761
0.0597481594
-0.0086296652
-0.1096534727
-0.0303658829
0.0826467469
0.017671335
0.0391455778
0.0288385104
-0.0533107479
0.0309548551
0.005479356
0.1461428674
-0.0846561883
-0.0370698069
-0.0729227836
0.1285982473
0.0228616645
0.1768021486
-0.0387761498
-0.0811489513
0.0118740003
0.0442794801
0.1140480965
-0.0952127337
0.0831792379
0.0059890079
0.1291905202
0.0434849889
0.1155694434
-0.2044698458
0.2081595638
-0.1446143183
0.0338269374
-0.0898915671
-0.053602518
-0.0582956225
-0.0613327455
0.1063456128
-0.1155613092
-0.1188049058
0.0807761454
0.0238647898
0.0700559117
-0.0013863211
0.0585094442
0.0324894862
-0.0186724247
-0.125013905
-0.2162487572
-0.1157031939
-0.0875773939
-0.015895571
0.1621290026
0.0916501537
0.0606642722
-0.2606719772
0.0362651238
0.0601048643
0.1024882983
-0.177419399
-0.1226117414
0.0976126914
0.0217586091
0.050205195
-0.050927996
-0.1428634855
-0.0787021839
0.03602836
-0.0201929099
0.0189777032
0.094954563
-0.1001585257
0.056920422
-0.0219180294
0.0155829702
-0.0413735562
-0.0830886175
0.0510897441
-0.0751462327
0.028047942
0.0103485639
-0.0701790562
0.0997002195
-0.0551879793
-0.0500696905
0.1042595737
-0.0610878268
0.0155184479
-0.0122424809
-0.0268635117
0.0333918647
-0.0073157886
0.0980174414
-0.171074366
0.1694944345
0.144529147
-0.0262379783
0.0171558007
-0.091581973
0.0543979787
-0.2352963112
-0.0898991553
0.0579125604
0.0932738855
-0.0034585512
-0.1517471736
0.0087970926
-0.0958997295
0.0589351841
-0.0207849976
0.0149842377
-0.0591970412
0.0216847843
-0.2072506199
-0.0502522485
0.0370382486
0.0478678871
-0.0179011906
-0.1582245643
0.0182850771
0.1078159852
-0.031254269
-0.1107124318
0.0746407382
-0.0882050448
-0.0490547813
-0.0801090346
0.0851031372
-0.0529848581
-0.1400308466
0.0002087003
0.0328341396
-0.1408665756
0.0174913742
0.0428914563
-0.0712421501
-0.0384751264
-0.0459121977
0.063411279
-0.0309984729
-0.1139892797
-0.1209808006
0.0304020852
-0.0768195708
0.0015769769
0.0095250702
-0.1138871622
-0.2007885823
0.0699716812
-0.0338567377
0.1217656506
-0.0428700507
-0.0143264179
-0.1161582977
0.0754292814
-0.0061978992
-0.0341085923
-0.1160193616
0.0599049072
0.0697674284
0.0865570214
-0.053603228
0.0418422625
-0.0316755367
0.0618573571
0.0052134021
-0.0538827739
0.1588257257
-0.0452089354
0.0061444909
-0.1109455856
0.1009192507
0.0285575031
-0.133605883
0.0523755976
0.1666269952
-0.0224914882
-0.1576048918
-0.0001842347
0.1662865838
-0.0759874668
-0.191156904
-0.0963283612
0.0522103075
0.0097742745
-0.037299043
-0.0589168282
-0.103866433
-0.093154
-0.0213103839
0.0445247221
-0.1054468989
-0.1710980916
0.0445975999
0.1480801681
0.091626487
0.0636799358
-0.0683333057
-0.0908483267
-0.1830080121
0.0782651743
0.1631499184
0.0659453418
-0.1265980715
-0.133275908
-0.0969876439
-0.0521293918
0.0334709257
0.0056958597
-0.1735930364
0.0205471053
0.1462147687
0.0669057298
-0.0494537609
0.0092713511
0.0087538971
-0.0906427869
0.0844750943
-0.1908952664
0.1071292011
-0.0930039074
0.0375421231
-0.0389100884
-0.0332076709
-0.1237965826
-0.0181074171
0.128303035
0.0666218858
-0.0001317357
0.0972855774
-0.1789879497
0.0111383553
-0.0122727122
0.1096263331
0.1747954506
-0.04210456
-0.0266743304
0.0947947062
-0.1402516881
-0.1122261663
0.0652136332
-0.0124276679
-0.1568467327
-0.0715236092
-0.0237993492
0.166579976
-0.1067882542
-0.0831896658
0.1251923757
-0.0588450779
-0.1288853154
-0.022509361
0.0911426238
0.0143246613
-0.1245082558
0.1907845994
-0.0249627268
-0.2874978068
-0.0438933827
0.0592227382
-0.015442603
-0.0325899294
-0.0458897893
-0.0944544058
-0.1545642296
0.1249654015
-0.0419405457
0.0086743105
-0.0154962599
0.2542376092
-0.0638451606
-0.0742073791
-0.0350586095
0.0711035222
0.0672956424
-0.1317270833
-0.014956687
-0.0575819028
-0.0354974663
0.0240174506
0.1655657895
-0.0317789956
-0.0143295415
0.022002015
-0.1729070162
0.1419088707
-0.1213706574
0.0649399678
0.0756802665
-0.2514604707
-0.1098933637
-0.1089530148
-0.0523685941
-0.0331741009
-0.0712255494
-0.0733418182
0.0786182753
-0.0172851702
0.1907668046
0.0187258346
-0.2370151722
-0.0674816606
0.1769059492
0.0449708209
0.0386703882
-0.0564613808
0.1019835573
0.1916733854
-0.0451483883
-0.0998087438
-0.0926001769
0.2048864106
-0.1786329204
0.0843545864
0.1566733984
-0.0443769378
0.1001557491
-0.1474697656
-0.068042314
-0.0923900993
-0.0353568678
-0.2210672734
-0.0809961579
-0.0783429956
0.0370942608
0.1148755868
-0.1622417467
0.0115444533
0.057674335
-0.0648732406
-0.0867198375
-0.0114379176
0.0623267406
0.0395270651
0.0259460602
0.0351857584
0.0479745585
-0.1445466255
-0.0661170524
-0.0972546213
0.0407465743
0.1154872586
0.1348424818
-0.0111342794
-0.0007831706
-0.0131654125
-0.1630258326
0.0166887112
0.0417603976
-0.1253726547
0.0529630914
-0.0179539482
0.0680479418
-0.0681396068
-0.0122720071
-0.0928286867
-0.1351821055
0.0157093196
-0.2437967337
-0.1954522167
0.030174072
-0.0037231062
-0.08017155
0.0525247839
0.053720934
-0.0241356991
-0.261446938
-0.0811685868
0.0076715004
-0.0384581959
0.1542241709
0.0554003917
0.0172089803
0.0245292128
-0.1016003482
-0.0322383106
-0.0763752396
0.1441763393
0.1343064811
0.0101589336
-0.1613205559
-0.2275606835
-0.0234331073
0.0622473449
0.156512347
0.0822885409
-0.018570939
0.0710068202
0.1587741793
0.159617584
0.1495488267
-0.0132515031
-0.0288481552
-0.0772521981
0.0056282269
-0.1723292526
0.0269346575
-0.1992408413
-0.0692853729
-0.3730086916
-0.0331431627
0.1880890547
0.1322460808
0.0252110853
0.151106342
-0.1008487264
0.214390658
-0.0494707415
-0.080621018
-0.0199414041
-0.0493641338
-0.0629787462
0.1213236678
-0.0057479201
-0.0013889403
0.0605203454
-0.1799848171
0.1236854456
0.0830638279
-0.0585839781
0.2148778749
0.0149626572
0.0837680468
-0.0855425677
0.1306014488
-0.0344488053
-0.1816894238
-0.0612387254
0.0881891027
-0.0729792531
0.106774652
-0.0393361691
0.1083705669
-0.0530512897
-0.1342813475
0.1430477127
0.0724979472
-0.0603882203
0.1379638149
0.0866110278
-0.1004484651
0.1211701256
0.1300896209
0.0714713735
0.1198200789
-0.0085654856
0.0171603807
0.1141067488
0.0026203286
0.0505140351
-0.0888058322
-0.0781548428
-0.0518155984
0.0526959984
-0.0686890661
-0.09417496
0.0709780968
-0.0673898689
-0.121073868
0.0647677849
-0.1020050835
-0.1631314083
-0.0491862144
0.0629614133
-0.0460174841
-0.038951981
0.0337761342
0.1652039846
0.0896066047
0.0071302782
-0.0429606062
0.0424079611
0.112128016
-0.1492962612
0.0174603871
0.0575498565
-0.0571974137
0.0101398426
-0.0546102994
0.0977125935
-0.1459350971
0.008607816
-0.0597738512
-0.230128063
-0.0419345828
-0.0668199843
-0.1053462812
0.007145068
0.0531400631
0.235211491
0.028002741
0.0728619239
-0.0599202439
0.116396175
-0.0908497671
-0.0198745595
-0.0170603357
0.0720061032
-0.0641008971
-0.1232184675
-0.0222670808
-0.0333881905
0.0897690115
-0.0437279266
0.001980343
0.0595503838
-0.0180854886
0.178782749
0.0615381843
0.0023266831
0.2451987269
-0.0392471386
0.1793078943
0.0560885819
0.1252224083
-0.0671162646
-0.1237889596
0.0477892497
-0.2583889544
0.0887537743
-0.0707208735
-0.3314917691
0.0986192803
-0.0030884067
0.0697834963
-0.0530901253
-0.0402633522
-0.1083810141
0.0500603406
-0.0082531368
0.0436760052
0.0462196664
0.1936367362
-0.2053242568
0.050362738
0.0857134006
0.0400106724
0.1292901761
-0.1054916194
0.0239180427
0.1457380954
0.1575772086
-0.0482171362
0.1725672961
0.1679271139
-0.1352700222
0.0363781546
0.1300816281
-0.1224136628
-0.0791225216
-0.0582264212
0.0508313345
-0.0052861717
0.0016860699
0.1715218692
-0.1110911373
-0.0994595226
-0.1920378103
-0.1635181295
0.095047973
0.0350023136
0.0750220702
0.0482120313
-0.0729929614
0.0465798626
-0.0745484206
-0.207322403
-0.0238417633
-0.214958964
0.1117758549
0.0518728134
-0.1353147692
-0.1803148391
-0.1156548284
0.1056379131
0.1346337035
-0.0973349521
0.0054716987
0.1419206939
-0.1452885836
-0.0187990519
0.1096772581
0.0306173895
0.037181921
-0.1145559899
-0.2220761601
-0.1643063064
-0.0078534901
-0.0999025273
0.008581292
0.0930007549
0.1003354176
-0.0141343153
0.0022119542
-0.00835579
-0.0578066755
-0.0029586034
-0.0128144764
0.0601944009
-0.0030579562
-0.1634525463
0.0161804478
-0.0165304922
0.0906865012
-0.0103953755
-0.0288875105
-0.0956211093
-0.0471061463
0.08089491
0.0767401584
-0.0694445727
-0.0856316459
-0.1450327937
0.0614457789
-0.0871585864
-0.0775420335
0.0432378503
0.1084867328
0.1458017218
-0.0177026834
0.0294903775
0.0993449512
0.0317616881
0.0514395654
0.0083883389
0.0194700334
0.0528774316
-0.0105908554
0.0600346645
-0.1255074662
0.0377362115
0.0977382329
0.0525361258
0.0813374589
-0.1323900476
0.0159353945
0.0747848047
-0.0292777754
0.0562045243
0.0901013627
-0.1567348565
-0.0370985845
0.0016600737
0.2093685543
0.1025539053
-0.1847717245
-0.0491199602
0.0490660427
0.0432715614
-0.1623991197
-0.1804301185
-0.0225994166
0.083800064
0.0479674405
-0.1538546938
0.1413746236
0.1255558962
0.0845371412
-0.0026125993
-0.1213002978
-0.0402391741
0.0354462569
-0.0341024832
-0.0878040386
0.0270029842
-0.1382190978
0.1029729162
-0.0913818093
-0.0805960366
0.0725328964
0.0759890075
-9.50256913777592e-05
-0.0123420751
0.0389469966
-0.042089987
-0.0940880944
-0.1863252538
-0.0864922458
-0.1239313386
0.0866183379
0.133098759
-0.1192771922
-0.0484099365
-0.023592083
-0.1729199103
-0.0698626221
-0.0586193046
0.0810991964
0.1863647796
0.0297320279
-0.0142080758
-0.0057691562
-0.0474905164
-0.0107930502
0.0188177959
0.0682687915
0.0479712848
-0.0047380333
0.0336585554
-0.0544513412
0.1960319001
0.0036992818
-0.1469690444
0.0739276449
0.0243657677
-0.0500862295
0.1846752046
-0.0547330761
0.2467091941
0.1406678524
0.0071769855
-0.1382184439
-0.0389835435
0.0403741699
-0.0388832433
0.0721114694
-0.1362744136
-0.0667391509
-0.0183968927
-0.0035272589
0.09182744
0.0893242785
0.0946659712
0.1134210364
0.052575716
-0.0164355901
-0.0923734077
0.0072152791
0.0781574504
0.0592623079
-0.1072174151
0.1141736113
0.056815309
-0.0942943964
0.0740912361
0.1598245579
0.1804423199
-0.0268128051
-0.0978782239
0.2321238311
0.0275446511
-0.111721655
0.0736396762
0.0386622752
0.0928729928
-0.2395616582
0.1150090356
0.0119466141
-0.1753536339
-0.0910454624
0.0223542374
0.0394451948
0.2291165038
-0.1321007975
-0.1832719077
0.0469918416
-0.1317117278
-0.2325828644
-0.0286609006
-0.0953332375
0.0277236295
0.0128770196
0.1027832644
-0.0073298375
0.1263039803
-0.0611011931
0.0905389794
-0.0079184368
0.0178992569
-0.0046819084
0.1164281699
-0.0604256234
-0.1585503572
-0.1959971317
-0.1686761051
-0.0625984483
-0.0721628685
0.0803404961
-0.2660924588
-0.0687340213
-0.0285459278
-0.0638912899
0.0554757488
-0.028499428
0.0604745016
-0.1199936297
-0.0180098985
-0.0128947248
0.1293328976
-0.1788484836
-0.2016904615
0.0176843379
0.1903182521
0.16950522
0.0707201979
-0.0387022595
-0.0734947707
-0.1740145584
-0.056563823
0.0533537476
-0.1132531007
0.0296373728
-0.075975134
0.1512982445
0.1297116549
-0.1572887613
-0.055666887
0.1654968198
0.0444608749
0.008719692
0.0322801358
-0.047134664
-0.0109763922
0.0991056277
-0.0455792721
0.0275358679
-0.0321345063
-0.0387465366
-0.0373029746
-0.0540606162
-0.247270279
0.1521445158
0.0820050073
0.0748947536
-0.061701998
0.1330663203
-0.013037326
0.0657395175
0.06890857
0.0488462324
-0.1006515554
-0.0060544639
-0.0240522618
0.0404150624
0.206071259
-0.1192063861
-0.1020414725
-0.0551421392
0.0521373114
-0.2723125127
-0.0272782444
0.0707007499
0.1628975233
-0.1006985087
0.0542440346
0.14210945
0.1665897492
0.0923860661
0.1089682149
-0.1751173374
0.1770569667
-0.1601169258
-0.1380506655
-0.1168704427
-0.1127600576
0.1441937876
-0.0536047285
-0.0180876741
0.0578583068
-0.0023100976
0.035836053
-0.1853529296
0.0451781734
-0.1170283649
0.1715747425
-0.077556484
0.3089463237
-0.0869201927
-0.1326998189
0.1191882647
-0.1213440332
0.2404784027
0.0346823661
0.1393066813
-0.1204146926
-0.0296300596
-0.0083309131
0.1140315196
-0.0439731505
-0.0178743272
0.1788677526
0.0488113012
-0.1084792765
0.1119404709
-0.0112603983
0.0423311275
0.0180877521
-0.0135180748
-0.02860818
-0.0467569333
0.0695257575
-0.1645140082
-0.2138595755
0.1458421573
-0.1025551831
-0.0623088782
-0.0865935252
0.0682663107
0.0236831807
-0.1700744027
0.1117060904
-0.2431399193
-0.0177074544
-0.0609608511
-0.0600169847
0.0450225167
0.0685217571
0.0378366625
-0.0352059177
0.0922791911
0.0668327274
0.0114047132
0.0935098001
0.1630940467
-0.0261498533
-0.1226171235
-0.0242643601
0.1599959039
-0.0093469678
-0.2011584181
-0.0573609654
-0.0652534566
0.1410731933
0.1115705728
-0.1513036884
-0.1195256372
0.0538270833
-0.0072931924
-0.1038712988
-0.0755099924
0.1255266506
0.1068843719
0.166670096
0.0964560081
0.0886649529
-0.1183055241
-0.076847381
-0.0860147812
0.1095693007
-0.2492794634
-0.1348800806
-0.089831169
0.0477526902
-0.0147180008
-0.221313275
-0.022182297
0.0180179893
0.0093861255
0.0375076134
0.1120164716
-0.1269251611
0.036730294
0.0017827887
-0.0826607809
-0.0674099118
0.0640585568
-0.0071655806
0.0622534898
0.0870699945
0.1715978246
-0.0940633607
-0.0581427877
0.0450850673
0.0282801563
0.0076245615
0.0317731212
-0.0419471243
0.1025706051
-0.0595607698
-0.2148962398
-0.0303218772
0.0892127342
0.0195422979
0.0195463317
-0.025550755
0.0030368403
-0.0315697811
-0.0356206448
-0.105040957
0.1514093575
0.0222916412
0.1005484993
-0.0961973545
-0.1545994466
-0.1786322158
0.007732482
0.0298600448
-0.0731819581
0.0638580557
0.0108569181
0.1319487401
-0.0773905612
0.0438318562
-0.1155646571
0.1303371088
-0.0785605043
-0.013460797
0.0924403
0.0142917456
0.0832395528
-0.062788925
-0.0219606645
0.0757308222
0.01152174
-0.0075492366
0.095145645
-0.260036211
-0.1358754445
0.031177624
0.0929314585
0.0168963972
0.1169472839
0.1591003887
0.1018743528
-0.070588485
-0.0816938827
-0.145878574
-0.1808499357
0.1917243342
-0.2800928465
0.0205391896
0.0735400875
-0.0747011103
-0.2918248052
-0.0691389239
0.0813298131
0.1843297815
0.0305301281
-0.0783454009
-0.0102635115
-0.0633559547
-0.0428774929
-0.0378122056
0.0594794761
-0.0801514965
-0.2306967957
-0.0508394033
0.0873363424
-0.1142193334
-0.0699997996
-0.0649936633
0.0137036296
0.0886220112
-0.0764768568
-0.0548759749
-0.0086214285
0.1216361714
0.0205951975
-0.0074935923
0.1788103339
-0.0900020628
0.0657041862
0.0018499031
0.0194251861
0.0128291239
0.0492081826
0.0590561533
0.0272090893
-0.0447922783
-0.0056344482
-0.0555686791
0.026015425
0.0500527312
-0.1366123211
-0.0103937124
-0.0983665997
0.1651382921
0.0616450218
-0.0162354095
0.0408364733
-0.0080235638
-0.0122146705
-0.0176680527
0.0941332273
0.154634707
-0.1910351397
-0.1007653995
-0.1048699909
0.0361034673
0.0542072092
0.0416090374
-0.0106753727
-0.0768953854
0.1427710311
0.0452157266
-0.0474015188
0.0212163217
-0.0434404246
-0.2424193932
0.0409242896
0.1219058434
0.087529408
0.1355702903
-0.0755802147
-0.1186911615
-0.1771998798
-0.01406671
-0.1536827424
0.034581442
-0.1247197314
0.0513246515
0.0187755506
0.0180936586
-0.1092015672
-0.0286376011
0.0541362568
0.0258351185
-0.1020640419
-0.0681326493
0.1207258829
-0.0596567241
-0.0562790903
-0.0942714143
0.1037377087
0.1512523872
-0.0505965986
-0.009571394
-0.0617838085
-0.0318411254
-0.0680184298
0.0228493456
-0.1195129273
-0.123610992
-0.2188955677
-0.0006501329
-0.0019471694
-0.1156578602
-0.006053342
0.0027863736
0.0378517719
0.0314113681
0.1251486627
0.0232379017
0.051986991
0.2016907855
0.0378687193
0.0128002305
-0.0163096181
-0.1601357726
0.0408976336
-0.0573584592
0.246622015
0.0073210062
-0.0347249869
-0.1587206884
-0.0256311015
0.0175339947
-0.077759806
-0.0710936373
0.2312186467
-0.2125669852
0.0353595112
-0.0677481495
0.133109536
-0.1057019025
-0.0402538149
0.0171225829
0.1658512453
0.0798440457
-0.0767841179
-0.0218048505
0.014783044
-0.0233357897
0.0083689317
-0.0228390927
-0.066437141
-0.0294973193
0.1656610013
-0.046519275
0.0136742696
-0.0170894248
-0.0523115281
0.0945677786
-0.0526392377
-0.0882547783
-0.0576966814
0.0054560302
-0.1918981122
-0.1587392929
-0.058005592
-0.1143215538
-0.0549670876
-0.0289900196
0.0580790337
-0.1065584032
0.0527678434
-0.041914928
0.0198403792
-0.063228836
0.0500577709
-0.0473485441
0.0056841893
0.1488517573
-0.0744608476
0.0084104792
-0.0054879572
0.1390796302
-0.0289959465
-0.0306631826
0.0710445336
0.0255207868
-0.0416005387
-0.107101725
0.0853268226
-0.0778283639
0.0254881944
-0.1087251716
0.0444870461
-0.0975599334
-0.1562374961
-0.1337935367
0.0181571741
0.0825204879
0.1431887925
0.0695627473
0.1687559519
0.0003813935
0.1216687092
-0.1072467489
-0.0334058574
0.0414493831
-0.0077328435
0.1291031315
0.0354920565
-0.0831838999
-0.0471790128
-0.0093736727
-0.1061556506
0.0274724616
-0.0165923616
0.0051958367
0.0715798834
0.0994682137
-0.2112486672
-0.0467201199
0.0911703132
-0.1380829016
-0.0319623481
-0.01298524
-0.069674438
-0.0720758455
-0.0129005929
0.0280108909
-0.0388305721
-0.1477402396
-0.0550202522
-0.1794685439
-0.0441522673
-0.1435846415
0.0269167232
-0.0533514669
-0.0222519231
0.205145584
-0.0987042461
0.0418143373
0.066511683
0.1299204415
0.0370689817
-0.0525663217
-0.078170627
-0.0827848411
-0.1619720494
0.0781875775
0.1905032891
-0.0691078404
0.0497141146
0.1377083145
0.0356243103
-0.053662678
-0.0498219945
0.0949583466
-0.2114257688
-0.0187088112
0.0819267471
0.0259986452
0.0377308879
-0.0127793313
-0.0127061088
-0.080869564
-0.1532106371
0.046879814
0.0333608072
-0.058484906
-0.0868992347
0.0211614487
-0.0038852701
-0.040524188
0.0368732557
0.0057339142
-0.1156161731
0.1046090797
0.153078441
0.0471325759
-0.0024065014
-0.072442912
0.0433268587
0.2250798933
-0.1138631338
0.2383245791
0.0081319654
0.0395577977
0.007026817
0.0752518181
-0.0198846261
0.0519479383
0.0239792165
0.0425128744
0.0059532816
0.0861993317
-0.0202275916
0.0472067792
0.0330673624
0.2266730361
-0.06011253
-0.0016520544
0.0795090014
-0.0429841387
-0.0874548804
0.0595840404
-0.1894386815
-0.0200411181
-0.0075412268
0.006944121
-0.0948120669
0.084115221
-0.0843735578
-0.0985629289
-0.1022826286
-0.1351605097
0.1259016533
-0.2011182818
-0.0640077479
0.1246889099
0.2432976425
-0.0511828641
-0.0606642463
0.1325055242
-0.0581532649
-0.1269031376
0.001066447
-0.0650191297
0.0034279685
-0.1595538278
-0.0482101481
0.1012909342
0.0779630822
-0.0048607506
-0.1034787963
-0.1041214968
0.035851561
0.0258397408
-0.0374642746
-0.008085215
0.0477200782
-0.0458020814
-0.2243660007
0.1330916476
-0.015966553
0.1300243606
0.0600170177
-0.0244041905
0.0231440287
-0.0065941919
0.1972526858
-0.0434183504
0.1723736565
0.039729466
0.0657006169
0.0496523962
0.085046354
-0.0188940586
0.060712199
0.0501749905
0.0716191578
0.1482340184
-0.1931671458
-0.0982810315
0.0253357067
-0.0980259212
0.0045149127
-0.1612171129
0.0706773521
-0.0187146575
-0.0371092954
-0.0916989881
-0.0905210644
-0.2101542781
0.0620091568
0.107365406
0.0380611799
-0.1559575295
0.0848529432
-0.1661180495
0.0125571956
-0.0799732539
-0.1153191481
0.083075896
-0.023318091
-0.0229261314
-0.0738461732
-0.1249451855
-0.1134858946
-0.0290170364
-0.1000176597
0.1476365047
-0.0808028457
-0.0155363029
0.1864549906
0.0526407653
-0.284483852
-0.0055472054
0.046454183
-0.0403707602
0.0480476558
-0.0826649256
0.1427264357
0.0693466154
-0.0539726816
-0.1061747193
-0.0655800886
0.0644104966
-0.1292527734
-0.0537956189
-0.1470333375
0.00602257
-0.0449693522
0.0757775477
-0.183084861
0.102921516
0.0087583354
-0.068908767
0.0290231107
-0.0048406894
0.110767709
0.0166230025
-0.0741113319
-0.1009666446
0.0081547794
-0.1861132794
-0.0061817123
0.1030613232
0.1071350422
0.0085464428
0.0951037787
-0.0525366114
0.059506577
-0.0307204637
-0.0130486148
-0.1352126212
0.0477515733
0.3320881747
-0.1036525197
-0.041220091
0.0329154128
0.0243842319
0.038069213
0.1356516848
-0.0853442522
-0.1492156254
0.0486592879
0.1123610764
-0.0635877153
-0.1516622622
0.047122624
0.237536062
0.1224270945
-0.0562662962
0.0986062107
-0.0552014119
-0.1743441996
0.0866911514
-0.0511773847
-0.0526136583
0.0248127888
-0.0897635448
-0.0243662141
-0.1415758114
0.0242813073
0.1082326503
-0.1876227601
0.0522262592
-0.0977713846
0.0383179348
0.0754606389
0.0467909062
0.0850214885
0.0115641843
0.1413699977
0.1481890873
-0.1423648744
-0.1106539236
0.1408052115
-0.0238766257
-0.0795535209
-0.1408594299
0.1154746401
-0.1447834151
-0.0013799804
0.1948994544
-0.0970616072
0.0477039891
-0.1166155269
0.0370100638
0.1158152253
-0.0336412013
0.047911844
-0.0289276994
-0.1023503746
0.0291380431
0.0712345124
-0.0401965003
0.1403385394
0.1876836612
0.0199197136
-0.0912708421
-0.04201671
0.0513323154
0.0363176056
0.1302346712
0.103844289
0.1097896433
-0.0497972623
-0.108268193
-0.0083921924
0.08123632
0.0296552101
0.1174369039
0.2185617715
-0.0139034595
-0.0830217208
-0.2377120332
-0.0909398691
-0.0801706238
0.1912115867
-0.0590796424
0.0118615395
-0.1170917937
-0.044695964
-0.0173873206
-0.1524929088
0.0006120546
0.1125738388
-0.1407875587
0.0926032708
0.0766373321
-0.1490277402
-0.0805105389
-0.1744255551
0.0017939004
-0.0581637166
-0.0642384065
0.0720108783
0.0481086259
-0.1419957688
0.2096816296
-0.0320014769
-0.0021543842
-0.0371004035
-0.0274403767
-0.0542665137
-0.2008460022
-0.0161862896
-0.0721649151
0.0855568518
0.2288910084
-0.0935583978
0.0132134093
0.1603505233
0.0715986516
-0.1007117762
0.0875157722
-0.1270383414
-0.0718426997
0.067009222
0.1502811433
0.034391306
0.1735032391
-0.0035922402
-0.0112995613
-0.1226753073
-0.0567174781
-0.1786364145
-0.0961623522
-0.0509992999
0.1522970329
-0.136179564
-0.0675381485
-0.0684584827
-0.1008778137
-0.1367261536
0.0631089516
-0.0854907571
0.0525480633
0.0256274456
-0.1733661042
0.1045328279
-0.0270442742
-0.0904805521
0.0087329229
-0.2922717673
-0.1989262723
0.0515267235
-0.1047333964
-0.0315439492
0.0600666015
0.0929286324
0.1102003139
-0.0268879323
0.0324833012
0.094385399
-0.1336047796
0.0184387817
0.0954169966
-0.1297611152
-0.0216827285
-0.0333401896
-0.1333139259
-0.0901700352
-0.1401142639
-0.0310993261
-0.0730430974
0.0132241038
0.1757826352
0.1109593158
0.0380259469
-0.0239013768
-0.1028746697
0.0218344399
-0.121420805
-0.1734119753
-0.0087760351
0.0050261292
0.0190236661
-0.0396837654
0.0119842025
-0.0562680339
-0.0050154883
-0.0355669749
-0.0518315641
0.0579299542
0.0311678971
0.1250921742
0.1125978845
0.0100069233
-0.0394623031
0.2240358114
0.0911344574
0.1108374494
-0.0257372634
0.0045123481
0.1132207823
-0.117825109
-0.2162111569
0.0383455773
-0.0187150107
-0.0046403703
0.0117606586
0.102326624
-0.0213968613
0.0378109166
-0.1143198772
-0.0005635699
-0.04051181
0.0430651877
0.0239634699
0.1214341686
0.0081058755
0.2359995344
0.0956804321
0.0689920241
-0.0408833247
0.0561705405
0.0148987459
-0.044038501
0.0931745033
0.1289115235
-0.0004223802
0.1659736033
-0.2056312803
0.0052828141
-0.0866826737
0.0221599378
0.0394509695
0.0250514775
-0.1376826086
0.1016056547
0.0775924749
0.0190347019
0.0183329004
0.0862446253
0.051523077
-0.2071286776
0.1676860201
0.1292658955
0.0754369164
0.0648755123
0.1285505835
0.0787110519
0.0013029706
0.0792438153
0.1335937425
-0.006868013
-0.0817819041
-0.2151165987
0.1278554912
0.0413592367
0.0566903569
-0.0219263413
-0.1617164628
-0.012200898
0.1106778912
0.0479971827
-0.0108635164
0.0112370429
0.1543282063
-0.0211096153
0.036394747
0.0511799471
-0.0219519298
0.3270298774
0.1570442171
0.131576114
0.0384815528
0.0327367235
0.0179000588
-0.1141396467
-0.0147943749
