weight,weight_2
-0.0424026423,-0.1272079269
-0.0061872486,-0.0185617458
-0.0630072998,-0.1890218994
-0.2220269388,-0.6660808164
0.0423388211,0.1270164633
0.0174870707,0.0524612121
0.0734475484,0.2203426452
0.043328049,0.129984147
0.0964683137,0.2894049411
0.0667782795,0.2003348385
0.0342222795,0.1026668385
0.0078736159,0.0236208477
0.0040817691,0.0122453073
0.1589043563,0.4767130689
0.0146943275,0.0440829825
0.1774758379,0.5324275137
-0.0299927803,-0.0899783409
0.0687965976,0.2063897928
0.0101959352,0.0305878056
0.012505113,0.037515339
-0.0380564474,-0.1141693422
0.0102486526,0.0307459578
-0.0867251854,-0.2601755562
-0.0433445453,-0.1300336359
-0.0601890103,-0.1805670309
-0.0987744997,-0.2963234991
0.0581374764,0.1744124292
-0.1697484073,-0.5092452219
0.0703245849,0.2109737547
0.0726060093,0.2178180279
0.1406595848,0.4219787544
-0.0687091379,-0.2061274137
-0.0896497102,-0.2689491306
-0.1451780673,-0.4355342019
0.0062041531,0.0186124593
0.0173886635,0.0521659905
-0.031568767,-0.094706301
0.1502663386,0.4507990158
-0.0210684903,-0.0632054709
-0.1315931847,-0.3947795541
-0.088717761,-0.266153283
-0.087538857,-0.262616571
0.0522295859,0.1566887577
0.1306440771,0.3919322313
0.2504880455,0.7514641365
-0.0399750038,-0.1199250114
-0.0161112841,-0.0483338523
0.0179312394,0.0537937182
-0.0590940969,-0.1772822907
0.0245678772,0.0737036316
-0.2418554967,-0.7255664901
-0.2060480393,-0.6181441179
-0.1387887593,-0.4163662779
-0.0071158008,-0.0213474024
0.0325926767,0.0977780301
-0.0431383226,-0.1294149678
0.089372334,0.268117002
0.0864690138,0.2594070414
-0.0428507394,-0.1285522182
0.0686922469,0.2060767407
-0.1051060949,-0.3153182847
-0.2046198483,-0.6138595449
0.036020255,0.108060765
0.0247589256,0.0742767768
-0.0515521514,-0.1546564542
0.0565584432,0.1696753296
0.0589218784,0.1767656352
0.030267665,0.090802995
0.1686741616,0.5060224848
-0.0668738404,-0.2006215212
0.031544971,0.094634913
-0.0985715018,-0.2957145054
0.1112894853,0.3338684559
-0.1119576006,-0.3358728018
-0.0181375006,-0.0544125018
0.08268359,0.24805077
-0.0033115086,-0.0099345258
-0.0316325281,-0.0948975843
0.0761198377,0.2283595131
0.0161779106,0.0485337318
0.1736642603,0.5209927809
-0.0154610304,-0.0463830912
-0.124823612,-0.374470836
0.0455315799,0.1365947397
-0.0095433805,-0.0286301415
-0.1158103765,-0.3474311295
0.0249095081,0.0747285243
0.0817420753,0.2452262259
0.0523375633,0.1570126899
-0.0352772409,-0.1058317227
0.0875681044,0.2627043132
-0.0210387623,-0.0631162869
-0.107136082,-0.321408246
-0.0751727077,-0.2255181231
0.1206883276,0.3620649828
-0.1622295464,-0.4866886392
0.0046397862,0.0139193586
-0.131164478,-0.393493434
-0.0157540639,-0.0472621917
-0.0297445706,-0.0892337118
-0.1945569719,-0.5836709157
-0.0024227742,-0.0072683226
-0.0934818016,-0.2804454048
0.1035913902,0.3107741706
0.0451605282,0.1354815846
0.0138140541,0.0414421623
-0.0701898737,-0.2105696211
0.0098988711,0.0296966133
-0.1496102711,-0.4488308133
0.1561749327,0.4685247981
-0.0355612383,-0.1066837149
0.0985481425,0.2956444275
-0.0192800395,-0.0578401185
0.004786208,0.014358624
0.0585377213,0.1756131639
-0.1576424649,-0.4729273947
-0.0243067546,-0.0729202638
-0.0411737118,-0.1235211354
-0.0483288609,-0.1449865827
0.0425587449,0.1276762347
0.0226871146,0.0680613438
-0.0309075042,-0.0927225126
0.014263413,0.042790239
-0.1125057619,-0.3375172857
-0.1143911641,-0.3431734923
-0.0136463574,-0.0409390722
-0.2716185341,-0.8148556023
-0.0370456492,-0.1111369476
0.0784788804,0.2354366412
0.083892312,0.251676936
0.0290627136,0.0871881408
-0.0660583876,-0.1981751628
-0.0510758277,-0.1532274831
0.0022586496,0.0067759488
0.1531528235,0.4594584705
0.0091128774,0.0273386322
-0.0443131983,-0.1329395949
0.2146474558,0.6439423674
-0.0795736111,-0.2387208333
-0.1148778962,-0.3446336886
0.045309084,0.135927252
0.0447381631,0.1342144893
-0.2873617452,-0.8620852356
0.0229927286,0.0689781858
0.0103669744,0.0311009232
0.1127413948,0.3382241844
0.1790202895,0.5370608685
-0.0539718063,-0.1619154189
0.0400272092,0.1200816276
0.2077719475,0.6233158425
-0.0686325542,-0.2058976626
-0.0301495906,-0.0904487718
0.069398477,0.208195431
0.0676112342,0.2028337026
-0.0326377055,-0.0979131165
0.1085202019,0.3255606057
0.0373496653,0.1120489959
-0.1318062454,-0.3954187362
-0.1340814806,-0.4022444418
-0.0769830877,-0.2309492631
0.0665167569,0.1995502707
-0.0634020603,-0.1902061809
-0.1453204484,-0.4359613452
-0.1932935065,-0.5798805195
-0.0779229347,-0.2337688041
-0.0087659436,-0.0262978308
-0.0862104549,-0.2586313647
-0.0522501963,-0.1567505889
0.1289419706,0.3868259118
0.1300211169,0.3900633507
-0.0666000174,-0.1998000522
0.1173760665,0.3521281995
-0.0499603668,-0.1498811004
-0.0384931549,-0.1154794647
0.0179387043,0.0538161129
-0.0829233403,-0.2487700209
-0.1669696445,-0.5009089335
-0.0882132386,-0.2646397158
0.1542259451,0.4626778353
-0.0629968928,-0.1889906784
0.0335339284,0.1006017852
-0.0470629969,-0.1411889907
-0.0913048271,-0.2739144813
0.1620108466,0.4860325398
0.0711759052,0.2135277156
-0.0506514763,-0.1519544289
-0.0274632573,-0.0823897719
-0.1178574122,-0.3535722366
0.0679986708,0.2039960124
0.0743592051,0.2230776153
-0.1478273101,-0.4434819303
-0.0354288846,-0.1062866538
0.0342126502,0.1026379506
-0.1025744854,-0.3077234562
-0.1071005001,-0.3213015003
-0.0903642969,-0.2710928907
-0.1262175333,-0.3786525999
0.0573947361,0.1721842083
-0.0961608287,-0.2884824861
-0.0305862823,-0.0917588469
-0.2019086676,-0.6057260028
-0.0550355146,-0.1651065438
0.0660038769,0.1980116307
0.076847386,0.230542158
-0.0995084589,-0.2985253767
-0.0624512208,-0.1873536624
0.0540708283,0.1622124849
0.0715051135,0.2145153405
0.0811670142,0.2435010426
-0.0872919197,-0.2618757591
0.0344580082,0.1033740246
-0.1892736369,-0.5678209107
0.0800056131,0.2400168393
0.0994128459,0.2982385377
0.1917310433,0.5751931299
0.0582617008,0.1747851024
0.0777283561,0.2331850683
-0.1529310848,-0.4587932544
0.0824251866,0.2472755598
0.1213827043,0.3641481129
0.1731450789,0.5194352367
0.0831906837,0.2495720511
-0.0263378417,-0.0790135251
0.0555117954,0.1665353862
0.0754762286,0.2264286858
-0.0729389054,-0.2188167162
0.0567693736,0.1703081208
0.1310346503,0.3931039509
0.1198016358,0.3594049074
-0.0163366853,-0.0490100559
0.0316018712,0.0948056136
0.0316685264,0.0950055792
-0.0739673064,-0.2219019192
0.1238977586,0.3716932758
-0.0259881919,-0.0779645757
0.0338411734,0.1015235202
-0.0050868195,-0.0152604585
-0.011832984,-0.035498952
-0.1899431193,-0.5698293579
0.0350015774,0.1050047322
0.0541241518,0.1623724554
-0.0569536686,-0.1708610058
0.0291634351,0.0874903053
0.0840618935,0.2521856805
-0.1006261989,-0.3018785967
0.0157839867,0.0473519601
-0.088602868,-0.265808604
0.0001472525,0.0004417575
-0.0654053973,-0.1962161919
0.0376934199,0.1130802597
-0.060242686,-0.180728058
-0.0256947982,-0.0770843946
0.0046218928,0.0138656784
-0.0305393274,-0.0916179822
-0.0825033713,-0.2475101139
0.0303836064,0.0911508192
0.0915746243,0.2747238729
0.1220333116,0.3660999348
0.0806603725,0.2419811175
0.1228865512,0.3686596536
0.0118787265,0.0356361795
0.0994983311,0.2984949933
-0.0848427115,-0.2545281345
0.1157071591,0.3471214773
-0.0633809864,-0.1901429592
-0.1583919785,-0.4751759355
-0.0695325365,-0.2085976095
-0.002399229,-0.007197687
0.0738925549,0.2216776647
0.047382285,0.142146855
0.1052959079,0.3158877237
0.0638012347,0.1914037041
-0.1540878551,-0.4622635653
-0.112667082,-0.338001246
0.1521231733,0.4563695199
-0.1447093104,-0.4341279312
0.0886001376,0.2658004128
-0.0900323291,-0.2700969873
0.2138698833,0.6416096499
0.019618603,0.058855809
0.1659327639,0.4977982917
-0.0110969093,-0.0332907279
0.0258009316,0.0774027948
0.029713611,0.089140833
-0.0968053236,-0.2904159708
-0.0910236236,-0.2730708708
-0.0794232173,-0.2382696519
-0.0476355511,-0.1429066533
0.0202912593,0.0608737779
0.2310020041,0.6930060123
0.066951559,0.200854677
-0.0455295589,-0.1365886767
0.0390365831,0.1171097493
0.0115957026,0.0347871078
-0.0027007971,-0.0081023913
0.0240046564,0.0720139692
-0.0489032967,-0.1467098901
0.0966297329,0.2898891987
0.0150676278,0.0452028834
-0.035319333,-0.105957999
-0.1102280481,-0.3306841443
0.0092745936,0.0278237808
-0.0473529352,-0.1420588056
0.0070514325,0.0211542975
0.1721664816,0.5164994448
0.0005975105,0.0017925315
0.1105990247,0.3317970741
-0.0166108509,-0.0498325527
-0.1844524667,-0.5533574001
-0.2266855341,-0.6800566023
-0.051499726,-0.154499178
-0.1232279264,-0.3696837792
-0.1024566661,-0.3073699983
0.0875679588,0.2627038764
0.1086096218,0.3258288654
-0.0415649683,-0.1246949049
0.0470906366,0.1412719098
0.1492430678,0.4477292034
0.0708400805,0.2125202415
0.0122533336,0.0367600008
0.1206517092,0.3619551276
0.1475421215,0.4426263645
0.1126798884,0.3380396652
-0.1103993858,-0.3311981574
0.079538592,0.238615776
-0.1224049855,-0.3672149565
-0.0225702212,-0.0677106636
0.1308603431,0.3925810293
-0.0748514486,-0.2245543458
0.1179910435,0.3539731305
0.0370469539,0.1111408617
-0.0305558329,-0.0916674987
-0.0536353612,-0.1609060836
0.0525563657,0.1576690971
-0.0471885197,-0.1415655591
-0.0433573451,-0.1300720353
0.0279050052,0.0837150156
0.0386514666,0.1159543998
-0.2367324082,-0.7101972246
0.1402875073,0.4208625219
-0.1762990176,-0.5288970528
0.0223410588,0.0670231764
-0.141707948,-0.425123844
0.1030285256,0.3090855768
-0.1360360723,-0.4081082169
0.0865679126,0.2597037378
-0.0473262967,-0.1419788901
0.041406289,0.124218867
0.0669379692,0.2008139076
0.0022146982,0.0066440946
0.0909634808,0.2728904424
0.1139923647,0.3419770941
-0.0397309416,-0.1191928248
0.1270414937,0.3811244811
0.1144568291,0.3433704873
-0.165541099,-0.496623297
0.0254111321,0.0762333963
-0.1902829643,-0.5708488929
-0.0133558011,-0.0400674033
0.0600170184,0.1800510552
0.0133434422,0.0400303266
-0.1722381092,-0.5167143276
-0.0555212831,-0.1665638493
0.093590715,0.280772145
-0.021949598,-0.065848794
-0.0474837712,-0.1424513136
-0.0852802534,-0.2558407602
-0.0634304967,-0.1902914901
-0.0768126226,-0.2304378678
0.1139964171,0.3419892513
-0.1484404314,-0.4453212942
-0.0572472925,-0.1717418775
-0.117995174,-0.353985522
0.0682509456,0.2047528368
-0.1232057408,-0.3696172224
-0.1940445231,-0.5821335693
0.0009274664,0.0027823992
-0.0301347282,-0.0904041846
-0.1364794097,-0.4094382291
0.0180367249,0.0541101747
0.1020974214,0.3062922642
0.073107098,0.219321294
-0.2263594204,-0.6790782612
-0.0460710753,-0.1382132259
0.0344963521,0.1034890563
-0.0132406816,-0.0397220448
-0.0886206044,-0.2658618132
0.0350859196,0.1052577588
0.024027925,0.072083775
0.1195079209,0.3585237627
0.0507364062,0.1522092186
-0.1178878276,-0.3536634828
0.1733088302,0.5199264906
0.1191248547,0.3573745641
-0.1020980344,-0.3062941032
0.1389017941,0.4167053823
0.0029759202,0.0089277606
-0.0811864312,-0.2435592936
0.0182113489,0.0546340467
-0.0228287176,-0.0684861528
-0.0583578893,-0.1750736679
-0.0219087658,-0.0657262974
-0.0310648898,-0.0931946694
0.0411923437,0.1235770311
0.1871965727,0.5615897181
-0.1271779898,-0.3815339694
0.0539383437,0.1618150311
0.0736411503,0.2209234509
-0.0412291019,-0.1236873057
-0.0142702106,-0.0428106318
0.1316882022,0.3950646066
0.0186499013,0.0559497039
0.0673941749,0.2021825247
0.0640537908,0.1921613724
0.0248140421,0.0744421263
-0.0082673287,-0.0248019861
0.1810189228,0.5430567684
-0.0196392554,-0.0589177662
0.024479577,0.073438731
-0.0306273743,-0.0918821229
0.1015217419,0.3045652257
0.1318756302,0.3956268906
-0.0326560229,-0.0979680687
0.0237805995,0.0713417985
0.0882801802,0.2648405406
-0.1842356193,-0.5527068579
-0.1589978833,-0.4769936499
0.0604850553,0.1814551659
0.103565002,0.310695006
0.1082388066,0.3247164198
0.1882066912,0.5646200736
-0.1525931617,-0.4577794851
-0.1213736974,-0.3641210922
-0.0685250823,-0.2055752469
0.0899807083,0.2699421249
0.1277979316,0.3833937948
0.0872515495,0.2617546485
0.113967473,0.341902419
0.0430458946,0.1291376838
-0.0194850815,-0.0584552445
-0.0012727329,-0.0038181987
0.0445163592,0.1335490776
-0.0399164762,-0.1197494286
0.0158074425,0.0474223275
-0.2034783872,-0.6104351616
-0.0244764388,-0.0734293164
-0.0079588333,-0.0238764999
-0.03599428,-0.10798284
-0.0560897482,-0.1682692446
-0.1689357245,-0.5068071735
0.0296667207,0.0890001621
-0.0300723489,-0.0902170467
-0.0938819826,-0.2816459478
0.1034326478,0.3102979434
-0.0965452857,-0.2896358571
0.1312543178,0.3937629534
0.0496170015,0.1488510045
0.0420162686,0.1260488058
-0.1117490131,-0.3352470393
0.1819846801,0.5459540403
-0.0327972938,-0.0983918814
-0.0236114059,-0.0708342177
0.1762141353,0.5286424059
0.0994809733,0.2984429199
-0.0097456845,-0.0292370535
-0.0073965987,-0.0221897961
-0.1083938027,-0.3251814081
0.1743926693,0.5231780079
0.0518419091,0.1555257273
-0.1657558671,-0.4972676013
-0.1917713695,-0.5753141085
0.0700951458,0.2102854374
0.00339294,0.01017882
-0.1580223714,-0.4740671142
-0.1975456569,-0.5926369707
0.0439301978,0.1317905934
0.0778936888,0.2336810664
0.1099458391,0.3298375173
0.1138061135,0.3414183405
-0.1572191601,-0.4716574803
-0.0263712145,-0.0791136435
-0.0136257533,-0.0408772599
-0.0385589855,-0.1156769565
0.0468080529,0.1404241587
0.0917924319,0.2753772957
-0.2100520238,-0.6301560714
0.0352105067,0.1056315201
-0.1043549408,-0.3130648224
0.0023557906,0.0070673718
0.1993459407,0.5980378221
0.0836003173,0.2508009519
0.1239475533,0.3718426599
0.076007301,0.228021903
-0.0890575373,-0.2671726119
-0.0917736195,-0.2753208585
-0.0038711172,-0.0116133516
-0.0263716617,-0.0791149851
0.0919036978,0.2757110934
0.14133483,0.42400449
0.0225543625,0.0676630875
0.0428760914,0.1286282742
0.0553363,0.1660089
0.0708063894,0.2124191682
0.2175794788,0.6527384364
0.0892175798,0.2676527394
-0.0373786211,-0.1121358633
-0.0287944568,-0.0863833704
-0.023500545,-0.070501635
-0.1694742252,-0.5084226756
0.069941767,0.209825301
0.0661213884,0.1983641652
-0.0011027656,-0.0033082968
-0.0595738628,-0.1787215884
-0.0681227494,-0.2043682482
0.0514170418,0.1542511254
0.1267798366,0.3803395098
0.0356470818,0.1069412454
-0.1811385081,-0.5434155243
-0.0162201293,-0.0486603879
-0.0269332689,-0.0807998067
0.0965902,0.2897706
0.3588339369,1.0765018107
-0.1292950201,-0.3878850603
-0.0387220858,-0.1161662574
-0.0322083039,-0.0966249117
0.0385837553,0.1157512659
0.0726158139,0.2178474417
-0.0668823221,-0.2006469663
-0.0207940581,-0.0623821743
-0.2638187627,-0.7914562881
-0.0719980517,-0.2159941551
-0.0600060237,-0.1800180711
-0.0041005051,-0.0123015153
-0.0917095679,-0.2751287037
0.1606037806,0.4818113418
0.0767753441,0.2303260323
0.072117578,0.216352734
-0.1739749547,-0.5219248641
0.2219679522,0.6659038566
-0.0328878039,-0.0986634117
0.0639805687,0.1919417061
-0.0668914153,-0.2006742459
-0.0993351236,-0.2980053708
-0.0617305898,-0.1851917694
-0.065627855,-0.196883565
-0.1312515572,-0.3937546716
0.0268364187,0.0805092561
-0.0541184901,-0.1623554703
-0.1217900065,-0.3653700195
-0.0176787202,-0.0530361606
0.115597779,0.346793337
-0.1432466073,-0.4297398219
0.1134660901,0.3403982703
-0.0026665675,-0.0079997025
-0.0794542937,-0.2383628811
0.1645868182,0.4937604546
-0.0493537478,-0.1480612434
0.0039723194,0.0119169582
0.0570025554,0.1710076662
0.0768931795,0.2306795385
-0.0251147321,-0.0753441963
0.0110690709,0.0332072127
0.0572822186,0.1718466558
0.0377521763,0.1132565289
0.0777150525,0.2331451575
-0.0747630549,-0.2242891647
-0.018848348,-0.056545044
-0.0204903449,-0.0614710347
-0.0845389687,-0.2536169061
0.1867504994,0.5602514982
0.030326235,0.090978705
-0.1898858835,-0.5696576505
0.1101886064,0.3305658192
0.1493504681,0.4480514043
0.0628506217,0.1885518651
-0.0782693793,-0.2348081379
-0.1335671867,-0.4007015601
-0.0387777425,-0.1163332275
0.1981692359,0.5945077077
0.0826249491,0.2478748473
-0.0909331635,-0.2727994905
-0.0911500183,-0.2734500549
-0.0259409166,-0.0778227498
0.0824753592,0.2474260776
0.0817918448,0.2453755344
0.0701700419,0.2105101257
0.0841882734,0.2525648202
-0.0065420097,-0.0196260291
0.0744403586,0.2233210758
-0.0992068384,-0.2976205152
-0.0940691838,-0.2822075514
-0.0159000522,-0.0477001566
0.102569246,0.307707738
-0.0174326546,-0.0522979638
-0.0589398812,-0.1768196436
-0.0337140743,-0.1011422229
-0.0114078025,-0.0342234075
0.1188019702,0.3564059106
-0.0116687044,-0.0350061132
0.0998219037,0.2994657111
0.0218170736,0.0654512208
0.0915168427,0.2745505281
0.1024185854,0.3072557562
-0.0690564909,-0.2071694727
-0.1238507553,-0.3715522659
0.0131539236,0.0394617708
-0.1300598173,-0.3901794519
-0.1229714164,-0.3689142492
0.0464772216,0.1394316648
0.0040943019,0.0122829057
0.0636361929,0.1909085787
0.0211298141,0.0633894423
0.2576468055,0.7729404165
0.093080557,0.279241671
-0.0960373446,-0.2881120338
-0.2193385626,-0.6580156878
0.0573657589,0.1720972767
0.0132246184,0.0396738552
0.1200883692,0.3602651076
-0.0507199602,-0.1521598806
0.1060374856,0.3181124568
-0.0461348427,-0.1384045281
-0.0130705726,-0.0392117178
-0.0199884862,-0.0599654586
0.1447252847,0.4341758541
-0.1300420678,-0.3901262034
0.0344135738,0.1032407214
-0.1967456368,-0.5902369104
-0.1073746133,-0.3221238399
0.1293350928,0.3880052784
0.0357788357,0.1073365071
-0.0131801043,-0.0395403129
-0.2023743438,-0.6071230314
-0.082363082,-0.247089246
-0.0248220296,-0.0744660888
0.0667810714,0.2003432142
0.0734860557,0.2204581671
0.0238652527,0.0715957581
-0.1345331889,-0.4035995667
-0.0858567699,-0.2575703097
0.0532076043,0.1596228129
0.129302495,0.387907485
0.1300347996,0.3901043988
0.0435280092,0.1305840276
0.116289286,0.348867858
0.0202478091,0.0607434273
0.0472395268,0.1417185804
0.0040596627,0.0121789881
-0.0356519845,-0.1069559535
-0.1213700545,-0.3641101635
-0.1552240662,-0.4656721986
0.2205670055,0.6617010165
0.0067740369,0.0203221107
0.0925883284,0.2777649852
-0.193247679,-0.579743037
-0.1096557935,-0.3289673805
0.1299672169,0.3899016507
-0.1506763654,-0.4520290962
0.0889036136,0.2667108408
-0.0631561742,-0.1894685226
-0.0480356704,-0.1441070112
-0.2247795798,-0.6743387394
0.1009449672,0.3028349016
-0.0016654786,-0.0049964358
0.0736418621,0.2209255863
-0.0338353405,-0.1015060215
-0.0748342402,-0.2245027206
-0.0638363184,-0.1915089552
0.0395574942,0.1186724826
0.0247115722,0.0741347166
0.0405309749,0.1215929247
-0.1865251842,-0.5595755526
0.0635129795,0.1905389385
0.0611178973,0.1833536919
-0.0379671086,-0.1139013258
-0.134140421,-0.402421263
0.02314289,0.06942867
0.102246891,0.306740673
0.1398697623,0.4196092869
0.2210477767,0.6631433301
-0.1757801047,-0.5273403141
-0.1906145968,-0.5718437904
0.1359738248,0.4079214744
0.0044939212,0.0134817636
-0.0620814268,-0.1862442804
0.1595644603,0.4786933809
0.0345562071,0.1036686213
-0.0183943474,-0.0551830422
0.1237453352,0.3712360056
-0.0116800583,-0.0350401749
-0.1430240653,-0.4290721959
0.0175114174,0.0525342522
0.1298151087,0.3894453261
-0.1110592918,-0.3331778754
0.0575238615,0.1725715845
0.0165265346,0.0495796038
0.0421154701,0.1263464103
-0.0289699934,-0.0869099802
0.0974127645,0.2922382935
-0.0984420066,-0.2953260198
0.0116620717,0.0349862151
0.1362368882,0.4087106646
0.0348577336,0.1045732008
-0.0282873633,-0.0848620899
0.0057323321,0.0171969963
-0.0157728561,-0.0473185683
0.1288737271,0.3866211813
-0.0772373663,-0.2317120989
0.0911030586,0.2733091758
-0.0905515072,-0.2716545216
-0.0739584741,-0.2218754223
-0.0111274828,-0.0333824484
-0.1716283532,-0.5148850596
0.0769739611,0.2309218833
0.0550611074,0.1651833222
0.0056265321,0.0168795963
-0.1456939079,-0.4370817237
0.070903533,0.212710599
0.0281602627,0.0844807881
0.1501262752,0.4503788256
-0.064286673,-0.192860019
0.1359481923,0.4078445769
0.03580413,0.10741239
-0.0672947437,-0.2018842311
0.1908890893,0.5726672679
-0.1185730554,-0.3557191662
-0.0505040018,-0.1515120054
0.052604905,0.157814715
0.1399801329,0.4199403987
0.0504484023,0.1513452069
0.0091488932,0.0274466796
0.0422721369,0.1268164107
0.0902693802,0.2708081406
0.046731454,0.140194362
0.0046669845,0.0140009535
0.1434614867,0.4303844601
-0.0828010143,-0.2484030429
-0.0129503196,-0.0388509588
-0.1044805175,-0.3134415525
-0.0559311899,-0.1677935697
0.0968351691,0.2905055073
-0.1133462773,-0.3400388319
-0.0074164311,-0.0222492933
-0.112123206,-0.336369618
0.0270486898,0.0811460694
0.1998607202,0.5995821606
0.2330069934,0.6990209802
0.0941540253,0.2824620759
0.0037549448,0.0112648344
-0.0449979712,-0.1349939136
0.0657794123,0.1973382369
0.1248279412,0.3744838236
-0.2196218036,-0.6588654108
0.0469213552,0.1407640656
-0.0260110227,-0.0780330681
0.1065013197,0.3195039591
0.1198712857,0.3596138571
0.1385591014,0.4156773042
-0.0664190717,-0.1992572151
-0.0211294952,-0.0633884856
0.0503872035,0.1511616105
-0.0665491651,-0.1996474953
-0.0729546995,-0.2188640985
-0.2432882223,-0.7298646669
0.2290795104,0.6872385312
-0.0828644744,-0.2485934232
0.023212923,0.069638769
-0.0613071297,-0.1839213891
-0.0210421704,-0.0631265112
-0.174464468,-0.523393404
-0.0494164811,-0.1482494433
-0.0054488297,-0.0163464891
0.0159441147,0.0478323441
0.0069221314,0.0207663942
0.134893933,0.404681799
0.0176284408,0.0528853224
0.0086185237,0.0258555711
0.023344181,0.070032543
-0.0611464927,-0.1834394781
-0.1066341514,-0.3199024542
0.1705011422,0.5115034266
-0.0513002693,-0.1539008079
-0.0195857748,-0.0587573244
-0.1220930024,-0.3662790072
0.1110682981,0.3332048943
-0.0270535471,-0.0811606413
-0.1202300692,-0.3606902076
-0.0760634687,-0.2281904061
-0.093600625,-0.280801875
0.0493125647,0.1479376941
-0.14624659,-0.43873977
-0.0490449846,-0.1471349538
0.0074438243,0.0223314729
0.2247186532,0.6741559596
-0.0042605485,-0.0127816455
0.1281109628,0.3843328884
-0.0461158693,-0.1383476079
-0.0099365267,-0.0298095801
0.1015476842,0.3046430526
0.0271281605,0.0813844815
0.0831831555,0.2495494665
0.0610332318,0.1830996954
0.09666207,0.28998621
0.0925384715,0.2776154145
0.1087474161,0.3262422483
-0.0023334049,-0.0070002147
0.049960601,0.149881803
0.0463901266,0.1391703798
-0.0389148047,-0.1167444141
0.058115838,0.174347514
0.1199988712,0.3599966136
-0.1533378452,-0.4600135356
0.060269334,0.180808002
0.0757123509,0.2271370527
0.0250655583,0.0751966749
0.0979105163,0.2937315489
0.0015460597,0.0046381791
-0.0659171386,-0.1977514158
-0.0075396561,-0.0226189683
-0.0128618897,-0.0385856691
-0.1232641486,-0.3697924458
-0.0167807299,-0.0503421897
-0.0640024576,-0.1920073728
-0.2053545786,-0.6160637358
0.0521822805,0.1565468415
0.1508880198,0.4526640594
0.1153300145,0.3459900435
0.1259444157,0.3778332471
0.058602022,0.175806066
-0.0226792564,-0.0680377692
-0.1352942644,-0.4058827932
-0.054199775,-0.162599325
0.1410477485,0.4231432455
-0.1985414862,-0.5956244586
-0.1186444407,-0.3559333221
0.2299731367,0.6899194101
0.1928612304,0.5785836912
0.1399313243,0.4197939729
-0.2141744641,-0.6425233923
-0.0027383671,-0.0082151013
-0.0539838587,-0.1619515761
0.0914996662,0.2744989986
-0.1147360304,-0.3442080912
0.0957514052,0.2872542156
0.0037281042,0.0111843126
0.1712679349,0.5138038047
-0.0163505981,-0.0490517943
-0.0034009498,-0.0102028494
0.0420228035,0.1260684105
-0.0843979886,-0.2531939658
0.0397786906,0.1193360718
0.100129828,0.300389484
0.0139729444,0.0419188332
0.019455672,0.058367016
-0.030409012,-0.091227036
-0.0443179731,-0.1329539193
0.0221859926,0.0665579778
0.0331302596,0.0993907788
-0.0763317394,-0.2289952182
0.1445860318,0.4337580954
-0.3080949355,-0.9242848065
-0.014584682,-0.043754046
0.1863699726,0.5591099178
0.0635131626,0.1905394878
-0.0418288022,-0.1254864066
0.0213978684,0.0641936052
-0.043462983,-0.130388949
-0.1859720964,-0.5579162892
0.1653030154,0.4959090462
-0.0484507423,-0.1453522269
-0.0513976732,-0.1541930196
-0.0175303487,-0.0525910461
0.0442848634,0.1328545902
0.0295562852,0.0886688556
-0.0891766565,-0.2675299695
-0.1811781385,-0.5435344155
0.0777301538,0.2331904614
-0.2068986722,-0.6206960166
0.0277092434,0.0831277302
-0.1230849793,-0.3692549379
-0.0129539296,-0.0388617888
-0.0575758465,-0.1727275395
-0.0795076104,-0.2385228312
0.0078641927,0.0235925781
-0.0992015209,-0.2976045627
0.095444039,0.286332117
-0.1736409884,-0.5209229652
0.0697915418,0.2093746254
-0.0875664373,-0.2626993119
-0.0561055562,-0.1683166686
-0.0184002527,-0.0552007581
0.0112697474,0.0338092422
0.0018185656,0.0054556968
-0.1504218283,-0.4512654849
0.033082868,0.099248604
-0.0211770524,-0.0635311572
-0.0153666767,-0.0461000301
-0.0254674217,-0.0764022651
0.2425340844,0.7276022532
0.0329775251,0.0989325753
-0.158636262,-0.475908786
0.0757126696,0.2271380088
-0.0886443579,-0.2659330737
-0.0822252138,-0.2466756414
0.0905669445,0.2717008335
-0.0399477159,-0.1198431477
-0.0555671366,-0.1667014098
0.0058329799,0.0174989397
-0.0365652107,-0.1096956321
-0.056600064,-0.169800192
0.025667332,0.077001996
0.080055361,0.240166083
0.0779351737,0.2338055211
0.0641930355,0.1925791065
0.0674521942,0.2023565826
-0.0124846424,-0.0374539272
0.101011245,0.303033735
-0.0225464827,-0.0676394481
-0.2346985783,-0.7040957349
0.0234000045,0.0702000135
0.1155513639,0.3466540917
-0.0937256445,-0.2811769335
-0.0771468907,-0.2314406721
-0.113833604,-0.341500812
0.028317151,0.084951453
-0.0643997931,-0.1931993793
0.0029397081,0.0088191243
-0.0385166604,-0.1155499812
0.22794569,0.68383707
0.0720310365,0.2160931095
-0.1469005048,-0.4407015144
0.0339137539,0.1017412617
-0.0166103758,-0.0498311274
0.1020767531,0.3062302593
0.1530999566,0.4592998698
0.0146774741,0.0440324223
0.1204895252,0.3614685756
-0.0870335788,-0.2611007364
-0.0972525584,-0.2917576752
-0.0828068243,-0.2484204729
0.1762825591,0.5288476773
0.0395659669,0.1186979007
-0.002078733,-0.006236199
-0.1212191775,-0.3636575325
-0.0735597386,-0.2206792158
0.1291725641,0.3875176923
0.0279525046,0.0838575138
0.0927023827,0.2781071481
-0.0682324458,-0.2046973374
0.0177098553,0.0531295659
-0.1261692936,-0.3785078808
0.0260985432,0.0782956296
-0.0610870232,-0.1832610696
-0.0682322651,-0.2046967953
0.0018917096,0.0056751288
0.002850878,0.008552634
0.0999105506,0.2997316518
0.0958649443,0.2875948329
-0.2160033251,-0.6480099753
-0.0293589059,-0.0880767177
-0.1462249678,-0.4386749034
-0.0462634623,-0.1387903869
0.0327097127,0.0981291381
0.1687943398,0.5063830194
-0.1441581263,-0.4324743789
-0.1386825074,-0.4160475222
-0.0966242191,-0.2898726573
-0.1800386333,-0.5401158999
0.0322981282,0.0968943846
-0.0176805316,-0.0530415948
-0.1721763802,-0.5165291406
0.0198465248,0.0595395744
-0.1033517648,-0.3100552944
0.0835540273,0.2506620819
0.0572272032,0.1716816096
0.0189035217,0.0567105651
-0.1043901066,-0.3131703198
-0.0899466283,-0.2698398849
-0.1765444995,-0.5296334985
0.099758825,0.299276475
0.1164871351,0.3494614053
-0.0625941987,-0.1877825961
-0.0172513908,-0.0517541724
-0.1203951622,-0.3611854866
-0.0260319575,-0.0780958725
0.0836031859,0.2508095577
-0.1400276768,-0.4200830304
0.0930171869,0.2790515607
-0.093523135,-0.280569405
0.131858176,0.395574528
0.0570531293,0.1711593879
0.1791993974,0.5375981922
0.0253250777,0.0759752331
0.1043734161,0.3131202483
0.044015392,0.132046176
0.1093209761,0.3279629283
0.0617015646,0.1851046938
0.068654469,0.205963407
-0.1000247928,-0.3000743784
-0.0412119644,-0.1236358932
0.0594614464,0.1783843392
-0.1233784143,-0.3701352429
0.0149336539,0.0448009617
0.0965663085,0.2896989255
-0.0148048179,-0.0444144537
0.0344341922,0.1033025766
0.0373670969,0.1121012907
0.1994312418,0.5982937254
0.0252480807,0.0757442421
-0.0317788179,-0.0953364537
0.1014044267,0.3042132801
-0.1083453123,-0.3250359369
0.0516726177,0.1550178531
0.0583526275,0.1750578825
-0.0753476867,-0.2260430601
0.1007612365,0.3022837095
0.0561444749,0.1684334247
-0.0586659958,-0.1759979874
0.1512598634,0.4537795902
-0.0444159227,-0.1332477681
-0.0415600924,-0.1246802772
-0.0233312121,-0.0699936363
-0.042904884,-0.128714652
-0.0879802963,-0.2639408889
-0.1363072441,-0.4089217323
0.0922005021,0.2766015063
0.043585686,0.130757058
0.1442194042,0.4326582126
0.0103090146,0.0309270438
0.0054874556,0.0164623668
-0.1104305532,-0.3312916596
-0.1619669958,-0.4859009874
-0.0522985919,-0.1568957757
0.1035897777,0.3107693331
-0.150269112,-0.450807336
0.2290372271,0.6871116813
-0.0190122944,-0.0570368832
0.035383405,0.106150215
0.0509501558,0.1528504674
-0.082861824,-0.248585472
0.096589977,0.289769931
-0.0302618831,-0.0907856493
-0.0223431197,-0.0670293591
-0.0601673136,-0.1805019408
0.2426180114,0.7278540342
-0.0648870986,-0.1946612958
-0.1151467256,-0.3454401768
-0.119001815,-0.357005445
0.0123759404,0.0371278212
0.0248866332,0.0746598996
0.0260575482,0.0781726446
-0.2534827817,-0.7604483451
0.1145565629,0.3436696887
-0.0955457621,-0.2866372863
-0.2737297519,-0.8211892557
-0.0132148468,-0.0396445404
0.0380004882,0.1140014646
0.0069952737,0.0209858211
0.0134300287,0.0402900861
-0.2218308931,-0.6654926793
-0.1320766565,-0.3962299695
0.0501679726,0.1505039178
0.0254838272,0.0764514816
0.0839324457,0.2517973371
-0.1329534756,-0.3988604268
0.0494115502,0.1482346506
-0.034632406,-0.103897218
-0.0317547583,-0.0952642749
0.0192890106,0.0578670318
-0.2590555878,-0.7771667634
-0.0269378341,-0.0808135023
-0.0857925003,-0.2573775009
-0.0582949693,-0.1748849079
0.1436003019,0.4308009057
-0.0539197411,-0.1617592233
0.0533548492,0.1600645476
0.1315426183,0.3946278549
0.0335715893,0.1007147679
-0.0518400148,-0.1555200444
0.0042369015,0.0127107045
-0.0008616585,-0.0025849755
-0.096924812,-0.290774436
0.0155142633,0.0465427899
-0.1050324222,-0.3150972666
0.0393172068,0.1179516204
-0.0168033631,-0.0504100893
-0.205693434,-0.617080302
0.0430791528,0.1292374584
-0.0806598016,-0.2419794048
0.0436633787,0.1309901361
-0.1555116595,-0.4665349785
0.1310662865,0.3931988595
-0.0667431617,-0.2002294851
0.0586659663,0.1759978989
0.1412361121,0.4237083363
0.0842381541,0.2527144623
0.1112573823,0.3337721469
-0.2136746912,-0.6410240736
0.0262992352,0.0788977056
0.0363737792,0.1091213376
0.1627992451,0.4883977353
0.0957768663,0.2873305989
-0.2294548526,-0.6883645578
0.0093676209,0.0281028627
-0.0500885018,-0.1502655054
-0.0581711237,-0.1745133711
-0.0285964971,-0.0857894913
-0.2020036234,-0.6060108702
0.1632605887,0.4897817661
-0.0291317031,-0.0873951093
0.0647082578,0.1941247734
-0.2021953735,-0.6065861205
-0.1295806433,-0.3887419299
0.1351460972,0.4054382916
0.0041118378,0.0123355134
0.0355390472,0.1066171416
-0.0510470695,-0.1531412085
0.0246235946,0.0738707838
0.0433043025,0.1299129075
0.05390721,0.16172163
-0.0154856523,-0.0464569569
0.0320603776,0.0961811328
0.1016182391,0.3048547173
0.0519642409,0.1558927227
0.0881869118,0.2645607354
0.0031379892,0.0094139676
-0.0551127271,-0.1653381813
-0.0668753065,-0.2006259195
-0.0161514053,-0.0484542159
-0.1348955395,-0.4046866185
-0.038405329,-0.115215987
0.0409592381,0.1228777143
-0.0489722003,-0.1469166009
-0.0436385865,-0.1309157595
0.0553285696,0.1659857088
-0.1793670926,-0.5381012778
0.0478716706,0.1436150118
0.1195184557,0.3585553671
-0.0856174314,-0.2568522942
-0.0320886773,-0.0962660319
-0.0660097266,-0.1980291798
0.0012039148,0.0036117444
0.2184621379,0.6553864137
-0.0946314286,-0.2838942858
-0.010737579,-0.032212737
0.0704463823,0.2113391469
-0.085656825,-0.256970475
-0.0356283753,-0.1068851259
-0.1349123064,-0.4047369192
-0.1346324026,-0.4038972078
0.0262005408,0.0786016224
-0.0477634038,-0.1432902114
-0.0818034477,-0.2454103431
-0.2015017222,-0.6045051666
0.1032031505,0.3096094515
0.1569034152,0.4707102456
0.0124406376,0.0373219128
-0.1021182898,-0.3063548694
-0.0507821882,-0.1523465646
-0.0417957754,-0.1253873262
-0.0188039851,-0.0564119553
-0.0488739435,-0.1466218305
-0.0538556229,-0.1615668687
0.0862398617,0.2587195851
0.0177229008,0.0531687024
0.0747985252,0.2243955756
-0.0181337378,-0.0544012134
-0.1412800118,-0.4238400354
0.0852737784,0.2558213352
-0.0499272715,-0.1497818145
-0.0466273586,-0.1398820758
0.2240243897,0.6720731691
0.0669399252,0.2008197756
-0.0318473236,-0.0955419708
-0.1726263606,-0.5178790818
-0.1661491506,-0.4984474518
-0.103019856,-0.309059568
-0.0884991718,-0.2654975154
0.1016208908,0.3048626724
-0.0522528216,-0.1567584648
-0.0374592456,-0.1123777368
-0.0630670063,-0.1892010189
-0.0327733365,-0.0983200095
0.1806735575,0.5420206725
-0.0572094069,-0.1716282207
-0.0362803773,-0.1088411319
0.1646782403,0.4940347209
-0.1713807926,-0.5141423778
-0.0217045985,-0.0651137955
-0.0852690002,-0.2558070006
0.0815169893,0.2445509679
-0.0251502025,-0.0754506075
-0.0557093562,-0.1671280686
-0.078800317,-0.236400951
0.013610145,0.040830435
-0.1175066197,-0.3525198591
0.1300887923,0.3902663769
-0.1103772392,-0.3311317176
-0.1171011569,-0.3513034707
-0.1176179566,-0.3528538698
0.0126296137,0.0378888411
-0.0158002869,-0.0474008607
-0.078017368,-0.234052104
-0.0806052429,-0.2418157287
-0.015776246,-0.047328738
-0.2265367787,-0.6796103361
0.0445107216,0.1335321648
-0.0427508003,-0.1282524009
-0.0013498393,-0.0040495179
-0.0208898921,-0.0626696763
0.0710759367,0.2132278101
-0.0961735054,-0.2885205162
0.0813350702,0.2440052106
-0.0290612684,-0.0871838052
0.1556672851,0.4670018553
0.1631974739,0.4895924217
-0.0812812043,-0.2438436129
0.0121295727,0.0363887181
0.0143333377,0.0430000131
0.0636805395,0.1910416185
-0.1044510112,-0.3133530336
0.1966269355,0.5898808065
0.0281555614,0.0844666842
0.0863037563,0.2589112689
-0.1282544541,-0.3847633623
-0.1260037468,-0.3780112404
-0.0597875494,-0.1793626482
-0.0175174195,-0.0525522585
-0.0623217749,-0.1869653247
-0.0132405347,-0.0397216041
0.0843316279,0.2529948837
-0.0279324896,-0.0837974688
-0.1140995032,-0.3422985096
-0.129182891,-0.387548673
0.0011357606,0.0034072818
0.1498013241,0.4494039723
0.1474971132,0.4424913396
0.2122874804,0.6368624412
0.0330490648,0.0991471944
0.1292094114,0.3876282342
-0.0653886702,-0.1961660106
0.1009566202,0.3028698606
0.122127325,0.366381975
0.2661416523,0.7984249569
-0.1026980357,-0.3080941071
0.0372130504,0.1116391512
-0.0679527134,-0.2038581402
-0.0786353615,-0.2359060845
0.0063563654,0.0190690962
-0.0364259909,-0.1092779727
-0.0182520632,-0.0547561896
0.1869816774,0.5609450322
0.0777559987,0.2332679961
-0.0265763032,-0.0797289096
0.2366907113,0.7100721339
0.1749476704,0.5248430112
-0.0245593179,-0.0736779537
0.0933809631,0.2801428893
0.0472894276,0.1418682828
0.102309929,0.306929787
0.0059013351,0.0177040053
0.127661354,0.382984062
-0.0723015901,-0.2169047703
0.1435443875,0.4306331625
-0.0665743982,-0.1997231946
-0.1130780669,-0.3392342007
0.0885499141,0.2656497423
0.1588759829,0.4766279487
0.0370727535,0.1112182605
-0.067590181,-0.202770543
0.0129182612,0.0387547836
-0.0402052732,-0.1206158196
-0.0214119726,-0.0642359178
0.1610552078,0.4831656234
0.0224396261,0.0673188783
-0.1611930903,-0.4835792709
-0.1557519808,-0.4672559424
-0.0324240727,-0.0972722181
0.1337546552,0.4012639656
-0.1706304636,-0.5118913908
-0.0929620948,-0.2788862844
0.0919170831,0.2757512493
-0.1589025451,-0.4767076353
-0.0007375278,-0.0022125834
-0.0215907347,-0.0647722041
0.0324637345,0.0973912035
0.0402071409,0.1206214227
0.1895303967,0.5685911901
-0.0535465316,-0.1606395948
0.0523050744,0.1569152232
0.1869741574,0.5609224722
-0.0058448177,-0.0175344531
0.0666028021,0.1998084063
-0.098143888,-0.294431664
-0.0930905297,-0.2792715891
-0.0872444899,-0.2617334697
0.0576369906,0.1729109718
0.0213988768,0.0641966304
-0.0120225119,-0.0360675357
-0.1095169072,-0.3285507216
-0.0672115748,-0.2016347244
-0.2212481941,-0.6637445823
0.1596246525,0.4788739575
0.2129396803,0.6388190409
0.0794480222,0.2383440666
0.1107215349,0.3321646047
-0.0598091228,-0.1794273684
0.0647986455,0.1943959365
-0.1800494437,-0.5401483311
-0.1698043532,-0.5094130596
0.0098980568,0.0296941704
-0.0855145508,-0.2565436524
-0.0859973298,-0.2579919894
-0.0208330412,-0.0624991236
0.1012377249,0.3037131747
-0.0259590387,-0.0778771161
-0.0352000796,-0.1056002388
0.1783708138,0.5351124414
0.0629935616,0.1889806848
0.0195079572,0.0585238716
-0.0440392894,-0.1321178682
-0.0216731061,-0.0650193183
0.0267934661,0.0803803983
-0.117001361,-0.351004083
0.0200677064,0.0602031192
-0.1559941277,-0.4679823831
-0.042874845,-0.128624535
0.0340235986,0.1020707958
0.0913641491,0.2740924473
0.1237605976,0.3712817928
0.0691673149,0.2075019447
-0.0977859192,-0.2933577576
0.0247338117,0.0742014351
0.0459982342,0.1379947026
0.0531312049,0.1593936147
0.0230516041,0.0691548123
0.0047088967,0.0141266901
0.0140106489,0.0420319467
0.1602531866,0.4807595598
0.1589472497,0.4768417491
-0.0983456836,-0.2950370508
-0.1460775921,-0.4382327763
-0.2758182198,-0.8274546594
-0.0618746419,-0.1856239257
0.0879198,0.2637594
-0.1076813475,-0.3230440425
0.1670997873,0.5012993619
-0.0232469965,-0.0697409895
0.0028998645,0.0086995935
0.0869259202,0.2607777606
0.0245129696,0.0735389088
0.0205999146,0.0617997438
0.0804642399,0.2413927197
0.0388287145,0.1164861435
-0.144455167,-0.433365501
0.0968520331,0.2905560993
-0.0145804184,-0.0437412552
-0.0259689039,-0.0779067117
0.2236369321,0.6709107963
0.0157794462,0.0473383386
-0.0147578447,-0.0442735341
0.0147514618,0.0442543854
-0.0464977202,-0.1394931606
0.132946306,0.398838918
-0.1586139391,-0.4758418173
-0.1900697949,-0.5702093847
-0.0264419944,-0.0793259832
0.0287680941,0.0863042823
-0.0367029262,-0.1101087786
-0.0473165649,-0.1419496947
0.1442116935,0.4326350805
-0.0277116191,-0.0831348573
0.2249405419,0.6748216257
-0.1321420479,-0.3964261437
0.1614106042,0.4842318126
-0.0278072304,-0.0834216912
0.0814014558,0.2442043674
-0.1370155352,-0.4110466056
-0.0128743117,-0.0386229351
-0.1213348831,-0.3640046493
-0.0746057299,-0.2238171897
0.2003948483,0.6011845449
0.0367230129,0.1101690387
-0.0021051698,-0.0063155094
-0.1656182926,-0.4968548778
-0.2601862663,-0.7805587989
0.1256691161,0.3770073483
-0.0080362782,-0.0241088346
-0.036609676,-0.109829028
-0.0300870652,-0.0902611956
-0.0970024694,-0.2910074082
0.0691366951,0.2074100853
-0.0327426315,-0.0982278945
0.0494718355,0.1484155065
7.07853796131364e-05,0.0002123561
0.0403371514,0.1210114542
-0.1510893581,-0.4532680743
-0.3124012054,-0.9372036162
0.1111834086,0.3335502258
0.1088145935,0.3264437805
-0.2417447054,-0.7252341162
0.0259965017,0.0779895051
0.0086083325,0.0258249975
-0.1452868059,-0.4358604177
0.1571394215,0.4714182645
-0.103843909,-0.311531727
0.0747369235,0.2242107705
-0.0203588757,-0.0610766271
-0.1343727477,-0.4031182431
0.1555863484,0.4667590452
-0.0644101255,-0.1932303765
-0.0283306101,-0.0849918303
-0.2159579431,-0.6478738293
-0.0397570765,-0.1192712295
0.1810909727,0.5432729181
0.0341854171,0.1025562513
0.0565795761,0.1697387283
-0.0110351487,-0.0331054461
-0.2276329002,-0.6828987006
0.1201386233,0.3604158699
0.0551663937,0.1654991811
-0.1167459065,-0.3502377195
-0.1079351553,-0.3238054659
-0.0660618454,-0.1981855362
0.011686291,0.035058873
0.1245365352,0.3736096056
0.1082731071,0.3248193213
-0.1633852992,-0.4901558976
-0.0290120313,-0.0870360939
-0.1353655856,-0.4060967568
0.1501060179,0.4503180537
-0.0183459473,-0.0550378419
-0.0791791765,-0.2375375295
0.0468058932,0.1404176796
-0.0371082013,-0.1113246039
-0.0563123022,-0.1689369066
-0.1803834894,-0.5411504682
-0.0856431137,-0.2569293411
0.1766176977,0.5298530931
0.0678332168,0.2034996504
0.0349075823,0.1047227469
-0.010133297,-0.030399891
0.1581031885,0.4743095655
0.016494324,0.049482972
0.105439909,0.316319727
-0.0238112771,-0.0714338313
0.0613301973,0.1839905919
-0.0010600259,-0.0031800777
0.1280081119,0.3840243357
0.0945453062,0.2836359186
0.0333647672,0.1000943016
0.2206018815,0.6618056445
-0.046826063,-0.140478189
0.0214659684,0.0643979052
-0.0352540685,-0.1057622055
0.0329257539,0.0987772617
0.1180438091,0.3541314273
-0.0069465833,-0.0208397499
-0.0790636128,-0.2371908384
0.0324197265,0.0972591795
0.0529796438,0.1589389314
-0.0811029493,-0.2433088479
0.1022867357,0.3068602071
0.0163142124,0.0489426372
-0.0263875274,-0.0791625822
0.1999756723,0.5999270169
-0.159470522,-0.478411566
-0.0371353218,-0.1114059654
-0.1498232225,-0.4494696675
-0.0849262711,-0.2547788133
0.042078116,0.126234348
-0.0400095359,-0.1200286077
-0.0850248001,-0.2550744003
-0.1982961167,-0.5948883501
0.0629835879,0.1889507637
0.0665574192,0.1996722576
0.1099246555,0.3297739665
0.0328672733,0.0986018199
0.0774635,0.2323905
-0.0501677328,-0.1505031984
0.0363484558,0.1090453674
0.0280814584,0.0842443752
-0.0577962955,-0.1733888865
0.1563953847,0.4691861541
0.0214252625,0.0642757875
-0.0998186265,-0.2994558795
-0.0300346698,-0.0901040094
0.0592081046,0.1776243138
-0.0418984501,-0.1256953503
0.1607279466,0.4821838398
-0.0881970179,-0.2645910537
0.0344728042,0.1034184126
-0.1038491666,-0.3115474998
0.1136621362,0.3409864086
0.0376726529,0.1130179587
0.0066796755,0.0200390265
0.029232511,0.087697533
0.001873821,0.005621463
-0.0004699858,-0.0014099574
0.1009683184,0.3029049552
0.0654016452,0.1962049356
0.1060404905,0.3181214715
0.1824382016,0.5473146048
0.0782280174,0.2346840522
0.0369722726,0.1109168178
0.0003218824,0.0009656472
-0.0089917458,-0.0269752374
-0.07772967,-0.23318901
0.0523705965,0.1571117895
0.146139065,0.438417195
-0.043108341,-0.129325023
-0.0812300968,-0.2436902904
-0.2026717086,-0.6080151258
-0.0857999597,-0.2573998791
0.0063828874,0.0191486622
-0.0964324899,-0.2892974697
-0.0052090236,-0.0156270708
-0.151031613,-0.453094839
0.1061326866,0.3183980598
-0.1454654777,-0.4363964331
-0.0414136013,-0.1242408039
-0.2051224714,-0.6153674142
0.0059806393,0.0179419179
0.0150551096,0.0451653288
-0.0358487997,-0.1075463991
-0.0175465977,-0.0526397931
0.2342306497,0.7026919491
-0.0293241357,-0.0879724071
0.1173489703,0.3520469109
-0.058645607,-0.175936821
0.0436851251,0.1310553753
0.0450144016,0.1350432048
0.0766383639,0.2299150917
-0.0942611689,-0.2827835067
0.0511146497,0.1533439491
-0.0745496855,-0.2236490565
0.0464255342,0.1392766026
0.1610206469,0.4830619407
-0.2204943093,-0.6614829279
0.0752021928,0.2256065784
0.0134477024,0.0403431072
-0.0175737834,-0.0527213502
0.1480519618,0.4441558854
0.1131113091,0.3393339273
0.0203718063,0.0611154189
0.0379305808,0.1137917424
-0.0255234909,-0.0765704727
0.1000553791,0.3001661373
-0.0741887654,-0.2225662962
-0.145951885,-0.437855655
0.1204851378,0.3614554134
0.1560125373,0.4680376119
-0.0599394946,-0.1798184838
-0.1437615879,-0.4312847637
0.0657444063,0.1972332189
0.0650815563,0.1952446689
0.0199311041,0.0597933123
-0.0593993612,-0.1781980836
0.0384751653,0.1154254959
-0.092633169,-0.277899507
-0.0908519019,-0.2725557057
-0.2737952151,-0.8213856453
-0.0408653831,-0.1225961493
-0.0578485238,-0.1735455714
-0.2490530819,-0.7471592457
-0.0614866406,-0.1844599218
-0.1465920754,-0.4397762262
0.056670913,0.170012739
0.1270669812,0.3812009436
-0.1492944142,-0.4478832426
0.0180463107,0.0541389321
0.0662920533,0.1988761599
0.0693687086,0.2081061258
0.0095257591,0.0285772773
-0.0941871738,-0.2825615214
-0.2242323035,-0.6726969105
0.0119781005,0.0359343015
-0.1186002926,-0.3558008778
-0.0898400296,-0.2695200888
0.0541068242,0.1623204726
-0.1051389254,-0.3154167762
-0.1142264075,-0.3426792225
-0.0977290701,-0.2931872103
0.0566802051,0.1700406153
-0.0038472198,-0.0115416594
0.1867562271,0.5602686813
0.0409453926,0.1228361778
-0.0751730324,-0.2255190972
0.1821259026,0.5463777078
0.075764803,0.227294409
-0.0190045985,-0.0570137955
-0.0211322851,-0.0633968553
0.0387935806,0.1163807418
0.1074454395,0.3223363185
0.0362820336,0.1088461008
0.0460660763,0.1381982289
-0.0534063162,-0.1602189486
0.0145616035,0.0436848105
-0.0807709556,-0.2423128668
0.0091219583,0.0273658749
-0.0236106243,-0.0708318729
-0.2584839182,-0.7754517546
0.0117821529,0.0353464587
-0.0042017868,-0.0126053604
-0.0848672715,-0.2546018145
0.1808372544,0.5425117632
0.0512213335,0.1536640005
0.0578816349,0.1736449047
0.017869355,0.053608065
0.0248103369,0.0744310107
0.1177039038,0.3531117114
0.0831722703,0.2495168109
0.0652072351,0.1956217053
-0.2154360906,-0.6463082718
0.0999060134,0.2997180402
-0.0308637705,-0.0925913115
0.1489146252,0.4467438756
-0.0357941804,-0.1073825412
-0.0099456231,-0.0298368693
0.0495878989,0.1487636967
0.1957822081,0.5873466243
-0.122548816,-0.367646448
0.0191448238,0.0574344714
0.1390835954,0.4172507862
-0.0471550683,-0.1414652049
-0.0420982969,-0.1262948907
0.0191311538,0.0573934614
-0.0441500255,-0.1324500765
0.1328759583,0.3986278749
0.0404433324,0.1213299972
0.2139777432,0.6419332296
0.0974898722,0.2924696166
0.0276752476,0.0830257428
0.1179618337,0.3538855011
0.0764167206,0.2292501618
-0.0725318313,-0.2175954939
0.0234503222,0.0703509666
0.1211811614,0.3635434842
-0.2068564392,-0.6205693176
-0.0865538504,-0.2596615512
-0.0663604433,-0.1990813299
-0.0973789829,-0.2921369487
-0.0534617815,-0.1603853445
-0.1695211085,-0.5085633255
0.1560472984,0.4681418952
0.0819616673,0.2458850019
0.0458431442,0.1375294326
-0.0532725018,-0.1598175054
0.0864919492,0.2594758476
0.0051327597,0.0153982791
0.0776570407,0.2329711221
0.1449635112,0.4348905336
0.0041171343,0.0123514029
-0.105570655,-0.316711965
0.0913215465,0.2739646395
0.0677985338,0.2033956014
0.0533600413,0.1600801239
0.110663846,0.331991538
-0.1575010673,-0.4725032019
-0.0652891407,-0.1958674221
-0.0079805729,-0.0239417187
-0.0977425245,-0.2932275735
0.1427794809,0.4283384427
0.0800747441,0.2402242323
0.1185961035,0.3557883105
-0.0025053793,-0.0075161379
0.0515396182,0.1546188546
0.1430728486,0.4292185458
0.0414005756,0.1242017268
0.0280099938,0.0840299814
0.0913551243,0.2740653729
0.0493643437,0.1480930311
-0.1038190964,-0.3114572892
0.0088681032,0.0266043096
-0.0268869644,-0.0806608932
-0.157379153,-0.472137459
-0.0359819087,-0.1079457261
-0.1470830045,-0.4412490135
0.0634043722,0.1902131166
0.0545286496,0.1635859488
0.1534888177,0.4604664531
-0.0797571454,-0.2392714362
-0.1572088591,-0.4716265773
-0.0840583849,-0.2521751547
0.0547695734,0.1643087202
-0.0408675223,-0.1226025669
0.0342527915,0.1027583745
0.1229907526,0.3689722578
-0.0286999832,-0.0860999496
-0.0743269007,-0.2229807021
0.1103917972,0.3311753916
0.1474413484,0.4423240452
-0.0690995487,-0.2072986461
-0.1338316785,-0.4014950355
-0.0880864514,-0.2642593542
-0.0669483292,-0.2008449876
-0.0695670604,-0.2087011812
0.2060267527,0.6180802581
-0.1898835734,-0.5696507202
0.2229018334,0.6687055002
-0.1867247545,-0.5601742635
0.0597470774,0.1792412322
0.1449033789,0.4347101367
0.0045292516,0.0135877548
-0.0964489991,-0.2893469973
0.1784771461,0.5354314383
0.1826864317,0.5480592951
0.1140255971,0.3420767913
-0.1662357643,-0.4987072929
0.0050223619,0.0150670857
0.0636808938,0.1910426814
0.0409907067,0.1229721201
0.1201201058,0.3603603174
-0.0926486798,-0.2779460394
-0.04739162,-0.14217486
-0.0047997281,-0.0143991843
0.0009390648,0.0028171944
0.0676667676,0.2030003028
0.0752431637,0.2257294911
-0.105767097,-0.317301291
0.0339257798,0.1017773394
0.0492488438,0.1477465314
-0.0334666311,-0.1003998933
-0.0580061756,-0.1740185268
0.0421958251,0.1265874753
0.0701633506,0.2104900518
0.0485322309,0.1455966927
-0.1592971348,-0.4778914044
0.132529507,0.397588521
0.007839868,0.023519604
-0.0651159707,-0.1953479121
0.1159461553,0.3478384659
-0.1233211427,-0.3699634281
0.2263747658,0.6791242974
-0.0360419308,-0.1081257924
-0.0484547314,-0.1453641942
-0.040758735,-0.122276205
0.0886282904,0.2658848712
-0.0295145267,-0.0885435801
-0.2237052348,-0.6711157044
-0.0489094853,-0.1467284559
0.0955552551,0.2866657653
0.0602520197,0.1807560591
0.1736084226,0.5208252678
-0.0689400802,-0.2068202406
-0.1876061516,-0.5628184548
0.0160811845,0.0482435535
0.1508905729,0.4526717187
-0.013592599,-0.040777797
0.0075572399,0.0226717197
-0.1881853028,-0.5645559084
-0.1038033592,-0.3114100776
0.0375360701,0.1126082103
-0.0075864772,-0.0227594316
-0.1025978775,-0.3077936325
-0.0669027925,-0.2007083775
0.0046111111,0.0138333333
0.0069424723,0.0208274169
0.0449093545,0.1347280635
-0.0175121835,-0.0525365505
-0.0126062712,-0.0378188136
0.0492588841,0.1477766523
0.058630232,0.175890696
-0.0855609472,-0.2566828416
0.0355466282,0.1066398846
0.1200645579,0.3601936737
0.1195603201,0.3586809603
-0.0174386236,-0.0523158708
0.1853564286,0.5560692858
0.1198701801,0.3596105403
-0.241022833,-0.723068499
-0.0649607745,-0.1948823235
-0.122408591,-0.367225773
0.0528724725,0.1586174175
0.0678294874,0.2034884622
-0.1173179983,-0.3519539949
0.0351691314,0.1055073942
-0.0953120298,-0.2859360894
0.0088682249,0.0266046747
-0.0571045247,-0.1713135741
0.0512189214,0.1536567642
-0.0250556668,-0.0751670004
0.0479543124,0.1438629372
-0.107659714,-0.322979142
-0.1064535444,-0.3193606332
-0.0366422108,-0.1099266324
-0.0561882981,-0.1685648943
0.081691376,0.245074128
0.030286799,0.090860397
-0.0991486383,-0.2974459149
-0.1031255102,-0.3093765306
0.0745631099,0.2236893297
-0.0455939654,-0.1367818962
0.0992756877,0.2978270631
-0.0848070456,-0.2544211368
0.0524683486,0.1574050458
-0.0332858038,-0.0998574114
0.0388628961,0.1165886883
0.039823903,0.119471709
0.0237369551,0.0712108653
0.0065730672,0.0197192016
-0.0670797284,-0.2012391852
-0.2272956893,-0.6818870679
0.1273031607,0.3819094821
-0.0179435937,-0.0538307811
0.0050751874,0.0152255622
0.045498509,0.136495527
0.1123787822,0.3371363466
-0.0787579376,-0.2362738128
0.109893295,0.329679885
-0.022589976,-0.067769928
0.0565466322,0.1696398966
-0.052600073,-0.157800219
0.0719421908,0.2158265724
-0.2246349276,-0.6739047828
-0.021573305,-0.064719915
0.0085401511,0.0256204533
-0.188178833,-0.564536499
0.0840460142,0.2521380426
-0.0635562637,-0.1906687911
0.0336567144,0.1009701432
-0.1447065003,-0.4341195009
0.0809018133,0.2427054399
-0.0334476184,-0.1003428552
0.0429206701,0.1287620103
-0.1113705804,-0.3341117412
-0.0210954686,-0.0632864058
-0.0299869116,-0.0899607348
-0.0558891485,-0.1676674455
0.0369494103,0.1108482309
-0.0323962507,-0.0971887521
0.0347611479,0.1042834437
0.0004241853,0.0012725559
-0.1462973574,-0.4388920722
-0.0030797446,-0.0092392338
-0.0492035374,-0.1476106122
-0.0903295302,-0.2709885906
0.017571234,0.052713702
0.0834141859,0.2502425577
0.0487082221,0.1461246663
-0.0014373672,-0.0043121016
0.1807364136,0.5422092408
-0.0909483047,-0.2728449141
-0.0006634734,-0.0019904202
-0.1141952206,-0.3425856618
0.0971164184,0.2913492552
0.0110070892,0.0330212676
-0.0556145995,-0.1668437985
-0.0949504399,-0.2848513197
-0.0897037208,-0.2691111624
-0.1272018966,-0.3816056898
0.0973205754,0.2919617262
-0.074395483,-0.223186449
-0.097217281,-0.291651843
0.0602331146,0.1806993438
0.1318845519,0.3956536557
0.0953275621,0.2859826863
-0.0424772754,-0.1274318262
0.1244401915,0.3733205745
-0.080574758,-0.241724274
-0.132183243,-0.396549729
-0.1155527188,-0.3466581564
-0.0885153594,-0.2655460782
-0.0969777845,-0.2909333535
-0.0941793873,-0.2825381619
0.0130877039,0.0392631117
0.0452071589,0.1356214767
-0.1210740307,-0.3632220921
-0.0418112975,-0.1254338925
-0.0689000124,-0.2067000372
-0.023471571,-0.070414713
-0.0460398117,-0.1381194351
0.0135956927,0.0407870781
-0.0662503276,-0.1987509828
0.0309583774,0.0928751322
-0.0169921546,-0.0509764638
-0.0045800789,-0.0137402367
-0.0559410127,-0.1678230381
-0.1621018436,-0.4863055308
0.0877881276,0.2633643828
0.0647066283,0.1941198849
-0.0085027033,-0.0255081099
0.027716061,0.083148183
-0.0824753199,-0.2474259597
-0.0203484773,-0.0610454319
-0.1781765868,-0.5345297604
-0.0238648816,-0.0715946448
0.1253377925,0.3760133775
-0.075566856,-0.226700568
-0.0651535821,-0.1954607463
-0.1068876075,-0.3206628225
-0.1232557243,-0.3697671729
0.0520648361,0.1561945083
0.0087895089,0.0263685267
0.0543864067,0.1631592201
0.0987054841,0.2961164523
0.0808396356,0.2425189068
-0.1338004494,-0.4014013482
0.0990860031,0.2972580093
-0.0306843279,-0.0920529837
0.0483597607,0.1450792821
-0.1538254144,-0.4614762432
-0.1237437628,-0.3712312884
0.0949632041,0.2848896123
-0.1171531983,-0.3514595949
-0.0151696443,-0.0455089329
-0.1028913678,-0.3086741034
0.0331273993,0.0993821979
0.0659526588,0.1978579764
0.0009268749,0.0027806247
-0.074315072,-0.222945216
-0.1293031635,-0.3879094905
0.2257824263,0.6773472789
-0.1431552489,-0.4294657467
-0.0551254243,-0.1653762729
0.0536728677,0.1610186031
0.0408308165,0.1224924495
-0.054993193,-0.164979579
0.0419108276,0.1257324828
0.0651131321,0.1953393963
-0.1279355435,-0.3838066305
-0.0916346947,-0.2749040841
-0.0446767321,-0.1340301963
-0.1234387762,-0.3703163286
-0.089117636,-0.267352908
-0.0052876409,-0.0158629227
0.0704906306,0.2114718918
0.1349694512,0.4049083536
-0.0313318733,-0.0939956199
-0.1185665341,-0.3556996023
-0.2686087229,-0.8058261687
0.1372319984,0.4116959952
0.0812023251,0.2436069753
-0.0026452237,-0.0079356711
0.1213827116,0.3641481348
-0.0884287702,-0.2652863106
0.0905221509,0.2715664527
-0.0151462417,-0.0454387251
0.1435740508,0.4307221524
0.0514675316,0.1544025948
-0.1014998139,-0.3044994417
-0.1714502911,-0.5143508733
0.0031979116,0.0095937348
0.0730334847,0.2191004541
-0.0938564573,-0.2815693719
0.2116473621,0.6349420863
-0.1135956527,-0.3407869581
0.0026318915,0.0078956745
0.0509134485,0.1527403455
-0.1106036032,-0.3318108096
0.0517313154,0.1551939462
0.1068157269,0.3204471807
0.0588824821,0.1766474463
-0.0590940157,-0.1772820471
0.0985198773,0.2955596319
-0.2680783051,-0.8042349153
-0.2406607054,-0.7219821162
0.0501066558,0.1503199674
0.0280451085,0.0841353255
-0.0099186707,-0.0297560121
0.2878592596,0.8635777788
0.0772555267,0.2317665801
0.1264256855,0.3792770565
-0.121498877,-0.364496631
-0.0720448348,-0.2161345044
-0.0137486594,-0.0412459782
-0.0225597169,-0.0676791507
0.0933689507,0.2801068521
-0.117252088,-0.351756264
-0.0391811779,-0.1175435337
0.0110448474,0.0331345422
0.0332360191,0.0997080573
0.0949110441,0.2847331323
0.0942952276,0.2828856828
0.0231502295,0.0694506885
0.0828235055,0.2484705165
0.0660112981,0.1980338943
0.1903813466,0.5711440398
0.12126471,0.36379413
-0.1510379789,-0.4531139367
0.0821175437,0.2463526311
-0.0357485016,-0.1072455048
0.1062704831,0.3188114493
-0.052084069,-0.156252207
0.0650415625,0.1951246875
0.1571185884,0.4713557652
-0.0249933371,-0.0749800113
-0.1849276729,-0.5547830187
-0.0981340232,-0.2944020696
0.0120828285,0.0362484855
-0.0035228701,-0.0105686103
-0.1197145749,-0.3591437247
0.1835511102,0.5506533306
-0.1895076372,-0.5685229116
0.0297636675,0.0892910025
0.0365948207,0.1097844621
0.0261278764,0.0783836292
-0.0628326261,-0.1884978783
0.0334126087,0.1002378261
-0.1591974834,-0.4775924502
-0.04768125,-0.14304375
-0.0257788803,-0.0773366409
0.0098736579,0.0296209737
-0.0022644418,-0.0067933254
-0.0356079031,-0.1068237093
0.0532205001,0.1596615003
-0.0856988681,-0.2570966043
-0.048256693,-0.144770079
0.0134736684,0.0404210052
-0.0198764334,-0.0596293002
0.1477710924,0.4433132772
-0.0505064063,-0.1515192189
0.2079606404,0.6238819212
-0.0919487951,-0.2758463853
0.2286821902,0.6860465706
0.2192811829,0.6578435487
-0.017231381,-0.051694143
-0.1342887026,-0.4028661078
0.12825786,0.38477358
-0.1219461396,-0.3658384188
-0.051965956,-0.155897868
-0.0973295329,-0.2919885987
-0.1336125317,-0.4008375951
-0.0182213308,-0.0546639924
0.1369752627,0.4109257881
0.0029239456,0.0087718368
-0.0038620061,-0.0115860183
0.1128477933,0.3385433799
0.0262771434,0.0788314302
-0.1617001562,-0.4851004686
0.2285411678,0.6856235034
0.019197058,0.057591174
0.1029293896,0.3087881688
-0.2376237574,-0.7128712722
0.0983066325,0.2949198975
0.0498454613,0.1495363839
-0.053487948,-0.160463844
-0.0693012675,-0.2079038025
0.1437725838,0.4313177514
0.0807611718,0.2422835154
0.0398450282,0.1195350846
0.0196446978,0.0589340934
-0.1701553267,-0.5104659801
0.0225384123,0.0676152369
0.2213972535,0.6641917605
0.0470192072,0.1410576216
0.1321850046,0.3965550138
0.2320822979,0.6962468937
-0.0150251859,-0.0450755577
0.0341557787,0.1024673361
-0.0338486763,-0.1015460289
-0.1372408124,-0.4117224372
0.1127609756,0.3382829268
-0.1561540803,-0.4684622409
0.0954832893,0.2864498679
-0.1362545536,-0.4087636608
0.0159748348,0.0479245044
-0.0204824157,-0.0614472471
0.0914838389,0.2744515167
0.2316571072,0.6949713216
0.0872279805,0.2616839415
-0.1847318277,-0.5541954831
0.0211216768,0.0633650304
-0.1142299791,-0.3426899373
-0.1898283021,-0.5694849063
-0.0313114141,-0.0939342423
0.0818333799,0.2455001397
-0.010705883,-0.032117649
-0.0990215643,-0.2970646929
-0.0256410733,-0.0769232199
0.1561826788,0.4685480364
-0.0062658125,-0.0187974375
-0.1095575784,-0.3286727352
0.1058424647,0.3175273941
-0.1326910748,-0.3980732244
-0.1451977573,-0.4355932719
-0.1804065528,-0.5412196584
0.0243503416,0.0730510248
-0.0732937788,-0.2198813364
-0.014903359,-0.044710077
-0.0769227982,-0.2307683946
-0.0651644433,-0.1954933299
-0.0955245898,-0.2865737694
0.0640035153,0.1920105459
-0.237901952,-0.713705856
0.0200719762,0.0602159286
0.1115436306,0.3346308918
0.0083938634,0.0251815902
-0.0510895568,-0.1532686704
-0.0516973703,-0.1550921109
-0.0873308539,-0.2619925617
0.0034576222,0.0103728666
0.0807064321,0.2421192963
0.0173641,0.0520923
-0.050900492,-0.152701476
0.1336867892,0.4010603676
-0.0509699498,-0.1529098494
0.0369269884,0.1107809652
0.0470249671,0.1410749013
0.0980441836,0.2941325508
0.0610732888,0.1832198664
-0.2658709259,-0.7976127777
-0.045939329,-0.137817987
-0.0670383781,-0.2011151343
0.0101450671,0.0304352013
-0.0443632024,-0.1330896072
0.1104337734,0.3313013202
0.1634793158,0.4904379474
0.0001282669,0.0003848007
-0.1508453533,-0.4525360599
0.0725447842,0.2176343526
-0.2437227542,-0.7311682626
-0.063395276,-0.190185828
0.0723266417,0.2169799251
-0.0435362799,-0.1306088397
-0.0189365123,-0.0568095369
0.1347578184,0.4042734552
0.0939371127,0.2818113381
0.117454348,0.352363044
0.1239139921,0.3717419763
0.1068004798,0.3204014394
0.0946479466,0.2839438398
0.0010863982,0.0032591946
-0.0410030427,-0.1230091281
0.0529475223,0.1588425669
-0.0380344358,-0.1141033074
-0.0086762464,-0.0260287392
-0.0603600683,-0.1810802049
-0.0326796013,-0.0980388039
-0.1918469377,-0.5755408131
-0.0791963368,-0.2375890104
-0.0183783325,-0.0551349975
-0.0812550118,-0.2437650354
0.0099859829,0.0299579487
0.1672084135,0.5016252405
-0.1071702887,-0.3215108661
-0.0423104199,-0.1269312597
-0.1045668763,-0.3137006289
0.0564468842,0.1693406526
-0.0505791515,-0.1517374545
0.0613240836,0.1839722508
0.0632707521,0.1898122563
0.1632801052,0.4898403156
0.0087716895,0.0263150685
0.1474854235,0.4424562705
-0.0718805839,-0.2156417517
-0.0104017128,-0.0312051384
0.0368542941,0.1105628823
-0.0401381086,-0.1204143258
0.0682687698,0.2048063094
0.0964538135,0.2893614405
-0.0697462479,-0.2092387437
-0.0593579101,-0.1780737303
-0.0394960553,-0.1184881659
-0.0128109374,-0.0384328122
0.0968118797,0.2904356391
0.0398436376,0.1195309128
0.0149882778,0.0449648334
0.1421711152,0.4265133456
-0.0492042266,-0.1476126798
0.1312360125,0.3937080375
0.032378365,0.097135095
0.1870261848,0.5610785544
-0.0502066325,-0.1506198975
-0.1951488876,-0.5854466628
0.1059574901,0.3178724703
-0.0187874166,-0.0563622498
-0.0746913535,-0.2240740605
0.0613434201,0.1840302603
-0.0317375113,-0.0952125339
0.0332716583,0.0998149749
0.0809156418,0.2427469254
0.0818443886,0.2455331658
-0.0019057457,-0.0057172371
0.0633214756,0.1899644268
-0.0904677872,-0.2714033616
-0.1137567518,-0.3412702554
-0.0906333495,-0.2719000485
0.0088349226,0.0265047678
-0.0924943667,-0.2774831001
-0.1938094408,-0.5814283224
0.0459916631,0.1379749893
0.0182511626,0.0547534878
0.0491355456,0.1474066368
0.0423603111,0.1270809333
0.0363593603,0.1090780809
-0.0072846397,-0.0218539191
0.0925921806,0.2777765418
0.1680334025,0.5041002075
-0.0724243348,-0.2172730044
-0.0062071222,-0.0186213666
0.0697441569,0.2092324707
0.0704484956,0.2113454868
0.0571411353,0.1714234059
-0.0277997239,-0.0833991717
0.045132526,0.135397578
-0.0331630656,-0.0994891968
0.0103958411,0.0311875233
0.138660739,0.415982217
0.0666340696,0.1999022088
-0.0127996301,-0.0383988903
-0.158672163,-0.476016489
-0.0855369594,-0.2566108782
-0.0322094629,-0.0966283887
0.0545683864,0.1637051592
0.0394235132,0.1182705396
-0.05840788,-0.17522364
0.0379414691,0.1138244073
0.032925816,0.098777448
-0.0015992649,-0.0047977947
-0.187000789,-0.561002367
0.0284773291,0.0854319873
0.0649728764,0.1949186292
-0.0005107296,-0.0015321888
0.1064741258,0.3194223774
-0.1752463309,-0.5257389927
0.058708537,0.176125611
-0.1559118986,-0.4677356958
0.1139648206,0.3418944618
0.0040014255,0.0120042765
-0.0640867573,-0.1922602719
-0.0671828347,-0.2015485041
0.0286120449,0.0858361347
0.1824307076,0.5472921228
-0.1018727241,-0.3056181723
0.0579840896,0.1739522688
-0.0468169586,-0.1404508758
0.0813088684,0.2439266052
-0.0591567874,-0.1774703622
-0.3439125267,-1.0317375801
-0.0236834265,-0.0710502795
0.0201526621,0.0604579863
-0.0496066365,-0.1488199095
0.1949628234,0.5848884702
-0.137635579,-0.412906737
0.1340062924,0.4020188772
-0.080261023,-0.240783069
-0.0382370874,-0.1147112622
0.1805732121,0.5417196363
-0.0327032741,-0.0981098223
-0.0087027998,-0.0261083994
-0.0436759708,-0.1310279124
-0.0385782567,-0.1157347701
-0.0808489611,-0.2425468833
0.1163912427,0.3491737281
-0.0456450988,-0.1369352964
-0.1334469708,-0.4003409124
0.0080507362,0.0241522086
-0.0639976935,-0.1919930805
-0.1408652469,-0.4225957407
-0.030157404,-0.090472212
-0.064087719,-0.192263157
0.0970732335,0.2912197005
0.0231468868,0.0694406604
0.1718885713,0.5156657139
0.1125141137,0.3375423411
-0.1279371809,-0.3838115427
0.0507943858,0.1523831574
0.0872409875,0.2617229625
0.0630877095,0.1892631285
-0.053093826,-0.159281478
0.040267753,0.120803259
-0.1156388695,-0.3469166085
-0.0134742547,-0.0404227641
0.2939091347,0.8817274041
-0.1262109755,-0.3786329265
0.1006217949,0.3018653847
0.1402504169,0.4207512507
-0.1167841051,-0.3503523153
0.1860041784,0.5580125352
0.0591370285,0.1774110855
0.1756344569,0.5269033707
-0.0357221129,-0.1071663387
-0.1627276635,-0.4881829905
0.0304017466,0.0912052398
-0.0750043234,-0.2250129702
-0.0080361774,-0.0241085322
0.1199979183,0.3599937549
-0.1301194428,-0.3903583284
-0.012116566,-0.036349698
-0.0379684723,-0.1139054169
0.0600917681,0.1802753043
0.0150792408,0.0452377224
-0.0547731026,-0.1643193078
0.0063076766,0.0189230298
-0.1501131589,-0.4503394767
-0.0219675302,-0.0659025906
-0.0609029037,-0.1827087111
0.1119773016,0.3359319048
0.0012002193,0.0036006579
-0.14397516,-0.43192548
0.1772074277,0.5316222831
-0.0401366946,-0.1204100838
0.0131241819,0.0393725457
0.0980512665,0.2941537995
0.0489964236,0.1469892708
0.0130318021,0.0390954063
-0.0442293787,-0.1326881361
0.118205849,0.354617547
0.092191775,0.276575325
0.037680575,0.113041725
0.03720217,0.11160651
-0.1523460918,-0.4570382754
0.0393903656,0.1181710968
0.1638615063,0.4915845189
0.1140356134,0.3421068402
-0.2463244301,-0.7389732903
-0.1406506114,-0.4219518342
-0.0142730221,-0.0428190663
-0.0734962593,-0.2204887779
-0.0889107556,-0.2667322668
0.0998491143,0.2995473429
0.070415653,0.211246959
-0.1018042422,-0.3054127266
-0.1218535071,-0.3655605213
-0.1189532597,-0.3568597791
0.2023176544,0.6069529632
0.0047011116,0.0141033348
0.1131378698,0.3394136094
-0.0329543456,-0.0988630368
0.0822171086,0.2466513258
-0.1282585699,-0.3847757097
0.0998562574,0.2995687722
0.01989082,0.05967246
-0.1187503207,-0.3562509621
0.0077050124,0.0231150372
0.0382786618,0.1148359854
-0.0738422815,-0.2215268445
-0.0135582707,-0.0406748121
-0.056604729,-0.169814187
-0.2135231998,-0.6405695994
-0.0223833598,-0.0671500794
-0.0871983858,-0.2615951574
-0.2012154035,-0.6036462105
0.0730652,0.2191956
-0.0404223759,-0.1212671277
-0.041361072,-0.124083216
0.1003593415,0.3010780245
0.0461572504,0.1384717512
-0.0184293792,-0.0552881376
-0.1059991795,-0.3179975385
0.0478670917,0.1436012751
0.177537414,0.532612242
-0.0190702816,-0.0572108448
0.1330008898,0.3990026694
-0.0740983279,-0.2222949837
0.0467192525,0.1401577575
0.0660950423,0.1982851269
-0.0455145009,-0.1365435027
1.71538598403576e-05,5.14615795210728E-005
-0.0889835876,-0.2669507628
0.1864863823,0.5594591469
-0.0849469701,-0.2548409103
0.1546358792,0.4639076376
0.0295957841,0.0887873523
-0.2090318487,-0.6270955461
0.0483430039,0.1450290117
0.0467431751,0.1402295253
-0.0758923376,-0.2276770128
-0.2149292327,-0.6447876981
-0.0977216209,-0.2931648627
-0.0995389144,-0.2986167432
0.0548924806,0.1646774418
-0.0378567334,-0.1135702002
-0.0095718106,-0.0287154318
0.1473421246,0.4420263738
0.0324843078,0.0974529234
0.1404375119,0.4213125357
-0.0878994036,-0.2636982108
-0.0182631298,-0.0547893894
-0.0678737862,-0.2036213586
0.2259396257,0.6778188771
0.0304278186,0.0912834558
-0.1876343773,-0.5629031319
-0.0103305381,-0.0309916143
0.0412956919,0.1238870757
0.0393933342,0.1181800026
0.1190976892,0.3572930676
0.1982661195,0.5947983585
0.0097717164,0.0293151492
0.0404835508,0.1214506524
-0.0935598247,-0.2806794741
-0.0607354653,-0.1822063959
0.1082663642,0.3247990926
-0.062456886,-0.187370658
0.0618625933,0.1855877799
-0.092930228,-0.278790684
0.044964858,0.134894574
0.1050697771,0.3152093313
-0.2163415271,-0.6490245813
-0.248035983,-0.744107949
-0.0288281625,-0.0864844875
-0.1772508564,-0.5317525692
0.0295859691,0.0887579073
-0.0914079009,-0.2742237027
0.109835509,0.329506527
-0.0799636837,-0.2398910511
0.011544166,0.034632498
0.0545225389,0.1635676167
-0.0271497885,-0.0814493655
0.0368435935,0.1105307805
0.0790768712,0.2372306136
0.0275190519,0.0825571557
0.0703837981,0.2111513943
-0.1198687015,-0.3596061045
-0.0144580698,-0.0433742094
-0.1417834393,-0.4253503179
-0.0138665467,-0.0415996401
0.0290209441,0.0870628323
0.0325291336,0.0975874008
-0.054187105,-0.162561315
0.0093238925,0.0279716775
-0.0885196067,-0.2655588201
-0.1279802938,-0.3839408814
-0.0421951486,-0.1265854458
-0.0944521113,-0.2833563339
0.1499591352,0.4498774056
-0.1337951421,-0.4013854263
-0.1712389396,-0.5137168188
-0.0525084032,-0.1575252096
0.172469035,0.517407105
-0.1049173146,-0.3147519438
0.0982323811,0.2946971433
0.1368878906,0.4106636718
0.0166502006,0.0499506018
0.0637143617,0.1911430851
-0.0666833994,-0.2000501982
-0.0081746481,-0.0245239443
0.1095548066,0.3286644198
-0.0478852085,-0.1436556255
0.0203258341,0.0609775023
-0.0305575998,-0.0916727994
-0.1242824555,-0.3728473665
0.102611529,0.307834587
0.0240911797,0.0722735391
-0.1000383972,-0.3001151916
0.0374943861,0.1124831583
0.1353998994,0.4061996982
0.025167692,0.075503076
-0.0188430612,-0.0565291836
0.0775227585,0.2325682755
-0.2252868981,-0.6758606943
-0.0326722834,-0.0980168502
0.071213558,0.213640674
-0.2175505065,-0.6526515195
-0.1561027935,-0.4683083805
-0.0131566157,-0.0394698471
0.1813340297,0.5440020891
-0.0590668859,-0.1772006577
-0.041346283,-0.124038849
-0.0682138884,-0.2046416652
-0.0131890191,-0.0395670573
0.0111211316,0.0333633948
0.0249263039,0.0747789117
-0.034955612,-0.104866836
-0.1495221102,-0.4485663306
-0.1923163994,-0.5769491982
0.2002481329,0.6007443987
-0.033874966,-0.101624898
0.1041980247,0.3125940741
-0.06591582,-0.19774746
-0.2272964974,-0.6818894922
-0.0268648798,-0.0805946394
0.0266885384,0.0800656152
-0.0990593569,-0.2971780707
0.1582971704,0.4748915112
0.0220893029,0.0662679087
0.0907990212,0.2723970636
-0.2187874554,-0.6563623662
0.1987442004,0.5962326012
0.1947321817,0.5841965451
0.0312869328,0.0938607984
-0.0248218361,-0.0744655083
-0.0693783959,-0.2081351877
0.0217203828,0.0651611484
-0.0413838641,-0.1241515923
0.0286344175,0.0859032525
0.0856943188,0.2570829564
0.0242249026,0.0726747078
-0.0484003211,-0.1452009633
0.0519872211,0.1559616633
0.0365053012,0.1095159036
0.128772769,0.386318307
0.1868523617,0.5605570851
-0.1500091614,-0.4500274842
-0.1116565975,-0.3349697925
-0.0721748187,-0.2165244561
0.0361035604,0.1083106812
0.0150054249,0.0450162747
0.200205999,0.600617997
0.0454138058,0.1362414174
0.0363112576,0.1089337728
-0.0756090291,-0.2268270873
-0.0032674713,-0.0098024139
0.0921337125,0.2764011375
-0.0134642707,-0.0403928121
-0.053199522,-0.159598566
-0.0650830959,-0.1952492877
-0.0381789569,-0.1145368707
0.0490634403,0.1471903209
-0.1962921357,-0.5888764071
-0.1534125919,-0.4602377757
-0.0243736616,-0.0731209848
0.049973045,0.149919135
-0.0180899411,-0.0542698233
-0.0749118852,-0.2247356556
0.1082708883,0.3248126649
-0.1483296058,-0.4449888174
0.0060206243,0.0180618729
0.0370322928,0.1110968784
-0.0742070426,-0.2226211278
-0.044476775,-0.133430325
-0.0836052996,-0.2508158988
0.1744184472,0.5232553416
0.1088970812,0.3266912436
-0.0808256123,-0.2424768369
0.0314108779,0.0942326337
-0.1475370858,-0.4426112574
0.0290782521,0.0872347563
0.0804668828,0.2414006484
-0.1396580461,-0.4189741383
-0.0484318303,-0.1452954909
0.0635934984,0.1907804952
0.1372323817,0.4116971451
-0.0012292311,-0.0036876933
0.1698489071,0.5095467213
-0.066385132,-0.199155396
-0.0852276025,-0.2556828075
0.1231327221,0.3693981663
0.04989336,0.14968008
-0.0100298439,-0.0300895317
0.0777036061,0.2331108183
0.0685353135,0.2056059405
-0.019529259,-0.058587777
0.0056540479,0.0169621437
-0.0637537375,-0.1912612125
0.0904758349,0.2714275047
0.0488509938,0.1465529814
-0.0181822729,-0.0545468187
0.0592886945,0.1778660835
0.1417381603,0.4252144809
0.0316007824,0.0948023472
-0.1878247492,-0.5634742476
0.1426950071,0.4280850213
-0.034443366,-0.103330098
-0.1151222183,-0.3453666549
-0.197658806,-0.592976418
0.0686871924,0.2060615772
0.1136033626,0.3408100878
-0.021141226,-0.063423678
0.1060207281,0.3180621843
-0.1742522084,-0.5227566252
-0.0046392436,-0.0139177308
-0.129245142,-0.387735426
-0.2188072176,-0.6564216528
0.1087375043,0.3262125129
-0.0889068013,-0.2667204039
-0.0435216088,-0.1305648264
0.0285716252,0.0857148756
0.0358962299,0.1076886897
0.2989120198,0.8967360594
-0.279101427,-0.837304281
-0.0980354227,-0.2941062681
0.0286861147,0.0860583441
0.0884048791,0.2652146373
-0.1313973312,-0.3941919936
-0.2121411603,-0.6364234809
-0.0802235819,-0.2406707457
-0.0524680145,-0.1574040435
-0.1373695843,-0.4121087529
-0.1578901676,-0.4736705028
-0.0408736565,-0.1226209695
0.004877285,0.014631855
0.0604852994,0.1814558982
-0.0265256315,-0.0795768945
-0.0484389993,-0.1453169979
0.137874318,0.413622954
-0.0816422308,-0.2449266924
0.0131827776,0.0395483328
-0.1238965832,-0.3716897496
0.0810036919,0.2430110757
0.0687672915,0.2063018745
-0.0476993846,-0.1430981538
-0.1625150675,-0.4875452025
-0.1277849978,-0.3833549934
0.0254933986,0.0764801958
-0.1509135996,-0.4527407988
-0.1044650052,-0.3133950156
-0.0809205929,-0.2427617787
0.0622724517,0.1868173551
-0.1628104234,-0.4884312702
0.0269046675,0.0807140025
-0.1079620912,-0.3238862736
-0.0362534295,-0.1087602885
-0.143285035,-0.429855105
0.08290192,0.24870576
0.0909437135,0.2728311405
-0.1007403413,-0.3022210239
-0.2020929273,-0.6062787819
0.059662703,0.178988109
0.0253971785,0.0761915355
0.0161379792,0.0484139376
0.1382649497,0.4147948491
0.102461297,0.307383891
-0.0199516176,-0.0598548528
0.0652361192,0.1957083576
0.325581417,0.976744251
-0.1626711258,-0.4880133774
-0.032856144,-0.098568432
-0.0966667876,-0.2900003628
-0.0120839687,-0.0362519061
-0.0242595695,-0.0727787085
0.1571998539,0.4715995617
0.1728724448,0.5186173344
0.0053304917,0.0159914751
-0.1213693323,-0.3641079969
-0.1698617261,-0.5095851783
-0.0403461961,-0.1210385883
-0.0044393084,-0.0133179252
0.2283515714,0.6850547142
0.0793752988,0.2381258964
-0.0837014834,-0.2511044502
-0.1367735587,-0.4103206761
0.018970197,0.056910591
-0.0953437238,-0.2860311714
-0.0658632914,-0.1975898742
-0.0427073305,-0.1281219915
-0.125492336,-0.376477008
-0.07514852,-0.22544556
-0.1113038623,-0.3339115869
0.0112093302,0.0336279906
0.0600057025,0.1800171075
-0.0030574507,-0.0091723521
-0.0410937554,-0.1232812662
0.0949071768,0.2847215304
-0.0179342372,-0.0538027116
-0.0681990121,-0.2045970363
0.1320626752,0.3961880256
-0.0828436877,-0.2485310631
0.0577476103,0.1732428309
0.0276914793,0.0830744379
0.1196067425,0.3588202275
-0.0571672503,-0.1715017509
0.0574273764,0.1722821292
0.1120076073,0.3360228219
-0.0259592422,-0.0778777266
-0.0170784836,-0.0512354508
0.0914001064,0.2742003192
-0.136793066,-0.410379198
0.1185499236,0.3556497708
0.0385705259,0.1157115777
-0.0013512019,-0.0040536057
-0.0461407036,-0.1384221108
-0.0854351884,-0.2563055652
0.0177680006,0.0533040018
0.1541989442,0.4625968326
0.0263611314,0.0790833942
0.0816974093,0.2450922279
-0.0377138288,-0.1131414864
0.0509068574,0.1527205722
-0.0645703743,-0.1937111229
0.0114356702,0.0343070106
0.0523922139,0.1571766417
0.0316190004,0.0948570012
0.0566050933,0.1698152799
0.0907042609,0.2721127827
0.2177530644,0.6532591932
0.1760096757,0.5280290271
-0.0028532208,-0.0085596624
0.0805115729,0.2415347187
-0.0739958351,-0.2219875053
0.0940797962,0.2822393886
0.0202278168,0.0606834504
0.1772312324,0.5316936972
0.030330416,0.090991248
0.0166039262,0.0498117786
-0.0119039884,-0.0357119652
-0.0845100163,-0.2535300489
-0.0829201507,-0.2487604521
0.1123832641,0.3371497923
0.0045986226,0.0137958678
0.0921293399,0.2763880197
0.0114469743,0.0343409229
-0.0247451451,-0.0742354353
-0.1326676626,-0.3980029878
0.0073374009,0.0220122027
-0.052506145,-0.157518435
-0.0611179314,-0.1833537942
-0.0055188183,-0.0165564549
-0.0193610246,-0.0580830738
0.1220226207,0.3660678621
-0.157773248,-0.473319744
-0.0596227689,-0.1788683067
-0.0362521878,-0.1087565634
-0.0617222687,-0.1851668061
0.1907270261,0.5721810783
-0.0419675736,-0.1259027208
0.0977755475,0.2933266425
-0.0231133124,-0.0693399372
0.1032542753,0.3097628259
-0.0695231882,-0.2085695646
0.0312255778,0.0936767334
0.0644621155,0.1933863465
0.036789735,0.110369205
0.1010870254,0.3032610762
0.0320005147,0.0960015441
0.0475132364,0.1425397092
0.14108909,0.42326727
0.0325072367,0.0975217101
0.1920144612,0.5760433836
-0.0411373766,-0.1234121298
-0.0256553333,-0.0769659999
-0.0160548614,-0.0481645842
0.0665510796,0.1996532388
-0.1973780278,-0.5921340834
-0.0076913967,-0.0230741901
0.1356542709,0.4069628127
0.1015636607,0.3046909821
-0.0963228697,-0.2889686091
0.063678694,0.191036082
0.1147020428,0.3441061284
0.0199768023,0.0599304069
0.0766747582,0.2300242746
-0.1809985244,-0.5429955732
-0.0403917631,-0.1211752893
0.0298547281,0.0895641843
0.1344048136,0.4032144408
-0.0003108982,-0.0009326946
-0.0462103677,-0.1386311031
-0.0061018508,-0.0183055524
-0.0680745744,-0.2042237232
-0.0512114202,-0.1536342606
-0.0119777787,-0.0359333361
-0.0086268702,-0.0258806106
-0.130130722,-0.390392166
0.1172538864,0.3517616592
-0.0098472271,-0.0295416813
0.0179594767,0.0538784301
-0.1594719817,-0.4784159451
-0.0055119728,-0.0165359184
0.0038920802,0.0116762406
-0.0049203639,-0.0147610917
0.0431227262,0.1293681786
-0.0061881252,-0.0185643756
0.019140465,0.057421395
-0.0422633679,-0.1267901037
0.0031204367,0.0093613101
0.0155000157,0.0465000471
0.0370774036,0.1112322108
-0.040077387,-0.120232161
0.0670658166,0.2011974498
-0.1516866066,-0.4550598198
-0.1053293141,-0.3159879423
-0.0713789158,-0.2141367474
0.219221911,0.657665733
0.0156839025,0.0470517075
0.0637759082,0.1913277246
-0.0263028245,-0.0789084735
-0.1276357542,-0.3829072626
-0.0141884836,-0.0425654508
-0.0933753549,-0.2801260647
-0.0642583233,-0.1927749699
0.0192659707,0.0577979121
0.1440745519,0.4322236557
-0.0995158901,-0.2985476703
0.0639466164,0.1918398492
0.0770766579,0.2312299737
0.1195982265,0.3587946795
-0.0293420433,-0.0880261299
-0.1215145071,-0.3645435213
0.0047690097,0.0143070291
0.0945996267,0.2837988801
0.0439583459,0.1318750377
0.0662087366,0.1986262098
0.0536964238,0.1610892714
-0.1491126017,-0.4473378051
-0.0515619323,-0.1546857969
0.0059198085,0.0177594255
0.2185654219,0.6556962657
-0.1681700181,-0.5045100543
0.0313188337,0.0939565011
0.0474130279,0.1422390837
0.062636253,0.187908759
-0.0825656196,-0.2476968588
-0.0581152755,-0.1743458265
-0.0465447653,-0.1396342959
-0.1153101683,-0.3459305049
0.173162269,0.519486807
-0.0642397536,-0.1927192608
-0.0964149083,-0.2892447249
-0.0139844951,-0.0419534853
0.0426013434,0.1278040302
-0.0548275211,-0.1644825633
-0.0612488975,-0.1837466925
-0.019045729,-0.057137187
0.0899560313,0.2698680939
-0.177988049,-0.533964147
0.1823793755,0.5471381265
0.0698838542,0.2096515626
-0.0052932743,-0.0158798229
-0.0958121045,-0.2874363135
-0.1277124908,-0.3831374724
-0.1102425058,-0.3307275174
-0.0715788972,-0.2147366916
-0.0733564318,-0.2200692954
0.099937014,0.299811042
0.0846484275,0.2539452825
-0.0572373015,-0.1717119045
-0.0372214246,-0.1116642738
0.0609242331,0.1827726993
-0.0093819831,-0.0281459493
-0.1265651465,-0.3796954395
-0.0576477689,-0.1729433067
-0.0148680533,-0.0446041599
-0.0283629867,-0.0850889601
-0.0049119682,-0.0147359046
-0.0825958678,-0.2477876034
0.0759326228,0.2277978684
-0.0140990257,-0.0422970771
0.0587628689,0.1762886067
-0.0447807693,-0.1343423079
0.1013355326,0.3040065978
-0.042487009,-0.127461027
-0.0548639687,-0.1645919061
-0.1058345917,-0.3175037751
0.0619254954,0.1857764862
-0.1879429696,-0.5638289088
0.0281058614,0.0843175842
-0.1590116398,-0.4770349194
-0.1500859539,-0.4502578617
-0.0281448447,-0.0844345341
-0.0053137493,-0.0159412479
-0.0674001534,-0.2022004602
-0.0466562758,-0.1399688274
-0.1009256698,-0.3027770094
0.0262366398,0.0787099194
0.0646255869,0.1938767607
-0.0942047724,-0.2826143172
0.1186012486,0.3558037458
0.1156581866,0.3469745598
-0.1517816493,-0.4553449479
-0.0991513442,-0.2974540326
0.0340227675,0.1020683025
0.0695103266,0.2085309798
0.0020882678,0.0062648034
-0.0228701332,-0.0686103996
-0.0553916161,-0.1661748483
0.161144854,0.483434562
0.1007744624,0.3023233872
-0.0955915689,-0.2867747067
0.1185268882,0.3555806646
0.0912852939,0.2738558817
-0.1046362284,-0.3139086852
0.0989581418,0.2968744254
0.1546799149,0.4640397447
0.1314692043,0.3944076129
0.1183224649,0.3549673947
0.210984992,0.632954976
-0.0006245836,-0.0018737508
-0.0470561526,-0.1411684578
0.1256848989,0.3770546967
-0.0433115824,-0.1299347472
0.0370364232,0.1111092696
0.0905879,0.2717637
0.1077005685,0.3231017055
0.1768118661,0.5304355983
0.0685714727,0.2057144181
-0.0504126876,-0.1512380628
0.0018315195,0.0054945585
-0.1173877627,-0.3521632881
-0.1127689322,-0.3383067966
-0.093720957,-0.281162871
0.0318684566,0.0956053698
0.1328617579,0.3985852737
-0.178516181,-0.535548543
0.0907953411,0.2723860233
-0.0557226922,-0.1671680766
0.0057271441,0.0171814323
-0.0113598261,-0.0340794783
0.1127739544,0.3383218632
0.1813082236,0.5439246708
-0.1576945522,-0.4730836566
0.0624143112,0.1872429336
0.0351011348,0.1053034044
-0.0331781255,-0.0995343765
-0.186235658,-0.558706974
0.0900555774,0.2701667322
-0.1271297017,-0.3813891051
-0.0724377782,-0.2173133346
0.0414030652,0.1242091956
0.1204450464,0.3613351392
0.0359616066,0.1078848198
-0.0750227622,-0.2250682866
-0.0496721677,-0.1490165031
-0.0060402096,-0.0181206288
0.1393399788,0.4180199364
0.060901348,0.182704044
-0.0648836908,-0.1946510724
0.0416820464,0.1250461392
-0.1495768111,-0.4487304333
-0.1787831767,-0.5363495301
0.1578086668,0.4734260004
-0.0955654894,-0.2866964682
0.1803545264,0.5410635792
0.1089742737,0.3269228211
-0.0030482746,-0.0091448238
-0.0098891071,-0.0296673213
-0.1694359092,-0.5083077276
0.0687917013,0.2063751039
-0.0148347297,-0.0445041891
-0.0463245922,-0.1389737766
0.0104996214,0.0314988642
-0.0818558044,-0.2455674132
-0.0292539014,-0.0877617042
0.1664333475,0.4993000425
-0.172521458,-0.517564374
-0.0572028599,-0.1716085797
0.1153747774,0.3461243322
0.1270705508,0.3812116524
0.0920899589,0.2762698767
-0.1118165792,-0.3354497376
0.0709376114,0.2128128342
0.0592593496,0.1777780488
0.051402974,0.154208922
-0.1521935673,-0.4565807019
-0.1128111097,-0.3384333291
0.1626071786,0.4878215358
-0.0979726888,-0.2939180664
-0.1152213864,-0.3456641592
-0.0154948154,-0.0464844462
0.0261396984,0.0784190952
-0.0608064356,-0.1824193068
-0.0875277656,-0.2625832968
0.110582713,0.331748139
-0.0034797243,-0.0104391729
-0.1765076429,-0.5295229287
-0.0126798952,-0.0380396856
0.0114842427,0.0344527281
-0.1964441863,-0.5893325589
-0.0609565047,-0.1828695141
-0.12236346,-0.36709038
-0.0506308648,-0.1518925944
0.1715343714,0.5146031142
-0.0238364161,-0.0715092483
0.1473048052,0.4419144156
-0.0422640168,-0.1267920504
-0.0822490597,-0.2467471791
-0.032056644,-0.096169932
0.0887593939,0.2662781817
-0.0142770048,-0.0428310144
0.1901508221,0.5704524663
-0.1773846165,-0.5321538495
-0.0262639602,-0.0787918806
-0.0811191465,-0.2433574395
-0.0717274647,-0.2151823941
0.161698005,0.485094015
-0.0617192035,-0.1851576105
0.229257919,0.687773757
-0.0545567455,-0.1636702365
-0.1643274476,-0.4929823428
-0.0529093045,-0.1587279135
-0.2266668184,-0.6800004552
-0.3328938352,-0.9986815056
-0.0241681448,-0.0725044344
-0.2020945155,-0.6062835465
-0.119508003,-0.358524009
0.0629578991,0.1888736973
0.001115911,0.003347733
0.0796437879,0.2389313637
0.0763046334,0.2289139002
-0.0331974673,-0.0995924019
-0.2137543064,-0.6412629192
-0.0932876405,-0.2798629215
0.0378209997,0.1134629991
-0.0304012493,-0.0912037479
0.1471313617,0.4413940851
-0.0184918122,-0.0554754366
-0.0464058525,-0.1392175575
0.0013929164,0.0041787492
0.1401558845,0.4204676535
-0.1293628768,-0.3880886304
-0.0568836289,-0.1706508867
0.0150692071,0.0452076213
-0.1052212042,-0.3156636126
-0.0443294771,-0.1329884313
0.0714737082,0.2144211246
0.2003769885,0.6011309655
-0.1544447954,-0.4633343862
-0.0847388138,-0.2542164414
0.0107122138,0.0321366414
-0.0592884949,-0.1778654847
-0.0164825148,-0.0494475444
-0.1808005425,-0.5424016275
-0.0145862003,-0.0437586009
0.044731822,0.134195466
-0.1499426186,-0.4498278558
-0.0008625715,-0.0025877145
0.079465141,0.238395423
-0.0509772388,-0.1529317164
0.2599445962,0.7798337886
-0.0163040269,-0.0489120807
0.2869805222,0.8609415666
0.0185103365,0.0555310095
-0.1937397676,-0.5812193028
0.0551499371,0.1654498113
0.0229340853,0.0688022559
0.1429715805,0.4289147415
0.0036844038,0.0110532114
-0.028892389,-0.086677167
0.1024001418,0.3072004254
-0.0525164644,-0.1575493932
-0.1203406569,-0.3610219707
-0.1447882704,-0.4343648112
-0.139989646,-0.419968938
-0.1706869756,-0.5120609268
-0.0133484157,-0.0400452471
0.0342719397,0.1028158191
-0.0912725764,-0.2738177292
-0.0968600826,-0.2905802478
-0.1303058252,-0.3909174756
-0.0202420682,-0.0607262046
0.1427797282,0.4283391846
-0.0264829603,-0.0794488809
-0.0197021207,-0.0591063621
-0.0007818255,-0.0023454765
0.061309818,0.183929454
0.0654019056,0.1962057168
-0.0008452358,-0.0025357074
0.0153134344,0.0459403032
0.1330021503,0.3990064509
-0.2237608109,-0.6712824327
0.0547507324,0.1642521972
-0.0789699686,-0.2369099058
0.0213306833,0.0639920499
-0.0749076493,-0.2247229479
0.0168237889,0.0504713667
0.0321654312,0.0964962936
-0.046904339,-0.140713017
0.0991474779,0.2974424337
0.0738812694,0.2216438082
-0.0447945139,-0.1343835417
-0.152540288,-0.457620864
0.0139663098,0.0418989294
0.1055401794,0.3166205382
0.0473390562,0.1420171686
-0.1135713576,-0.3407140728
0.0661461957,0.1984385871
-0.1626233875,-0.4878701625
0.075443006,0.226329018
0.0223673028,0.0671019084
-0.1114914803,-0.3344744409
-0.0683345564,-0.2050036692
-0.1294329686,-0.3882989058
0.0353125932,0.1059377796
0.0202909315,0.0608727945
0.0160807798,0.0482423394
-0.0008252727,-0.0024758181
0.088982165,0.266946495
0.1130329932,0.3390989796
0.0531593098,0.1594779294
-0.073513617,-0.220540851
0.1164294733,0.3492884199
0.1058078569,0.3174235707
0.0597223536,0.1791670608
0.1232211892,0.3696635676
0.0004841718,0.0014525154
0.0416950098,0.1250850294
0.0494897483,0.1484692449
-0.104985684,-0.314957052
-0.0915135033,-0.2745405099
0.2251395932,0.6754187796
-0.028775196,-0.086325588
0.0109839448,0.0329518344
-0.1218445216,-0.3655335648
0.0528578872,0.1585736616
-0.1609231365,-0.4827694095
0.0897509336,0.2692528008
-0.1281562711,-0.3844688133
-0.0518263526,-0.1554790578
-0.0640573449,-0.1921720347
-0.1439945472,-0.4319836416
-0.0364227624,-0.1092682872
0.0346495279,0.1039485837
-0.0502067026,-0.1506201078
0.0918052997,0.2754158991
0.0302289369,0.0906868107
-0.1433989169,-0.4301967507
-0.0711451189,-0.2134353567
-0.1130454815,-0.3391364445
0.0694004288,0.2082012864
-0.0609708545,-0.1829125635
0.0690308646,0.2070925938
0.1582855448,0.4748566344
-0.0469589805,-0.1408769415
-0.0674815396,-0.2024446188
-0.1004403729,-0.3013211187
0.0073695721,0.0221087163
0.0777017353,0.2331052059
-0.1080062005,-0.3240186015
0.1824260762,0.5472782286
0.0319247906,0.0957743718
0.0526245882,0.1578737646
-0.1177094885,-0.3531284655
0.0181076547,0.0543229641
-0.0809657456,-0.2428972368
0.0483789869,0.1451369607
0.0532079797,0.1596239391
-0.0120606891,-0.0361820673
-0.023701695,-0.071105085
-0.1168991371,-0.3506974113
0.0867469797,0.2602409391
0.0042976395,0.0128929185
0.0637356268,0.1912068804
-0.0611842387,-0.1835527161
0.044681329,0.134043987
-0.0140605733,-0.0421817199
-0.0073400158,-0.0220200474
0.3269905184,0.9809715552
0.0404373142,0.1213119426
-0.0900126387,-0.2700379161
0.0173131774,0.0519395322
-0.0118724851,-0.0356174553
0.1696086914,0.5088260742
0.0052244851,0.0156734553
-0.0655315365,-0.1965946095
-0.2400687751,-0.7202063253
-0.0868808008,-0.2606424024
-0.0421382869,-0.1264148607
0.0548270602,0.1644811806
-0.0052527642,-0.0157582926
0.1007712475,0.3023137425
-0.1281884023,-0.3845652069
0.0809648719,0.2428946157
0.0445671943,0.1337015829
0.0437174684,0.1311524052
0.0594749025,0.1784247075
-0.0337900436,-0.1013701308
0.0375390954,0.1126172862
0.0416981509,0.1250944527
0.2034845808,0.6104537424
-0.1903916012,-0.5711748036
-0.0408976828,-0.1226930484
-0.0075293379,-0.0225880137
-0.0618162053,-0.1854486159
-0.0443680387,-0.1331041161
0.0629156082,0.1887468246
-0.1496452695,-0.4489358085
-0.0072571163,-0.0217713489
-0.0044771978,-0.0134315934
-0.247425034,-0.742275102
0.1670916835,0.5012750505
0.054867623,0.164602869
-0.0353138292,-0.1059414876
0.0250582366,0.0751747098
0.0706477427,0.2119432281
0.0189243822,0.0567731466
-0.143454848,-0.430364544
0.1721035841,0.5163107523
-0.1023680094,-0.3071040282
-0.1089229163,-0.3267687489
0.0495470423,0.1486411269
-0.1452804441,-0.4358413323
-0.0243481327,-0.0730443981
0.1036574182,0.3109722546
0.0434217879,0.1302653637
-0.0115679295,-0.0347037885
-0.0589956242,-0.1769868726
0.0539869386,0.1619608158
0.0745259079,0.2235777237
0.0927483683,0.2782451049
0.1069986834,0.3209960502
-0.012006206,-0.036018618
-0.1202279529,-0.3606838587
-0.0950375352,-0.2851126056
-0.0451585757,-0.1354757271
0.0378415357,0.1135246071
0.0548601934,0.1645805802
-0.0719006471,-0.2157019413
0.0784614373,0.2353843119
0.1172882233,0.3518646699
-0.2246842945,-0.6740528835
0.058604171,0.175812513
-0.0482943201,-0.1448829603
-0.022629311,-0.067887933
-0.1612109665,-0.4836328995
0.084533518,0.253600554
0.1625575606,0.4876726818
-0.0680021382,-0.2040064146
-0.0300998128,-0.0902994384
0.1269267368,0.3807802104
0.1650648056,0.4951944168
-0.1019738799,-0.3059216397
0.000886358,0.002659074
0.0973937601,0.2921812803
0.2454421629,0.7363264887
-0.0944357229,-0.2833071687
0.1160336321,0.3481008963
0.094260916,0.282782748
0.2328978043,0.6986934129
0.118175554,0.354526662
0.057643679,0.172931037
-0.1941487465,-0.5824462395
-0.0950457031,-0.2851371093
0.0172527708,0.0517583124
-0.1735352965,-0.5206058895
-0.1020068136,-0.3060204408
0.1402627415,0.4207882245
-0.1899402458,-0.5698207374
-0.0084793361,-0.0254380083
-0.033431216,-0.100293648
-0.0064969089,-0.0194907267
-0.0261621091,-0.0784863273
0.0917088786,0.2751266358
-0.0618576818,-0.1855730454
-0.0260531394,-0.0781594182
0.0303258766,0.0909776298
-0.1600195094,-0.4800585282
-0.0195374169,-0.0586122507
0.0490500908,0.1471502724
-0.0724448386,-0.2173345158
0.0187970547,0.0563911641
0.0091612452,0.0274837356
-0.1165408156,-0.3496224468
-0.0086955497,-0.0260866491
0.0024944411,0.0074833233
-0.1425599583,-0.4276798749
-0.0242445446,-0.0727336338
-0.016030112,-0.048090336
0.0164317469,0.0492952407
0.0817149351,0.2451448053
0.0772546982,0.2317640946
0.0209360994,0.0628082982
0.0836934056,0.2510802168
-0.0380767128,-0.1142301384
0.0022956577,0.0068869731
-0.1073327574,-0.3219982722
-0.0969243258,-0.2907729774
-0.0416227802,-0.1248683406
-0.0585433044,-0.1756299132
0.1180430302,0.3541290906
0.1083713938,0.3251141814
-0.0292060879,-0.0876182637
-0.1279838199,-0.3839514597
-0.0650836143,-0.1952508429
-0.0737551406,-0.2212654218
-0.2487228446,-0.7461685338
0.1186655883,0.3559967649
-0.0558958837,-0.1676876511
0.0910009458,0.2730028374
0.1033761362,0.3101284086
-0.0424990203,-0.1274970609
-0.0899462446,-0.2698387338
-0.0835171661,-0.2505514983
-0.0405773657,-0.1217320971
0.148368833,0.445106499
-0.0942806519,-0.2828419557
-0.1864380935,-0.5593142805
0.0034227313,0.0102681939
0.1978584844,0.5935754532
-0.0474095143,-0.1422285429
0.049871909,0.149615727
0.1594614153,0.4783842459
-0.1672081121,-0.5016243363
0.0941684634,0.2825053902
0.0815806392,0.2447419176
0.0271575617,0.0814726851
-0.2657255137,-0.7971765411
-0.030354355,-0.091063065
-0.1058711493,-0.3176134479
0.0321201687,0.0963605061
-0.0811333346,-0.2434000038
-0.0375024505,-0.1125073515
-0.0358511652,-0.1075534956
-0.0257287521,-0.0771862563
-0.0315797894,-0.0947393682
-0.2130482478,-0.6391447434
-0.090160973,-0.270482919
-0.0251712043,-0.0755136129
0.0301861512,0.0905584536
-0.1122390954,-0.3367172862
-0.0531540776,-0.1594622328
0.0396535542,0.1189606626
0.005925285,0.017775855
0.0502013392,0.1506040176
-0.2162797125,-0.6488391375
0.0660217237,0.1980651711
0.0001896028,0.0005688084
-0.1076671817,-0.3230015451
-0.0366137056,-0.1098411168
0.0581527385,0.1744582155
0.0265697083,0.0797091249
0.0962548486,0.2887645458
0.0287212625,0.0861637875
0.0958441607,0.2875324821
-0.0150980189,-0.0452940567
0.086098347,0.258295041
-0.0019397241,-0.0058191723
-0.1481499235,-0.4444497705
-0.1006261813,-0.3018785439
0.020654158,0.061962474
-0.157681006,-0.473043018
0.0337347729,0.1012043187
-0.115427882,-0.346283646
0.2589807627,0.7769422881
0.1304616457,0.3913849371
-0.0183836803,-0.0551510409
0.0300776711,0.0902330133
0.0463687562,0.1391062686
0.0061482125,0.0184446375
-0.1907947062,-0.5723841186
-0.0781876842,-0.2345630526
-0.08630735,-0.25892205
-0.1307502065,-0.3922506195
-0.005228965,-0.015686895
-0.0480801031,-0.1442403093
-0.0340705497,-0.1022116491
-0.202719723,-0.608159169
-0.0253034541,-0.0759103623
-0.0284551828,-0.0853655484
-0.0709898475,-0.2129695425
0.0018996526,0.0056989578
-0.0538680646,-0.1616041938
0.1434487762,0.4303463286
-0.0437436759,-0.1312310277
0.2384280719,0.7152842157
-0.0654330461,-0.1962991383
0.0740310078,0.2220930234
-0.0693440428,-0.2080321284
0.1316382768,0.3949148304
0.0895373037,0.2686119111
-0.0290879698,-0.0872639094
-0.2285880463,-0.6857641389
-0.1350325794,-0.4050977382
0.0763396641,0.2290189923
0.0295273217,0.0885819651
0.0276094026,0.0828282078
0.0081562541,0.0244687623
-0.1050382119,-0.3151146357
0.0466860042,0.1400580126
-0.0082637084,-0.0247911252
-0.1388737384,-0.4166212152
-0.019889106,-0.059667318
0.1065391685,0.3196175055
-0.0328851511,-0.0986554533
-0.0519458471,-0.1558375413
0.0879386943,0.2638160829
0.0106399751,0.0319199253
-0.0876350172,-0.2629050516
0.0206207933,0.0618623799
0.0538348156,0.1615044468
0.0558189641,0.1674568923
0.1122851217,0.3368553651
-0.1648298295,-0.4944894885
0.1431867345,0.4295602035
0.2224343258,0.6673029774
0.0641258938,0.1923776814
-0.0915318989,-0.2745956967
0.018710304,0.056130912
0.1979924262,0.5939772786
0.0621818903,0.1865456709
0.0647206397,0.1941619191
-0.0098674388,-0.0296023164
0.0386179974,0.1158539922
-0.2078295604,-0.6234886812
0.0197118107,0.0591354321
-0.0194772421,-0.0584317263
-0.0871943857,-0.2615831571
-0.2601852812,-0.7805558436
-0.0152648239,-0.0457944717
-0.0103917652,-0.0311752956
-0.1728055531,-0.5184166593
-0.1358336667,-0.4075010001
0.0812449467,0.2437348401
-0.0120912106,-0.0362736318
0.0456826038,0.1370478114
0.0321606563,0.0964819689
-0.0970766503,-0.2912299509
-0.1219788509,-0.3659365527
-0.0394122616,-0.1182367848
-0.0684499801,-0.2053499403
-0.0195379629,-0.0586138887
-0.0121604072,-0.0364812216
0.013727361,0.041182083
0.042547009,0.127641027
0.0711596008,0.2134788024
-0.1103695543,-0.3311086629
0.0477380282,0.1432140846
-0.0886360993,-0.2659082979
-0.0758926265,-0.2276778795
-0.2117466068,-0.6352398204
0.1449264198,0.4347792594
-0.0503570928,-0.1510712784
-0.030356104,-0.091068312
-0.1590861886,-0.4772585658
0.058801049,0.176403147
0.1194885876,0.3584657628
-0.0508754385,-0.1526263155
-0.0159743884,-0.0479231652
-0.0656959722,-0.1970879166
0.0166052384,0.0498157152
0.117566345,0.352699035
-0.0931304256,-0.2793912768
0.0564439223,0.1693317669
-0.0902880172,-0.2708640516
0.0566376927,0.1699130781
0.104773618,0.314320854
-0.0497961181,-0.1493883543
0.1011336354,0.3034009062
0.0653115864,0.1959347592
0.070448524,0.211345572
0.0056947499,0.0170842497
-0.141978116,-0.425934348
0.0151506209,0.0454518627
-0.0057287042,-0.0171861126
0.0693369874,0.2080109622
-0.10932115,-0.32796345
-0.1422210069,-0.4266630207
0.0197135919,0.0591407757
-0.0343840226,-0.1031520678
-0.044902066,-0.134706198
-0.1284857664,-0.3854572992
-0.0329390288,-0.0988170864
0.1607414852,0.4822244556
-0.0295608223,-0.0886824669
0.0249170702,0.0747512106
-0.1151881531,-0.3455644593
-0.1071317718,-0.3213953154
0.0703608423,0.2110825269
-0.1448131737,-0.4344395211
0.1127500338,0.3382501014
-0.0674242874,-0.2022728622
0.1773840056,0.5321520168
0.1970909189,0.5912727567
-0.1121598669,-0.3364796007
0.0261664911,0.0784994733
-0.1010004558,-0.3030013674
0.0495355239,0.1486065717
-0.0836281099,-0.2508843297
0.1875744143,0.5627232429
-0.0022000478,-0.0066001434
0.0159012128,0.0477036384
-0.1633242652,-0.4899727956
-0.0265769428,-0.0797308284
-0.0697160046,-0.2091480138
-0.0164661641,-0.0493984923
-0.1426751539,-0.4280254617
-0.068011585,-0.204034755
-0.1158179829,-0.3474539487
0.0603079419,0.1809238257
0.0321859979,0.0965579937
0.1320288203,0.3960864609
0.2788057241,0.8364171723
0.212117593,0.636352779
-0.1038541459,-0.3115624377
-0.0631247286,-0.1893741858
-0.1415609329,-0.4246827987
0.0265265985,0.0795797955
0.0488594197,0.1465782591
-0.0993799359,-0.2981398077
-0.0272900521,-0.0818701563
-0.2200966299,-0.6602898897
-0.0743789656,-0.2231368968
0.036974274,0.110922822
0.1693968149,0.5081904447
0.010077144,0.030231432
0.0623108975,0.1869326925
-0.0459758473,-0.1379275419
0.0779622161,0.2338866483
0.1122255028,0.3366765084
-0.0323757299,-0.0971271897
-0.092843191,-0.278529573
-0.0956860218,-0.2870580654
-0.2006290739,-0.6018872217
0.085783234,0.257349702
0.0148766596,0.0446299788
0.1010306571,0.3030919713
-0.1706775598,-0.5120326794
0.1420677911,0.4262033733
-0.1024133572,-0.3072400716
0.0008135556,0.0024406668
0.020822285,0.062466855
0.052456415,0.157369245
-0.1311896975,-0.3935690925
0.0263661122,0.0790983366
-0.0270599937,-0.0811799811
0.1305061944,0.3915185832
-0.0199480553,-0.0598441659
0.0061587496,0.0184762488
-0.1797668083,-0.5393004249
-0.0854787877,-0.2564363631
-0.0806408387,-0.2419225161
0.0441465804,0.1324397412
0.0324879348,0.0974638044
0.0581221657,0.1743664971
-0.0569269865,-0.1707809595
-0.0493602129,-0.1480806387
0.0857726952,0.2573180856
0.2042135844,0.6126407532
-0.1719835592,-0.5159506776
0.2074035258,0.6222105774
-0.0595001968,-0.1785005904
-0.0093686354,-0.0281059062
0.0680245805,0.2040737415
0.0361972959,0.1085918877
0.1465638106,0.4396914318
-0.0181789175,-0.0545367525
0.0151945183,0.0455835549
-0.0758197341,-0.2274592023
0.1161308114,0.3483924342
-0.0945006025,-0.2835018075
0.2076510436,0.6229531308
-0.1080278326,-0.3240834978
-0.0501102752,-0.1503308256
0.0886725432,0.2660176296
-0.0186685377,-0.0560056131
-0.1052908336,-0.3158725008
-0.0448982841,-0.1346948523
0.008997334,0.026992002
0.058975196,0.176925588
-0.0741227082,-0.2223681246
0.1356043835,0.4068131505
0.044384962,0.133154886
-0.0552568373,-0.1657705119
0.0948496262,0.2845488786
0.103839738,0.311519214
-0.1532015167,-0.4596045501
0.0269751806,0.0809255418
0.0095059367,0.0285178101
0.0228285625,0.0684856875
0.0966915852,0.2900747556
0.0083869589,0.0251608767
0.0293740999,0.0881222997
0.0397839064,0.1193517192
0.0880799869,0.2642399607
-0.0734653129,-0.2203959387
-0.1755144703,-0.5265434109
0.0674055233,0.2022165699
0.0205046834,0.0615140502
0.2958512516,0.8875537548
-0.0529430707,-0.1588292121
-0.042712934,-0.128138802
0.0314758245,0.0944274735
0.1845382602,0.5536147806
-0.0370892129,-0.1112676387
-0.0282507773,-0.0847523319
0.0488172866,0.1464518598
-0.0984553287,-0.2953659861
0.2193548608,0.6580645824
0.0488677785,0.1466033355
-0.1146469215,-0.3439407645
0.1283985503,0.3851956509
-0.0837889597,-0.2513668791
0.167863893,0.503591679
0.0191603711,0.0574811133
-0.0404679728,-0.1214039184
0.1221838401,0.3665515203
-0.0636940324,-0.1910820972
0.1092465058,0.3277395174
-0.0631004127,-0.1893012381
0.0368717004,0.1106151012
-0.0104210025,-0.0312630075
0.0775489484,0.2326468452
0.1483551216,0.4450653648
0.1876394532,0.5629183596
0.2089065842,0.6267197526
0.0510971691,0.1532915073
0.1142475883,0.3427427649
0.0909212821,0.2727638463
0.0707388681,0.2122166043
0.0271095291,0.0813285873
-0.0542894947,-0.1628684841
-0.055370859,-0.166112577
-0.1428063374,-0.4284190122
0.0142648858,0.0427946574
-0.0894178058,-0.2682534174
-0.1852434589,-0.5557303767
0.028301028,0.084903084
-0.1700307379,-0.5100922137
-0.0263615154,-0.0790845462
-0.0300543294,-0.0901629882
0.0749354198,0.2248062594
0.0534794683,0.1604384049
0.0344453483,0.1033360449
0.0601852734,0.1805558202
0.062823996,0.188471988
0.0598679365,0.1796038095
-0.1751469044,-0.5254407132
0.0469634785,0.1408904355
0.0358474893,0.1075424679
0.0480450908,0.1441352724
0.0217746201,0.0653238603
0.1122151059,0.3366453177
0.0572109112,0.1716327336
0.035238083,0.105714249
-0.0155581805,-0.0466745415
0.172385491,0.517156473
-0.0524409362,-0.1573228086
0.038750711,0.116252133
-0.1843985272,-0.5531955816
0.0331619023,0.0994857069
-0.0570985051,-0.1712955153
-0.0848893227,-0.2546679681
0.1439829371,0.4319488113
0.1189507052,0.3568521156
-0.2244437409,-0.6733312227
-0.0206663704,-0.0619991112
-0.1062636373,-0.3187909119
0.108658847,0.325976541
-0.0303650845,-0.0910952535
-0.1291275425,-0.3873826275
0.0211552667,0.0634658001
-0.079977949,-0.239933847
-0.0587507083,-0.1762521249
-0.0698308036,-0.2094924108
0.0239826147,0.0719478441
0.1050661681,0.3151985043
0.1569736375,0.4709209125
-0.01152804,-0.03458412
0.0422356216,0.1267068648
0.0707622394,0.2122867182
0.0710100052,0.2130300156
-0.0204378353,-0.0613135059
0.0047275337,0.0141826011
0.0279288777,0.0837866331
-0.2148581004,-0.6445743012
0.0536324666,0.1608973998
-0.011353265,-0.034059795
-0.0546191057,-0.1638573171
0.246695403,0.740086209
-0.0521258572,-0.1563775716
-0.1358008508,-0.4074025524
0.1208373519,0.3625120557
-0.1195928747,-0.3587786241
-0.0316076017,-0.0948228051
-0.0038514978,-0.0115544934
0.0353994351,0.1061983053
0.0599483414,0.1798450242
-0.0691317421,-0.2073952263
-0.1840516261,-0.5521548783
0.0260698616,0.0782095848
-0.0143271027,-0.0429813081
0.0869298334,0.2607895002
0.1705988401,0.5117965203
0.0145757395,0.0437272185
0.124250266,0.372750798
0.0095976859,0.0287930577
0.1079716841,0.3239150523
0.1585863235,0.4757589705
0.0238843016,0.0716529048
-0.0429009779,-0.1287029337
-0.0062551392,-0.0187654176
-0.0091158214,-0.0273474642
-0.0222700503,-0.0668101509
0.0883709787,0.2651129361
0.0188522652,0.0565567956
0.0038924665,0.0116773995
-0.0156499501,-0.0469498503
0.0910404789,0.2731214367
0.0332890601,0.0998671803
0.2233960783,0.6701882349
-0.0133246488,-0.0399739464
0.0383565625,0.1150696875
-0.0371678968,-0.1115036904
-0.0065921521,-0.0197764563
0.1434896473,0.4304689419
-0.1889434946,-0.5668304838
-0.0317869783,-0.0953609349
-0.0650380631,-0.1951141893
0.0791673367,0.2375020101
-0.2009478778,-0.6028436334
0.1764720396,0.5294161188
-0.0271593037,-0.0814779111
0.0660499142,0.1981497426
0.0921107694,0.2763323082
-0.1600078207,-0.4800234621
0.0035418268,0.0106254804
-0.1001850108,-0.3005550324
0.0226201986,0.0678605958
-0.0141896101,-0.0425688303
0.0609790717,0.1829372151
-0.1521374939,-0.4564124817
0.1062556726,0.3187670178
-0.1270629239,-0.3811887717
-0.1620305689,-0.4860917067
-0.0767656126,-0.2302968378
0.0535607366,0.1606822098
0.0691965274,0.2075895822
-0.1097775116,-0.3293325348
0.118753745,0.356261235
0.104376578,0.313129734
0.0267015736,0.0801047208
0.0544958788,0.1634876364
-0.1765917721,-0.5297753163
-0.0135464263,-0.0406392789
0.1429023209,0.4287069627
-0.0228720714,-0.0686162142
-0.0680629325,-0.2041887975
0.0047597748,0.0142793244
0.1027820632,0.3083461896
0.1766886688,0.5300660064
-0.0149508728,-0.0448526184
-0.0245363687,-0.0736091061
0.1280096399,0.3840289197
-0.0358904249,-0.1076712747
0.0117701826,0.0353105478
-0.0927481227,-0.2782443681
-0.0039907896,-0.0119723688
0.0071739685,0.0215219055
0.0051179723,0.0153539169
-0.0528480621,-0.1585441863
0.0993540593,0.2980621779
-0.0228965319,-0.0686895957
0.0522949465,0.1568848395
-0.0703528423,-0.2110585269
0.0377347467,0.1132042401
0.1404772084,0.4214316252
-0.2248392661,-0.6745177983
-0.1228834567,-0.3686503701
0.0889644355,0.2668933065
-0.0478381849,-0.1435145547
0.0677413621,0.2032240863
-0.0093535735,-0.0280607205
-0.02638833,-0.07916499
0.0807326848,0.2421980544
-0.0636801708,-0.1910405124
0.0202110606,0.0606331818
0.1514654095,0.4543962285
-0.1069538221,-0.3208614663
0.0542052975,0.1626158925
-0.0136233911,-0.0408701733
0.0694316547,0.2082949641
0.0824277402,0.2472832206
0.0185455904,0.0556367712
